svm_type c_svc
kernel_type rbf
gamma 0.0625
nr_class 2
total_sv 794
rho -0.223714
label -1 1
nr_sv 447 347
SV
0.7763672198236931 1:0 2:8 3:19 4:0 5:0 6:444 7:584 8:0 9:0 10:878 11:1018 12:0 13:0 14:562 15:835 16:0 
0.7763672159055931 1:0 2:8 3:18 4:0 5:0 6:427 7:564 8:0 9:0 10:821 11:890 12:0 13:0 14:521 15:866 16:0 
0.77636721492612 1:0 2:10 3:18 4:0 5:0 6:476 7:572 8:0 9:0 10:932 11:1014 12:0 13:0 14:589 15:785 16:0 
0.7763672129671396 1:0 2:6 3:18 4:0 5:0 6:445 7:598 8:0 9:0 10:852 11:949 12:0 13:0 14:487 15:858 16:0 
0.7763672129671396 1:0 2:8 3:17 4:0 5:0 6:476 7:634 8:0 9:0 10:901 11:994 12:0 13:0 14:530 15:803 16:0 
0.7763672110081582 1:0 2:10 3:16 4:0 5:0 6:510 7:604 8:0 9:0 10:919 11:963 12:0 13:0 14:556 15:773 16:0 
0.7763672110081582 1:0 2:8 3:16 4:0 5:0 6:492 7:629 8:0 9:0 10:907 11:981 12:0 13:0 14:550 15:784 16:0 
0.7763672110081582 1:0 2:7 3:17 4:0 5:0 6:503 7:630 8:0 9:0 10:923 11:970 12:0 13:0 14:529 15:811 16:0 
0.7763672110081582 1:0 2:5 3:16 4:0 5:0 6:461 7:602 8:0 9:0 10:885 11:975 12:0 13:0 14:469 15:823 16:0 
0.7763672110081582 1:0 2:7 3:14 4:0 5:0 6:491 7:615 8:0 9:0 10:942 11:1011 12:0 13:0 14:524 15:741 16:0 
0.7763672110081582 1:0 2:4 3:10 4:0 5:0 6:469 7:593 8:0 9:0 10:898 11:902 12:0 13:0 14:532 15:731 16:0 
0.7763672110081582 1:0 2:5 3:13 4:0 5:0 6:463 7:617 8:0 9:0 10:888 11:908 12:0 13:0 14:515 15:741 16:0 
0.7763672110081582 1:0 2:6 3:12 4:0 5:0 6:470 7:561 8:0 9:0 10:928 11:854 12:0 13:0 14:593 15:661 16:0 
0.7763672110081582 1:0 2:4 3:8 4:0 5:0 6:472 7:604 8:0 9:0 10:929 11:915 12:0 13:0 14:558 15:660 16:0 
0.7763672110081582 1:0 2:6 3:11 4:0 5:0 6:454 7:635 8:0 9:0 10:938 11:926 12:0 13:0 14:598 15:661 16:0 
0.7763672110081582 1:0 2:5 3:9 4:0 5:0 6:483 7:608 8:0 9:0 10:961 11:882 12:0 13:0 14:590 15:623 16:0 
0.7763672110081582 1:0 2:8 3:11 4:0 5:0 6:456 7:656 8:0 9:0 10:912 11:912 12:0 13:0 14:578 15:650 16:0 
0.7763672031721107 1:0 2:7 3:8 4:0 5:0 6:466 7:654 8:0 9:0 10:939 11:872 12:0 13:0 14:562 15:624 16:0 
0.7763671875002478 1:0 2:7 3:4 4:0 5:0 6:461 7:628 8:0 9:0 10:996 11:849 12:0 13:0 14:642 15:563 16:0 
0.7763671875002478 1:0 2:5 3:1 4:0 5:0 6:466 7:674 8:0 9:0 10:1028 11:831 12:0 13:0 14:669 15:488 16:0 
0.7763671875002478 1:0 2:3 3:0 4:0 5:0 6:456 7:642 8:0 9:0 10:1016 11:790 12:0 13:0 14:653 15:489 16:0 
0.7763671875002391 1:0 2:3 3:2 4:0 5:0 6:419 7:637 8:0 9:0 10:1018 11:820 12:0 13:0 14:653 15:509 16:0 
0.7763671875046482 1:0 2:9 3:6 4:0 5:0 6:402 7:649 8:0 9:0 10:1019 11:786 12:0 13:0 14:695 15:532 16:0 
0.7763671875046482 1:0 2:0 3:0 4:0 5:0 6:415 7:651 8:0 9:0 10:1038 11:769 12:0 13:0 14:672 15:468 16:0 
0.7763671875046482 1:0 2:1 3:0 4:0 5:0 6:382 7:676 8:0 9:0 10:1020 11:812 12:0 13:0 14:671 15:490 16:0 
0.776367187509573 1:0 2:6 3:5 4:0 5:0 6:379 7:665 8:0 9:0 10:1017 11:807 12:0 13:0 14:704 15:556 16:0 
0.7763671911688945 1:0 2:7 3:4 4:0 5:0 6:421 7:666 8:0 9:0 10:1058 11:783 12:0 13:0 14:737 15:479 16:0 
0.7763671908866725 1:0 2:2 3:1 4:0 5:0 6:442 7:717 8:0 9:0 10:1025 11:788 12:0 13:0 14:684 15:490 16:0 
0.7763671908866725 1:0 2:4 3:2 4:0 5:0 6:437 7:731 8:0 9:0 10:1029 11:798 12:0 13:0 14:745 15:480 16:0 
0.7763671908866725 1:0 2:11 3:2 4:0 5:0 6:464 7:715 8:0 9:0 10:1095 11:760 12:0 13:0 14:846 15:418 16:0 
0.7763671908866725 1:0 2:12 3:3 4:0 5:0 6:441 7:737 8:0 9:0 10:1113 11:818 12:0 13:0 14:836 15:445 16:0 
0.7763671908866725 1:0 2:9 3:2 4:0 5:0 6:413 7:732 8:0 9:0 10:1123 11:810 12:0 13:0 14:845 15:408 16:0 
0.7763671908866725 1:0 2:11 3:1 4:0 5:0 6:430 7:766 8:0 9:0 10:1155 11:783 12:0 13:0 14:911 15:362 16:0 
0.7763671874932966 1:0 2:12 3:2 4:0 5:0 6:433 7:756 8:0 9:0 10:1133 11:806 12:0 13:0 14:876 15:377 16:0 
0.776367190399049 1:0 2:14 3:2 4:0 5:0 6:478 7:747 8:0 9:0 10:1119 11:801 12:0 13:0 14:887 15:413 16:0 
0.7763671874932966 1:0 2:14 3:0 4:0 5:0 6:447 7:763 8:0 9:0 10:1126 11:802 12:0 13:0 14:868 15:382 16:0 
0.776367190399049 1:0 2:14 3:0 4:0 5:0 6:532 7:758 8:0 9:0 10:1124 11:800 12:0 13:0 14:931 15:349 16:0 
0.776367190399049 1:0 2:18 3:2 4:0 5:0 6:500 7:782 8:0 9:0 10:1153 11:826 12:0 13:0 14:936 15:358 16:0 
0.776367190399049 1:0 2:16 3:0 4:0 5:0 6:520 7:766 8:0 9:0 10:1166 11:804 12:0 13:0 14:951 15:264 16:0 
0.7763671897577817 1:0 2:17 3:0 4:0 5:0 6:475 7:807 8:0 9:0 10:1159 11:824 12:0 13:0 14:973 15:286 16:0 
0.7763671897577817 1:0 2:17 3:0 4:0 5:0 6:527 7:819 8:0 9:0 10:1185 11:823 12:0 13:0 14:991 15:245 16:0 
0.7763671897577817 1:0 2:16 3:0 4:0 5:0 6:526 7:857 8:0 9:0 10:1200 11:863 12:0 13:0 14:990 15:245 16:0 
0.7763671897577817 1:0 2:17 3:0 4:0 5:0 6:549 7:848 8:0 9:0 10:1215 11:862 12:0 13:0 14:1027 15:256 16:0 
0.7763671876171828 1:0 2:17 3:0 4:0 5:0 6:560 7:895 8:0 9:0 10:1224 11:904 12:0 13:0 14:1030 15:233 16:0 
0.7763671876150523 1:0 2:21 3:1 4:0 5:0 6:630 7:943 8:0 9:0 10:1234 11:943 12:0 13:0 14:1045 15:261 16:0 
0.7763671876150522 1:0 2:23 3:0 4:0 5:0 6:647 7:930 8:0 9:0 10:1289 11:1007 12:0 13:0 14:1067 15:238 16:0 
0.7763671876065299 1:0 2:21 3:0 4:0 5:0 6:707 7:921 8:0 9:0 10:1293 11:998 12:0 13:0 14:1074 15:209 16:0 
0.7763671876065299 1:0 2:23 3:2 4:0 5:0 6:722 7:913 8:0 9:0 10:1240 11:991 12:0 13:0 14:1048 15:276 16:0 
0.7763671876065299 1:0 2:24 3:1 4:0 5:0 6:737 7:896 8:0 9:0 10:1261 11:983 12:0 13:0 14:1089 15:252 16:0 
0.7763672031721107 1:0 2:23 3:2 4:0 5:0 6:702 7:920 8:0 9:0 10:1268 11:1000 12:0 13:0 14:1081 15:261 16:0 
0.7763672031721107 1:0 2:24 3:2 4:0 5:0 6:713 7:940 8:3 9:0 10:1226 11:1020 12:0 13:0 14:1065 15:279 16:0 
0.7763672031721107 1:0 2:26 3:2 4:0 5:0 6:697 7:975 8:0 9:0 10:1240 11:1045 12:0 13:0 14:1093 15:284 16:0 
0.7763672031721107 1:0 2:27 3:0 4:0 5:0 6:740 7:915 8:0 9:0 10:1326 11:996 12:0 13:0 14:1155 15:210 16:0 
0.7763672031721107 1:0 2:26 3:0 4:0 5:0 6:728 7:931 8:0 9:0 10:1249 11:1083 12:0 13:0 14:1103 15:243 16:0 
0.7763672031721107 1:0 2:28 3:0 4:0 5:0 6:685 7:883 8:0 9:0 10:1302 11:1038 12:0 13:0 14:1180 15:182 16:0 
0.7763672031721107 1:0 2:29 3:0 4:0 5:0 6:711 7:877 8:0 9:0 10:1335 11:1021 12:0 13:0 14:1226 15:151 16:0 
0.7763671938416671 1:0 2:29 3:0 4:0 5:0 6:775 7:897 8:0 9:0 10:1306 11:1042 12:0 13:0 14:1209 15:175 16:0 
0.7763671937510723 1:0 2:31 3:1 4:0 5:0 6:793 7:879 8:0 9:0 10:1329 11:1038 12:0 13:1 14:1235 15:125 16:0 
0.7763671936604775 1:0 2:31 3:1 4:0 5:0 6:775 7:905 8:0 9:0 10:1320 11:1033 12:7 13:0 14:1228 15:151 16:0 
0.7763671936604775 1:0 2:32 3:0 4:0 5:0 6:790 7:871 8:0 9:0 10:1307 11:1068 12:5 13:0 14:1215 15:135 16:0 
0.7763671934792873 1:0 2:34 3:3 4:0 5:0 6:790 7:915 8:0 9:0 10:1315 11:1078 12:4 13:0 14:1231 15:168 16:0 
0.7763671934792873 1:0 2:33 3:3 4:0 5:0 6:807 7:912 8:0 9:0 10:1313 11:1030 12:2 13:0 14:1258 15:115 16:0 
0.7763671934792873 1:0 2:33 3:1 4:0 5:0 6:787 7:899 8:0 9:0 10:1318 11:1042 12:2 13:0 14:1259 15:137 16:0 
0.7763671934792873 1:0 2:31 3:0 4:0 5:0 6:824 7:882 8:0 9:0 10:1360 11:1018 12:0 13:0 14:1277 15:98 16:0 
0.7763671927545226 1:0 2:31 3:0 4:0 5:0 6:784 7:859 8:0 9:0 10:1354 11:1040 12:0 13:0 14:1272 15:101 16:0 
0.7763671925733333 1:0 2:29 3:0 4:0 5:0 6:787 7:918 8:0 9:0 10:1328 11:1030 12:0 13:1 14:1252 15:95 16:0 
0.776367192438896 1:0 2:31 3:4 4:0 5:0 6:788 7:898 8:3 9:0 10:1273 11:1039 12:4 13:0 14:1241 15:159 16:0 
0.7763671923683406 1:0 2:31 3:0 4:0 5:0 6:754 7:919 8:0 9:0 10:1304 11:1018 12:0 13:0 14:1260 15:123 16:0 
0.7763671922977852 1:0 2:30 3:0 4:0 5:0 6:742 7:934 8:0 9:0 10:1308 11:1012 12:0 13:0 14:1246 15:105 16:0 
0.7763671922977852 1:0 2:33 3:3 4:0 5:0 6:724 7:939 8:0 9:0 10:1341 11:993 12:0 13:0 14:1282 15:92 16:0 
0.7763671922109532 1:0 2:33 3:1 4:0 5:0 6:730 7:929 8:0 9:0 10:1351 11:972 12:0 13:0 14:1288 15:64 16:0 
0.7763671922109532 1:0 2:32 3:0 4:0 5:0 6:728 7:917 8:0 9:0 10:1307 11:959 12:0 13:0 14:1271 15:69 16:0 
0.7763671921566742 1:0 2:30 3:0 4:0 5:0 6:703 7:908 8:0 9:0 10:1295 11:986 12:0 13:0 14:1273 15:84 16:0 
0.7763671921566742 1:0 2:29 3:0 4:0 5:0 6:697 7:893 8:0 9:0 10:1335 11:963 12:0 13:0 14:1274 15:63 16:0 
0.7763671921566742 1:0 2:28 3:0 4:0 5:0 6:700 7:905 8:0 9:0 10:1340 11:931 12:0 13:0 14:1272 15:58 16:0 
0.7763671921566742 1:0 2:27 3:0 4:0 5:0 6:701 7:945 8:0 9:0 10:1360 11:899 12:0 13:0 14:1293 15:47 16:0 
0.7763671918485733 1:0 2:26 3:0 4:0 5:0 6:660 7:970 8:0 9:0 10:1369 11:878 12:0 13:0 14:1279 15:36 16:0 
0.7763671918485733 1:0 2:26 3:0 4:0 5:0 6:638 7:966 8:0 9:0 10:1375 11:862 12:0 13:6 14:1271 15:59 16:0 
0.7763671918485733 1:0 2:28 3:0 4:0 5:0 6:595 7:943 8:0 9:0 10:1356 11:880 12:0 13:0 14:1261 15:82 16:0 
0.7763671918485733 1:0 2:28 3:0 4:0 5:0 6:620 7:946 8:0 9:0 10:1355 11:859 12:0 13:0 14:1241 15:81 16:0 
0.7763671918485733 1:0 2:30 3:0 4:0 5:0 6:625 7:973 8:0 9:0 10:1353 11:845 12:0 13:0 14:1281 15:66 16:0 
0.7763671918485733 1:0 2:30 3:0 4:0 5:0 6:581 7:941 8:0 9:0 10:1342 11:851 12:0 13:0 14:1258 15:79 16:0 
0.7763671918485733 1:0 2:30 3:0 4:0 5:0 6:591 7:911 8:0 9:0 10:1325 11:848 12:0 13:0 14:1279 15:74 16:0 
0.7763671918485733 1:0 2:28 3:0 4:0 5:0 6:637 7:918 8:0 9:0 10:1315 11:843 12:0 13:0 14:1239 15:75 16:0 
0.7763671918485733 1:0 2:32 3:0 4:0 5:0 6:581 7:922 8:0 9:0 10:1278 11:884 12:0 13:0 14:1234 15:119 16:0 
0.7763671918485733 1:0 2:31 3:0 4:0 5:0 6:597 7:907 8:0 9:0 10:1298 11:844 12:0 13:0 14:1261 15:84 16:0 
0.7763671918485733 1:0 2:29 3:0 4:0 5:0 6:605 7:934 8:0 9:0 10:1269 11:878 12:0 13:0 14:1221 15:130 16:0 
0.7763671918485733 1:0 2:29 3:0 4:0 5:0 6:614 7:909 8:0 9:0 10:1258 11:877 12:0 13:0 14:1216 15:122 16:0 
0.7763671915922272 1:0 2:31 3:0 4:0 5:0 6:604 7:899 8:0 9:0 10:1263 11:867 12:0 13:9 14:1225 15:136 16:0 
0.7763671914511166 1:0 2:32 3:0 4:0 5:0 6:659 7:921 8:0 9:0 10:1260 11:856 12:0 13:0 14:1232 15:101 16:0 
0.7763671911688945 1:0 2:32 3:0 4:0 5:0 6:627 7:934 8:0 9:0 10:1266 11:896 12:0 13:0 14:1210 15:129 16:0 
0.7763671875002391 1:0 2:32 3:0 4:0 5:0 6:656 7:955 8:0 9:0 10:1258 11:917 12:0 13:0 14:1202 15:153 16:0 
0.7753793480802037 1:0 2:31 3:0 4:0 5:0 6:673 7:901 8:0 9:0 10:1300 11:897 12:0 13:0 14:1219 15:123 16:0 
0.7763671875081231 1:0 2:32 3:0 4:0 5:0 6:653 7:944 8:0 9:0 10:1291 11:915 12:0 13:0 14:1193 15:139 16:0 
0.7763671911688945 1:0 2:32 3:0 4:0 5:0 6:640 7:904 8:0 9:0 10:1317 11:916 12:0 13:0 14:1205 15:130 16:0 
0.775379516647944 1:0 2:33 3:0 4:0 5:0 6:676 7:900 8:0 9:0 10:1305 11:904 12:0 13:0 14:1227 15:118 16:0 
0.7763671908866725 1:0 2:32 3:0 4:0 5:0 6:635 7:918 8:0 9:0 10:1314 11:904 12:0 13:0 14:1255 15:118 16:0 
0.7763670795498232 1:0 2:33 3:0 4:0 5:0 6:638 7:918 8:0 9:0 10:1280 11:933 12:0 13:0 14:1228 15:126 16:0 
0.7763670802553814 1:0 2:33 3:1 4:0 5:0 6:638 7:924 8:0 9:0 10:1283 11:947 12:0 13:0 14:1227 15:129 16:0 
0.7763671908866725 1:0 2:32 3:0 4:0 5:0 6:672 7:932 8:0 9:0 10:1313 11:913 12:0 13:0 14:1251 15:98 16:0 
0.7763671908866725 1:0 2:29 3:0 4:0 5:0 6:615 7:930 8:0 9:0 10:1280 11:952 12:0 13:0 14:1211 15:121 16:0 
0.7763671908866725 1:0 2:31 3:0 4:0 5:0 6:655 7:940 8:0 9:0 10:1236 11:952 12:0 13:0 14:1235 15:139 16:0 
0.7763671908866725 1:0 2:32 3:0 4:0 5:0 6:635 7:921 8:0 9:0 10:1237 11:945 12:0 13:0 14:1230 15:120 16:0 
0.7763671908866725 1:0 2:33 3:0 4:0 5:0 6:684 7:907 8:0 9:0 10:1270 11:906 12:0 13:1 14:1256 15:121 16:0 
0.7763671908866725 1:0 2:33 3:2 4:0 5:0 6:642 7:946 8:0 9:0 10:1237 11:967 12:0 13:0 14:1234 15:171 16:0 
0.7763671908866725 1:0 2:33 3:1 4:0 5:0 6:686 7:913 8:0 9:0 10:1244 11:963 12:0 13:0 14:1289 15:144 16:0 
0.7763671908866725 1:0 2:33 3:0 4:0 5:0 6:662 7:882 8:0 9:0 10:1272 11:943 12:0 13:0 14:1252 15:121 16:0 
0.7763671908866725 1:0 2:33 3:0 4:0 5:0 6:626 7:884 8:0 9:0 10:1254 11:925 12:0 13:1 14:1281 15:101 16:0 
0.7763671908866725 1:0 2:30 3:0 4:0 5:0 6:593 7:859 8:0 9:0 10:1298 11:888 12:0 13:0 14:1346 15:83 16:0 
0.7763664381778109 1:0 2:30 3:0 4:0 5:0 6:598 7:901 8:0 9:0 10:1268 11:892 12:0 13:0 14:1332 15:73 16:0 
0.7763671908866725 1:1 2:30 3:0 4:0 5:0 6:561 7:878 8:0 9:0 10:1258 11:911 12:0 13:17 14:1307 15:83 16:0 
0.7753899148580823 1:0 2:30 3:0 4:0 5:0 6:589 7:906 8:0 9:0 10:1275 11:893 12:0 13:0 14:1336 15:66 16:0 
0.776367190399049 1:0 2:29 3:0 4:0 5:0 6:546 7:897 8:0 9:0 10:1289 11:923 12:0 13:0 14:1352 15:67 16:0 
0.776367190399049 1:0 2:28 3:0 4:0 5:0 6:552 7:858 8:0 9:0 10:1314 11:902 12:0 13:3 14:1363 15:62 16:0 
0.776367190399049 1:0 2:29 3:0 4:0 5:0 6:536 7:899 8:0 9:0 10:1286 11:928 12:0 13:0 14:1314 15:76 16:0 
0.776367190399049 1:0 2:29 3:0 4:0 5:0 6:565 7:895 8:0 9:0 10:1309 11:897 12:0 13:0 14:1358 15:62 16:0 
0.776367190399049 1:0 2:29 3:0 4:0 5:0 6:554 7:891 8:0 9:0 10:1315 11:912 12:0 13:0 14:1386 15:72 16:0 
0.776367190399049 1:0 2:29 3:0 4:0 5:0 6:572 7:858 8:0 9:0 10:1337 11:867 12:0 13:0 14:1372 15:52 16:0 
0.776367190399049 1:2 2:29 3:0 4:0 5:0 6:559 7:920 8:0 9:0 10:1255 11:932 12:0 13:3 14:1366 15:94 16:0 
0.776367190399049 1:0 2:27 3:0 4:0 5:0 6:589 7:883 8:0 9:0 10:1292 11:876 12:0 13:0 14:1363 15:77 16:0 
0.7763671897577817 1:0 2:28 3:0 4:0 5:0 6:605 7:899 8:0 9:0 10:1301 11:866 12:0 13:0 14:1365 15:75 16:0 
0.7763671897577817 1:0 2:29 3:0 4:0 5:0 6:600 7:920 8:0 9:0 10:1257 11:874 12:0 13:0 14:1354 15:93 16:0 
0.7763671897577817 1:1 2:30 3:0 4:0 5:0 6:607 7:889 8:0 9:0 10:1250 11:874 12:0 13:0 14:1362 15:104 16:0 
0.7763671897577817 1:0 2:30 3:0 4:0 5:0 6:552 7:829 8:0 9:0 10:1265 11:848 12:0 13:2 14:1369 15:113 16:0 
0.7763671897577817 1:0 2:31 3:0 4:0 5:0 6:504 7:854 8:0 9:0 10:1207 11:868 12:0 13:0 14:1291 15:141 16:0 
0.7763671897577817 1:0 2:33 3:0 4:0 5:0 6:539 7:874 8:0 9:0 10:1266 11:839 12:0 13:14 14:1298 15:110 16:0 
0.7763671897577817 1:0 2:35 3:0 4:0 5:0 6:512 7:888 8:0 9:0 10:1238 11:851 12:0 13:0 14:1306 15:135 16:0 
0.7763671897577817 1:0 2:34 3:0 4:0 5:0 6:523 7:890 8:0 9:0 10:1261 11:833 12:0 13:0 14:1259 15:127 16:0 
0.7763671876214441 1:0 2:36 3:0 4:0 5:0 6:542 7:922 8:0 9:0 10:1254 11:803 12:0 13:0 14:1261 15:120 16:0 
0.7763671876171828 1:0 2:34 3:0 4:0 5:0 6:520 7:890 8:0 9:0 10:1247 11:814 12:0 13:0 14:1283 15:101 16:0 
0.7763671918485732 1:0 2:33 3:2 4:0 5:0 6:522 7:887 8:0 9:0 10:1243 11:824 12:0 13:0 14:1266 15:115 16:0 
0.7763671876171828 1:0 2:32 3:2 4:0 5:0 6:497 7:877 8:0 9:0 10:1234 11:853 12:0 13:0 14:1250 15:142 16:0 
0.7763671876150523 1:0 2:32 3:1 4:0 5:0 6:572 7:938 8:0 9:0 10:1236 11:845 12:0 13:0 14:1260 15:145 16:0 
0.7763671876150523 1:0 2:33 3:0 4:0 5:0 6:589 7:881 8:0 9:0 10:1279 11:855 12:0 13:0 14:1284 15:117 16:0 
0.7763671876150522 1:0 2:33 3:2 4:0 5:0 6:601 7:851 8:0 9:0 10:1235 11:918 12:0 13:0 14:1241 15:156 16:0 
0.7763671876065299 1:0 2:33 3:2 4:0 5:0 6:612 7:850 8:0 9:0 10:1214 11:885 12:0 13:0 14:1251 15:155 16:0 
0.7763671872781707 1:0 2:33 3:2 4:0 5:0 6:594 7:844 8:0 9:0 10:1229 11:885 12:0 13:2 14:1245 15:160 16:0 
0.7763671872796168 1:0 2:32 3:1 4:0 5:0 6:603 7:838 8:0 9:0 10:1224 11:884 12:0 13:0 14:1234 15:151 16:0 
0.7763671876065299 1:0 2:32 3:1 4:0 5:0 6:612 7:806 8:0 9:0 10:1212 11:900 12:0 13:0 14:1216 15:169 16:0 
0.7763671876065299 1:0 2:32 3:4 4:0 5:0 6:629 7:836 8:0 9:0 10:1230 11:883 12:0 13:0 14:1213 15:190 16:0 
0.7763671876065299 1:0 2:33 3:4 4:0 5:0 6:659 7:884 8:0 9:0 10:1238 11:846 12:0 13:0 14:1220 15:195 16:0 
0.7763671876065299 1:0 2:31 3:5 4:0 5:0 6:669 7:907 8:0 9:0 10:1237 11:879 12:0 13:0 14:1190 15:221 16:0 
0.7763671876065299 1:0 2:30 3:7 4:0 5:0 6:687 7:910 8:0 9:0 10:1251 11:880 12:0 13:0 14:1197 15:251 16:0 
0.7763671876022686 1:0 2:29 3:7 4:0 5:0 6:644 7:902 8:0 9:0 10:1244 11:875 12:0 13:0 14:1171 15:270 16:0 
0.7763671876022686 1:0 2:26 3:9 4:0 5:0 6:634 7:909 8:0 9:0 10:1218 11:919 12:0 13:0 14:1124 15:304 16:0 
0.7763671876022686 1:0 2:28 3:9 4:0 5:0 6:568 7:886 8:0 9:0 10:1217 11:928 12:0 13:0 14:1199 15:343 16:0 
0.7763671876022686 1:0 2:26 3:10 4:0 5:0 6:618 7:844 8:0 9:0 10:1210 11:909 12:0 13:0 14:1043 15:371 16:0 
0.7753913604553778 1:0 2:22 3:14 4:0 5:0 6:607 7:898 8:0 9:0 10:1170 11:969 12:0 13:0 14:1013 15:473 16:0 
0.7753911153061495 1:0 2:21 3:15 4:0 5:0 6:608 7:919 8:0 9:0 10:1114 11:976 12:0 13:0 14:945 15:567 16:0 
0.7763672110081582 1:0 2:23 3:16 4:0 5:0 6:668 7:833 8:0 9:0 10:1116 11:982 12:0 13:0 14:949 15:561 16:0 
0.7763672031721107 1:0 2:19 3:18 4:0 5:0 6:658 7:830 8:0 9:0 10:1085 11:1028 12:0 13:0 14:933 15:601 16:0 
0.7763671918485733 1:0 2:17 3:18 4:0 5:0 6:650 7:842 8:0 9:0 10:1029 11:1050 12:0 13:0 14:838 15:654 16:0 
0.7763671908866725 1:0 2:17 3:18 4:0 5:0 6:645 7:811 8:0 9:0 10:1051 11:1015 12:0 13:0 14:850 15:604 16:0 
0.776367190399049 1:0 2:18 3:18 4:0 5:0 6:661 7:833 8:0 9:0 10:1069 11:1047 12:0 13:0 14:861 15:646 16:0 
0.7763671897577817 1:0 2:19 3:18 4:0 5:0 6:715 7:838 8:0 9:0 10:1111 11:999 12:0 13:0 14:890 15:630 16:0 
0.7763671876022686 1:0 2:21 3:16 4:0 5:0 6:683 7:897 8:0 9:0 10:1120 11:1065 12:0 13:0 14:960 15:582 16:0 
0.7763671875340896 1:0 2:23 3:14 4:0 5:0 6:687 7:924 8:0 9:0 10:1216 11:1001 12:0 13:0 14:1022 15:460 16:0 
0.7763671875340896 1:0 2:24 3:12 4:0 5:0 6:622 7:949 8:0 9:0 10:1222 11:1029 12:0 13:0 14:1043 15:426 16:0 
0.7763671875069632 1:0 2:24 3:11 4:0 5:0 6:645 7:904 8:0 9:0 10:1235 11:1056 12:0 13:0 14:1070 15:382 16:0 
0.7763671875046457 1:0 2:25 3:11 4:0 5:0 6:647 7:927 8:0 9:0 10:1246 11:1163 12:0 13:0 14:1067 15:390 16:0 
0.7763671875002391 1:0 2:26 3:7 4:0 5:0 6:665 7:853 8:0 9:0 10:1282 11:1165 12:0 13:0 14:1215 15:319 16:0 
0.776367187500099 1:0 2:27 3:10 4:0 5:0 6:672 7:857 8:0 9:0 10:1290 11:1204 12:0 13:0 14:1206 15:343 16:0 
0.776367187500099 1:0 2:28 3:7 4:0 5:0 6:715 7:883 8:0 9:0 10:1244 11:1192 12:0 13:0 14:1236 15:335 16:0 
0.7763671876022686 1:0 2:28 3:8 4:0 5:0 6:745 7:871 8:0 9:0 10:1239 11:1194 12:0 13:0 14:1124 15:368 16:0 
0.7763670488892404 1:0 2:26 3:8 4:0 5:0 6:716 7:883 8:0 9:0 10:1206 11:1198 12:0 13:0 14:1066 15:394 16:0 
0.7763670497951956 1:0 2:26 3:8 4:0 5:0 6:722 7:888 8:0 9:0 10:1214 11:1203 12:0 13:0 14:1059 15:401 16:0 
0.7763671876022686 1:0 2:25 3:7 4:0 5:0 6:729 7:882 8:0 9:0 10:1218 11:1224 12:0 13:0 14:1045 15:415 16:0 
0.7763671876022686 1:0 2:26 3:7 4:0 5:0 6:751 7:872 8:0 9:0 10:1212 11:1247 12:0 13:0 14:1015 15:423 16:0 
0.7763671876022686 1:0 2:25 3:8 4:0 5:0 6:767 7:817 8:0 9:0 10:1184 11:1289 12:0 13:0 14:978 15:449 16:0 
0.7763671876022686 1:0 2:24 3:8 4:0 5:0 6:766 7:786 8:0 9:0 10:1167 11:1335 12:1 13:0 14:947 15:460 16:0 
0.7763671876022686 1:0 2:24 3:9 4:0 5:0 6:819 7:750 8:0 9:0 10:1168 11:1356 12:18 13:0 14:941 15:478 16:0 
0.7763671876022686 1:0 2:25 3:8 4:0 5:0 6:853 7:779 8:0 9:0 10:1174 11:1334 12:20 13:0 14:997 15:450 16:0 
0.7763671876022686 1:0 2:25 3:8 4:0 5:0 6:818 7:758 8:0 9:0 10:1170 11:1357 12:20 13:0 14:957 15:458 16:0 
0.7763671876022686 1:0 2:25 3:7 4:0 5:0 6:842 7:731 8:0 9:0 10:1164 11:1352 12:19 13:0 14:961 15:429 16:0 
0.7763671876022686 1:0 2:25 3:7 4:0 5:0 6:877 7:761 8:0 9:0 10:1174 11:1326 12:31 13:0 14:975 15:376 16:0 
0.7763671875340896 1:0 2:25 3:5 4:0 5:0 6:822 7:710 8:0 9:0 10:1178 11:1326 12:19 13:0 14:1041 15:368 16:0 
0.7763671875340896 1:0 2:27 3:4 4:0 5:0 6:837 7:733 8:0 9:0 10:1205 11:1323 12:20 13:0 14:1075 15:350 16:0 
0.7763671875340896 1:0 2:27 3:3 4:0 5:0 6:873 7:774 8:0 9:0 10:1242 11:1299 12:3 13:0 14:1081 15:289 16:0 
0.7763671875340896 1:0 2:27 3:3 4:0 5:0 6:861 7:783 8:0 9:0 10:1238 11:1285 12:6 13:0 14:1098 15:295 16:0 
0.7763671875340896 1:0 2:27 3:1 4:0 5:0 6:882 7:769 8:0 9:0 10:1264 11:1246 12:1 13:0 14:1130 15:217 16:0 
0.7763671875340896 1:0 2:28 3:1 4:0 5:0 6:863 7:742 8:0 9:0 10:1293 11:1248 12:0 13:0 14:1161 15:190 16:0 
0.7763671875340896 1:0 2:27 3:0 4:0 5:0 6:859 7:780 8:0 9:0 10:1268 11:1223 12:11 13:0 14:1179 15:190 16:0 
0.7763671875340896 1:0 2:28 3:0 4:0 5:0 6:817 7:786 8:0 9:0 10:1250 11:1221 12:17 13:0 14:1156 15:200 16:0 
0.7763671875340896 1:0 2:28 3:0 4:0 5:0 6:824 7:757 8:0 9:0 10:1250 11:1210 12:4 13:0 14:1192 15:169 16:0 
0.7763671875340896 1:0 2:27 3:0 4:0 5:0 6:796 7:755 8:0 9:0 10:1219 11:1206 12:12 13:0 14:1183 15:167 16:0 
0.7763671875340896 1:0 2:30 3:0 4:0 5:0 6:783 7:752 8:0 9:0 10:1269 11:1180 12:5 13:0 14:1217 15:163 16:0 
0.7763671875340896 1:0 2:32 3:3 4:0 5:0 6:787 7:811 8:0 9:0 10:1245 11:1161 12:23 13:0 14:1239 15:190 16:0 
0.7763671875340896 1:0 2:32 3:3 4:0 5:0 6:764 7:820 8:0 9:0 10:1225 11:1190 12:25 13:0 14:1195 15:220 16:0 
0.7763671875340896 1:0 2:34 3:2 4:0 5:0 6:786 7:769 8:0 9:0 10:1252 11:1145 12:1 13:0 14:1256 15:148 16:0 
0.7763671875340896 1:0 2:34 3:2 4:0 5:0 6:767 7:802 8:0 9:0 10:1213 11:1112 12:0 13:0 14:1256 15:155 16:0 
0.7763671875340896 1:0 2:34 3:2 4:0 5:0 6:772 7:828 8:0 9:0 10:1204 11:1118 12:0 13:0 14:1230 15:169 16:0 
0.7763671875340896 1:0 2:34 3:1 4:0 5:0 6:772 7:796 8:0 9:0 10:1252 11:1086 12:0 13:0 14:1264 15:134 16:0 
0.7763671875340896 1:0 2:35 3:3 4:0 5:0 6:738 7:788 8:0 9:0 10:1221 11:1101 12:0 13:0 14:1233 15:173 16:0 
0.7763671918485732 1:0 2:34 3:2 4:0 5:0 6:729 7:808 8:0 9:0 10:1222 11:1111 12:0 13:0 14:1229 15:171 16:0 
0.7763671875340896 1:0 2:33 3:2 4:0 5:0 6:690 7:761 8:0 9:0 10:1243 11:1096 12:0 13:0 14:1265 15:143 16:0 
0.7763671875340896 1:0 2:33 3:1 4:0 5:0 6:647 7:754 8:0 9:0 10:1211 11:1103 12:0 13:0 14:1265 15:155 16:0 
0.7763671875340896 1:0 2:35 3:0 4:0 5:0 6:713 7:768 8:0 9:0 10:1298 11:1006 12:0 13:0 14:1334 15:84 16:0 
0.7763671875340896 1:0 2:36 3:0 4:0 5:0 6:718 7:832 8:0 9:0 10:1310 11:994 12:0 13:0 14:1344 15:72 16:0 
0.7763671875340896 1:0 2:35 3:0 4:0 5:0 6:649 7:841 8:0 9:0 10:1301 11:956 12:0 13:0 14:1341 15:70 16:0 
0.7763671875340896 1:0 2:36 3:0 4:0 5:0 6:627 7:864 8:0 9:0 10:1298 11:933 12:0 13:0 14:1347 15:56 16:0 
0.7763671875101492 1:0 2:34 3:0 4:0 5:0 6:636 7:861 8:0 9:0 10:1342 11:856 12:0 13:0 14:1356 15:35 16:0 
0.7763671875100042 1:0 2:35 3:0 4:0 5:0 6:614 7:909 8:0 9:0 10:1279 11:844 12:0 13:0 14:1355 15:34 16:0 
0.7763671875098593 1:0 2:34 3:0 4:0 5:0 6:579 7:902 8:0 9:0 10:1293 11:834 12:0 13:0 14:1365 15:27 16:0 
0.7763671875098592 1:0 2:36 3:0 4:0 5:0 6:605 7:878 8:0 9:0 10:1319 11:814 12:0 13:0 14:1371 15:19 16:0 
0.776367187509573 1:0 2:36 3:0 4:0 5:0 6:607 7:896 8:0 9:0 10:1284 11:813 12:0 13:0 14:1376 15:23 16:0 
0.776367187509573 1:0 2:35 3:0 4:0 5:0 6:603 7:891 8:0 9:0 10:1263 11:833 12:0 13:0 14:1336 15:61 16:0 
0.7763671875095694 1:0 2:35 3:0 4:0 5:0 6:598 7:879 8:0 9:0 10:1340 11:823 12:0 13:0 14:1355 15:34 16:0 
0.7763671875095692 1:0 2:36 3:0 4:0 5:0 6:595 7:868 8:0 9:0 10:1263 11:842 12:0 13:0 14:1396 15:46 16:0 
0.7763671875084131 1:0 2:34 3:0 4:0 5:0 6:577 7:844 8:0 9:0 10:1264 11:859 12:0 13:0 14:1287 15:73 16:0 
0.7763671875081231 1:0 2:36 3:1 4:0 5:0 6:615 7:850 8:0 9:0 10:1284 11:830 12:0 13:0 14:1304 15:60 16:0 
0.7763671875075431 1:0 2:35 3:1 4:0 5:0 6:562 7:860 8:0 9:0 10:1268 11:842 12:0 13:0 14:1286 15:102 16:0 
0.7763671875075431 1:0 2:35 3:2 4:0 5:0 6:574 7:851 8:0 9:0 10:1274 11:841 12:0 13:0 14:1264 15:122 16:0 
0.7763671875069655 1:0 2:35 3:2 4:0 5:0 6:538 7:876 8:0 9:0 10:1232 11:818 12:0 13:0 14:1299 15:121 16:0 
0.7753916668770087 1:0 2:35 3:2 4:0 5:0 6:524 7:857 8:0 9:0 10:1220 11:812 12:0 13:0 14:1267 15:115 16:0 
0.7763671918485731 1:0 2:35 3:2 4:0 5:0 6:503 7:838 8:0 9:0 10:1214 11:815 12:0 13:0 14:1249 15:114 16:0 
0.7753916362391246 1:0 2:35 3:2 4:0 5:0 6:505 7:828 8:0 9:0 10:1224 11:802 12:0 13:0 14:1268 15:138 16:0 
0.7763671914511163 1:0 2:37 3:2 4:0 5:0 6:505 7:835 8:0 9:0 10:1230 11:800 12:0 13:0 14:1250 15:123 16:0 
0.7753914217277804 1:0 2:34 3:3 4:0 5:0 6:474 7:846 8:0 9:0 10:1187 11:827 12:0 13:0 14:1214 15:156 16:0 
0.7753913604553778 1:0 2:34 3:2 4:0 5:0 6:487 7:842 8:0 9:0 10:1236 11:806 12:0 13:0 14:1248 15:152 16:0 
0.7753913604553778 1:0 2:32 3:3 4:0 5:0 6:431 7:773 8:0 9:0 10:1210 11:825 12:0 13:0 14:1238 15:171 16:0 
0.7753913604553777 1:0 2:32 3:4 4:0 5:0 6:440 7:797 8:0 9:0 10:1225 11:814 12:0 13:0 14:1248 15:173 16:0 
0.7753911153061495 1:0 2:31 3:4 4:0 5:0 6:450 7:813 8:0 9:0 10:1220 11:799 12:0 13:0 14:1225 15:147 16:0 
0.7753911153061495 1:0 2:31 3:4 4:0 5:0 6:474 7:820 8:0 9:0 10:1239 11:791 12:0 13:0 14:1200 15:175 16:0 
0.7753906916063742 1:0 2:31 3:5 4:0 5:0 6:470 7:743 8:0 9:0 10:1210 11:801 12:0 13:0 14:1179 15:187 16:0 
0.775390689647386 1:0 2:29 3:6 4:0 5:0 6:471 7:753 8:0 9:0 10:1183 11:868 12:0 13:0 14:1140 15:253 16:0 
0.7763672129671396 1:0 2:28 3:7 4:0 5:0 6:417 7:766 8:0 9:0 10:1162 11:908 12:0 13:0 14:1086 15:331 16:0 
0.7763672110081582 1:0 2:26 3:7 4:0 5:0 6:469 7:791 8:0 9:0 10:1124 11:911 12:0 13:0 14:1045 15:353 16:0 
0.7763672110081582 1:0 2:26 3:9 4:0 5:0 6:479 7:777 8:0 9:0 10:1203 11:904 12:0 13:0 14:1069 15:329 16:0 
0.7763672110081582 1:0 2:24 3:11 4:0 5:0 6:479 7:819 8:0 9:0 10:1147 11:934 12:0 13:0 14:981 15:423 16:0 
0.7763672031721107 1:0 2:24 3:11 4:0 5:0 6:490 7:798 8:0 9:0 10:1137 11:902 12:0 13:0 14:1004 15:435 16:0 
0.7763672031721107 1:0 2:21 3:15 4:0 5:0 6:447 7:765 8:0 9:0 10:1109 11:950 12:0 13:0 14:954 15:513 16:0 
0.7763671936604775 1:0 2:23 3:13 4:0 5:0 6:477 7:768 8:0 9:0 10:1090 11:932 12:0 13:0 14:941 15:517 16:0 
0.7763671934792873 1:0 2:22 3:15 4:0 5:0 6:442 7:761 8:0 9:0 10:1094 11:956 12:0 13:0 14:894 15:550 16:0 
0.7763671922977852 1:0 2:20 3:17 4:0 5:0 6:459 7:827 8:0 9:0 10:1091 11:924 12:0 13:0 14:902 15:559 16:0 
0.7763671922109532 1:0 2:19 3:18 4:0 5:0 6:461 7:829 8:0 9:0 10:1119 11:918 12:0 13:0 14:847 15:630 16:0 
0.7763671921566742 1:0 2:20 3:17 4:0 5:0 6:505 7:813 8:0 9:0 10:1144 11:854 12:0 13:0 14:856 15:546 16:0 
0.7763671918485733 1:0 2:16 3:17 4:0 5:0 6:505 7:863 8:0 9:0 10:1112 11:921 12:0 13:0 14:766 15:634 16:0 
0.7763671918485733 1:0 2:17 3:15 4:0 5:0 6:542 7:808 8:0 9:0 10:1135 11:889 12:0 13:0 14:806 15:553 16:0 
0.7763671918485733 1:0 2:10 3:13 4:0 5:0 6:519 7:803 8:0 9:0 10:1093 11:914 12:0 13:0 14:730 15:567 16:0 
0.7763671911688945 1:0 2:7 3:12 4:0 5:0 6:572 7:817 8:0 9:0 10:1035 11:882 12:0 13:0 14:630 15:564 16:0 
0.7763671908866725 1:0 2:1 3:11 4:0 5:0 6:588 7:813 8:0 9:0 10:1006 11:958 12:0 13:0 14:525 15:583 16:0 
0.7763671908866725 1:0 2:0 3:11 4:0 5:0 6:601 7:799 8:0 9:0 10:1000 11:949 12:0 13:0 14:491 15:596 16:0 
0.7763671908866725 1:0 2:0 3:0 4:0 5:0 6:585 7:764 8:0 9:0 10:980 11:896 12:0 13:0 14:443 15:432 16:0 
0.776367190399049 1:0 2:0 3:0 4:0 5:0 6:608 7:724 8:0 9:0 10:956 11:940 12:0 13:0 14:434 15:499 16:0 
0.776367190399049 1:0 2:0 3:0 4:0 5:0 6:603 7:715 8:0 9:0 10:960 11:977 12:0 13:0 14:382 15:480 16:0 
0.7763671897577817 1:0 2:0 3:0 4:0 5:0 6:619 7:783 8:0 9:0 10:946 11:976 12:0 13:0 14:347 15:385 16:0 
0.7763671897577817 1:0 2:0 3:0 4:0 5:0 6:578 7:776 8:0 9:0 10:1000 11:977 12:0 13:0 14:383 15:334 16:0 
0.7763671876150523 1:0 2:0 3:0 4:0 5:0 6:558 7:688 8:0 9:0 10:1022 11:1018 12:0 13:0 14:392 15:265 16:0 
0.7763671876065299 1:0 2:0 3:0 4:0 5:0 6:580 7:775 8:0 9:0 10:1006 11:980 12:0 13:0 14:325 15:208 16:0 
0.7763671876065299 1:0 2:0 3:0 4:0 5:0 6:569 7:715 8:0 9:0 10:977 11:969 12:0 13:0 14:331 15:202 16:0 
0.7763671876022686 1:0 2:0 3:0 4:0 5:0 6:565 7:797 8:0 9:0 10:965 11:977 12:0 13:0 14:347 15:201 16:0 
0.7763671876022686 1:0 2:0 3:0 4:0 5:0 6:547 7:786 8:0 9:0 10:989 11:967 12:0 13:0 14:315 15:200 16:0 
0.7763671876022686 1:0 2:0 3:0 4:0 5:0 6:563 7:752 8:0 9:0 10:954 11:968 12:0 13:0 14:279 15:189 16:0 
0.7763671875340896 1:0 2:0 3:0 4:0 5:0 6:574 7:770 8:0 9:0 10:1010 11:914 12:0 13:0 14:359 15:186 16:0 
0.7763671875340896 1:0 2:0 3:0 4:0 5:0 6:526 7:716 8:0 9:0 10:997 11:988 12:0 13:0 14:322 15:217 16:0 
0.7763671875340896 1:0 2:0 3:0 4:0 5:0 6:532 7:753 8:0 9:0 10:941 11:976 12:0 13:0 14:318 15:292 16:0 
0.7763671875340896 1:0 2:0 3:0 4:0 5:0 6:553 7:718 8:0 9:0 10:928 11:935 12:0 13:0 14:322 15:286 16:0 
0.7763671875340896 1:0 2:0 3:0 4:0 5:0 6:531 7:649 8:0 9:0 10:909 11:959 12:0 13:0 14:331 15:389 16:0 
0.7763671875340896 1:0 2:0 3:0 4:0 5:0 6:556 7:694 8:0 9:0 10:945 11:865 12:0 13:0 14:357 15:362 16:0 
0.7763671875098592 1:0 2:0 3:0 4:0 5:0 6:487 7:623 8:0 9:0 10:942 11:919 12:0 13:0 14:372 15:382 16:0 
0.7763671875095692 1:0 2:0 3:0 4:0 5:0 6:469 7:651 8:0 9:0 10:899 11:941 12:0 13:0 14:396 15:461 16:0 
0.7763671875075431 1:0 2:0 3:0 4:0 5:0 6:464 7:680 8:0 9:0 10:897 11:956 12:0 13:0 14:331 15:424 16:0 
0.7763671875069632 1:0 2:0 3:0 4:0 5:0 6:430 7:624 8:0 9:0 10:842 11:972 12:0 13:0 14:376 15:512 16:0 
0.7763671875069632 1:0 2:0 3:0 4:0 5:0 6:403 7:572 8:0 9:0 10:847 11:960 12:0 13:0 14:316 15:466 16:0 
0.7763671875069632 1:0 2:0 3:0 4:2 5:0 6:378 7:577 8:0 9:0 10:877 11:932 12:0 13:0 14:358 15:498 16:1 
0.7763671875046482 1:0 2:0 3:0 4:5 5:0 6:414 7:605 8:0 9:0 10:868 11:920 12:0 13:0 14:382 15:594 16:10 
0.7763671875046482 1:0 2:0 3:0 4:4 5:0 6:390 7:609 8:0 9:0 10:852 11:955 12:0 13:0 14:315 15:557 16:7 
0.7763671875002449 1:0 2:0 3:0 4:6 5:0 6:422 7:594 8:0 9:0 10:844 11:930 12:0 13:0 14:283 15:467 16:18 
0.7763671875002478 1:0 2:0 3:1 4:6 5:0 6:412 7:638 8:0 9:0 10:824 11:952 12:0 13:0 14:303 15:632 16:13 
0.7763671875002478 1:0 2:0 3:0 4:2 5:0 6:367 7:580 8:0 9:0 10:859 11:980 12:0 13:0 14:283 15:507 16:1 
0.7763671875002391 1:0 2:0 3:0 4:0 5:0 6:418 7:666 8:0 9:0 10:861 11:932 12:0 13:0 14:222 15:357 16:1 
0.7763671875002391 1:0 2:0 3:0 4:0 5:0 6:395 7:646 8:0 9:0 10:840 11:989 12:0 13:0 14:168 15:355 16:0 
0.7763671875002391 1:0 2:0 3:0 4:0 5:0 6:416 7:654 8:0 9:0 10:849 11:995 12:0 13:0 14:21 15:87 16:0 
0.776367187500099 1:0 2:0 3:0 4:0 5:0 6:434 7:654 8:0 9:0 10:884 11:955 12:0 13:0 14:17 15:66 16:0 
0.776367187500099 1:0 2:0 3:0 4:0 5:0 6:471 7:661 8:0 9:0 10:853 11:916 12:0 13:0 14:5 15:11 16:0 
0.776367187500099 1:0 2:0 3:0 4:0 5:0 6:467 7:600 8:0 9:0 10:813 11:944 12:0 13:0 14:0 15:0 16:0 
0.7763671875002391 1:0 2:0 3:0 4:0 5:0 6:493 7:602 8:0 9:0 10:843 11:881 12:0 13:0 14:0 15:0 16:0 
0.7763671875002391 1:0 2:0 3:0 4:0 5:0 6:479 7:635 8:0 9:0 10:823 11:881 12:0 13:0 14:0 15:0 16:0 
0.7763671875002391 1:0 2:0 3:0 4:0 5:0 6:454 7:638 8:0 9:0 10:897 11:919 12:0 13:0 14:0 15:0 16:0 
0.7763671875069655 1:0 2:0 3:0 4:0 5:0 6:484 7:650 8:0 9:0 10:952 11:927 12:0 13:0 14:11 15:5 16:0 
0.7763671875002494 1:0 2:0 3:0 4:0 5:0 6:467 7:708 8:0 9:0 10:962 11:979 12:0 13:0 14:15 15:16 16:0 
0.7763671875075431 1:0 2:0 3:0 4:0 5:0 6:511 7:678 8:0 9:0 10:1029 11:933 12:0 13:0 14:26 15:14 16:0 
0.7763671875069632 1:0 2:0 3:0 4:0 5:0 6:543 7:763 8:0 9:0 10:974 11:916 12:0 13:0 14:30 15:10 16:0 
0.7763672198236857 1:0 2:0 3:0 4:0 5:0 6:553 7:741 8:0 9:0 10:1031 11:935 12:0 13:0 14:57 15:6 16:0 
0.7763671876022686 1:0 2:0 3:0 4:0 5:0 6:562 7:767 8:0 9:0 10:1116 11:932 12:0 13:0 14:69 15:3 16:0 
0.7763671876022686 1:0 2:0 3:0 4:0 5:0 6:555 7:825 8:0 9:0 10:1103 11:975 12:0 13:0 14:93 15:9 16:0 
0.7763671876022686 1:0 2:0 3:0 4:0 5:0 6:593 7:802 8:0 9:0 10:1201 11:919 12:0 13:0 14:109 15:0 16:0 
0.7763671876022686 1:0 2:0 3:0 4:0 5:0 6:608 7:871 8:0 9:0 10:1267 11:1006 12:0 13:0 14:150 15:0 16:0 
0.7763671875340896 1:0 2:0 3:0 4:0 5:0 6:602 7:910 8:0 9:0 10:1257 11:909 12:0 13:0 14:177 15:0 16:0 
0.7763671875340896 1:0 2:0 3:0 4:0 5:0 6:553 7:965 8:0 9:0 10:1305 11:923 12:0 13:0 14:236 15:5 16:0 
0.7763671875340896 1:0 2:0 3:0 4:0 5:0 6:569 7:958 8:0 9:0 10:1326 11:888 12:0 13:0 14:291 15:0 16:0 
0.7763671875340896 1:0 2:0 3:0 4:0 5:0 6:595 7:989 8:0 9:0 10:1439 11:886 12:0 13:0 14:414 15:0 16:0 
0.7763671875340896 1:0 2:0 3:0 4:0 5:0 6:618 7:965 8:0 9:8 10:1449 11:922 12:0 13:0 14:455 15:0 16:0 
0.7763671875002391 1:0 2:0 3:0 4:0 5:0 6:615 7:1034 8:0 9:18 10:1482 11:924 12:0 13:0 14:522 15:0 16:0 
0.776367187500099 1:0 2:0 3:0 4:0 5:0 6:680 7:999 8:12 9:28 10:1463 11:885 12:0 13:0 14:508 15:0 16:0 
0.7763671875069632 1:0 2:0 3:0 4:0 5:0 6:644 7:1063 8:18 9:54 10:1512 11:859 12:0 13:2 14:529 15:0 16:0 
0.7763671875069632 1:0 2:0 3:0 4:0 5:0 6:642 7:1007 8:1 9:69 10:1522 11:873 12:0 13:10 14:657 15:0 16:0 
0.7763671875340896 1:0 2:0 3:0 4:0 5:0 6:676 7:1050 8:13 9:107 10:1508 11:834 12:0 13:28 14:606 15:0 16:0 
0.7763671875069655 1:0 2:0 3:0 4:0 5:0 6:658 7:1015 8:2 9:112 10:1504 11:874 12:0 13:28 14:589 15:0 16:0 
0.7763671875069632 1:0 2:0 3:0 4:0 5:0 6:642 7:1001 8:3 9:103 10:1496 11:909 12:0 13:69 14:666 15:0 16:0 
0.7763671875069632 1:0 2:0 3:0 4:0 5:0 6:652 7:977 8:16 9:75 10:1495 11:936 12:0 13:22 14:635 15:0 16:0 
0.7763671875069632 1:0 2:0 3:0 4:0 5:0 6:698 7:1055 8:8 9:82 10:1510 11:903 12:0 13:14 14:587 15:0 16:0 
0.7763671875069632 1:0 2:0 3:0 4:0 5:0 6:704 7:1042 8:31 9:55 10:1514 11:935 12:0 13:5 14:661 15:0 16:0 
0.7763671875069632 1:0 2:0 3:0 4:0 5:0 6:683 7:1065 8:21 9:54 10:1515 11:947 12:0 13:12 14:649 15:0 16:0 
0.7763671875069632 1:0 2:0 3:0 4:0 5:0 6:711 7:970 8:15 9:47 10:1541 11:962 12:0 13:0 14:587 15:0 16:0 
0.7763671875069632 1:0 2:0 3:0 4:0 5:0 6:724 7:1017 8:0 9:49 10:1541 11:996 12:4 13:4 14:692 15:0 16:0 
0.7763671875069632 1:0 2:0 3:0 4:0 5:0 6:703 7:976 8:0 9:27 10:1550 11:975 12:0 13:0 14:762 15:0 16:0 
0.7763671875069632 1:0 2:0 3:0 4:0 5:0 6:672 7:1023 8:0 9:3 10:1501 11:990 12:0 13:0 14:659 15:6 16:0 
0.7763671875069632 1:0 2:0 3:0 4:0 5:0 6:676 7:995 8:0 9:0 10:1442 11:1009 12:0 13:0 14:745 15:10 16:0 
0.7763671875046482 1:0 2:0 3:0 4:0 5:0 6:702 7:951 8:0 9:0 10:1466 11:1053 12:0 13:0 14:612 15:42 16:0 
0.7763671875046482 1:0 2:0 3:0 4:0 5:0 6:716 7:1024 8:9 9:0 10:1420 11:1045 12:0 13:0 14:569 15:45 16:0 
0.7763671875046482 1:0 2:0 3:0 4:0 5:0 6:728 7:938 8:0 9:0 10:1359 11:1071 12:0 13:0 14:559 15:72 16:0 
0.7763671875046482 1:0 2:0 3:0 4:0 5:0 6:720 7:941 8:0 9:0 10:1340 11:1098 12:18 13:0 14:460 15:66 16:0 
0.7763671875046482 1:0 2:0 3:0 4:0 5:0 6:722 7:927 8:0 9:0 10:1285 11:1080 12:2 13:0 14:489 15:102 16:0 
0.7763671875046482 1:0 2:0 3:0 4:0 5:0 6:687 7:849 8:0 9:0 10:1269 11:1050 12:0 13:0 14:436 15:136 16:0 
0.7763671875046457 1:0 2:0 3:0 4:0 5:0 6:729 7:924 8:1 9:0 10:1191 11:1068 12:0 13:0 14:358 15:201 16:0 
0.7763671875046457 1:0 2:0 3:0 4:0 5:0 6:635 7:859 8:0 9:0 10:1169 11:1076 12:0 13:0 14:374 15:273 16:0 
0.776367187500258 1:0 2:0 3:0 4:0 5:0 6:646 7:836 8:0 9:0 10:1094 11:1046 12:0 13:0 14:313 15:309 16:0 
0.7763671875002494 1:0 2:0 3:0 4:0 5:0 6:632 7:906 8:0 9:0 10:1041 11:1061 12:0 13:0 14:186 15:338 16:0 
0.7763671875002494 1:0 2:0 3:0 4:0 5:0 6:614 7:848 8:0 9:0 10:1009 11:1017 12:0 13:0 14:146 15:373 16:0 
0.7763671875002478 1:0 2:0 3:0 4:0 5:0 6:586 7:756 8:0 9:0 10:1031 11:975 12:0 13:0 14:145 15:429 16:0 
0.7763671875002478 1:0 2:0 3:0 4:0 5:0 6:591 7:845 8:0 9:0 10:915 11:1021 12:0 13:0 14:99 15:438 16:0 
0.7763671875002478 1:0 2:0 3:0 4:0 5:0 6:612 7:808 8:0 9:0 10:871 11:1017 12:0 13:0 14:88 15:407 16:0 
0.7763671875002478 1:0 2:0 3:0 4:0 5:0 6:609 7:839 8:0 9:0 10:950 11:1035 12:0 13:0 14:72 15:395 16:0 
0.7763671875002478 1:0 2:0 3:0 4:0 5:0 6:595 7:856 8:0 9:0 10:871 11:1063 12:0 13:0 14:51 15:453 16:0 
0.7763671875002478 1:0 2:0 3:0 4:0 5:0 6:587 7:853 8:0 9:0 10:936 11:1102 12:0 13:0 14:54 15:395 16:0 
0.7763671875002449 1:0 2:0 3:0 4:0 5:0 6:571 7:815 8:0 9:0 10:895 11:1101 12:0 13:0 14:34 15:329 16:0 
0.7763671875002449 1:0 2:0 3:0 4:0 5:0 6:586 7:804 8:0 9:0 10:899 11:1103 12:0 13:0 14:83 15:396 16:0 
0.7763671875002449 1:0 2:0 3:0 4:0 5:0 6:603 7:792 8:0 9:0 10:860 11:1137 12:0 13:0 14:46 15:308 16:0 
0.7763671875002391 1:0 2:0 3:0 4:0 5:0 6:669 7:861 8:0 9:0 10:932 11:1108 12:0 13:0 14:39 15:346 16:0 
0.7763671875002391 1:0 2:0 3:0 4:0 5:0 6:694 7:891 8:0 9:0 10:964 11:1063 12:0 13:0 14:58 15:338 16:0 
0.7763671875002391 1:0 2:0 3:0 4:0 5:0 6:647 7:860 8:0 9:0 10:958 11:1072 12:0 13:0 14:73 15:365 16:0 
0.7763671875002391 1:0 2:0 3:0 4:0 5:0 6:620 7:824 8:0 9:0 10:942 11:1105 12:0 13:0 14:92 15:415 16:0 
0.7763671875002391 1:0 2:0 3:0 4:0 5:0 6:653 7:825 8:0 9:0 10:883 11:1124 12:0 13:0 14:75 15:398 16:0 
0.7763671875002391 1:0 2:0 3:0 4:0 5:0 6:685 7:823 8:0 9:0 10:913 11:1056 12:0 13:0 14:89 15:425 16:0 
0.7763671875002391 1:0 2:0 3:0 4:0 5:0 6:645 7:831 8:0 9:0 10:910 11:1063 12:0 13:0 14:96 15:395 16:0 
0.7763671875002391 1:0 2:0 3:0 4:0 5:0 6:661 7:835 8:0 9:0 10:917 11:1105 12:0 13:0 14:96 15:450 16:0 
0.7763671875002391 1:0 2:0 3:0 4:0 5:0 6:635 7:847 8:0 9:0 10:941 11:1086 12:0 13:0 14:101 15:390 16:0 
0.7763671875002391 1:0 2:0 3:0 4:0 5:0 6:684 7:821 8:0 9:0 10:945 11:1062 12:0 13:0 14:107 15:378 16:0 
0.7763671875002391 1:0 2:0 3:0 4:0 5:0 6:657 7:879 8:0 9:0 10:976 11:1032 12:0 13:0 14:84 15:310 16:0 
0.7763671875002391 1:0 2:0 3:0 4:0 5:0 6:623 7:799 8:0 9:0 10:897 11:1097 12:0 13:0 14:36 15:175 16:0 
0.776367187500099 1:0 2:0 3:0 4:0 5:0 6:575 7:761 8:0 9:0 10:875 11:1092 12:0 13:0 14:14 15:96 16:0 
0.776367187500099 1:0 2:0 3:0 4:0 5:0 6:581 7:735 8:0 9:0 10:881 11:1079 12:0 13:0 14:3 15:56 16:0 
0.776367187500099 1:0 2:0 3:0 4:0 5:0 6:542 7:727 8:0 9:0 10:873 11:1082 12:0 13:0 14:0 15:43 16:0 
0.776367187500099 1:0 2:0 3:0 4:0 5:0 6:534 7:777 8:0 9:0 10:886 11:1087 12:0 13:0 14:4 15:66 16:0 
0.776367187500099 1:0 2:0 3:0 4:0 5:0 6:536 7:730 8:0 9:0 10:906 11:1104 12:0 13:0 14:27 15:85 16:0 
0.776367187500099 1:0 2:0 3:0 4:0 5:0 6:603 7:723 8:0 9:0 10:890 11:1082 12:0 13:0 14:21 15:153 16:0 
0.776367187500099 1:0 2:0 3:0 4:0 5:0 6:554 7:739 8:0 9:0 10:821 11:1068 12:0 13:0 14:21 15:146 16:0 
0.776367187500099 1:0 2:0 3:0 4:0 5:0 6:546 7:695 8:0 9:0 10:876 11:1005 12:0 13:0 14:47 15:160 16:0 
0.776367187500099 1:0 2:0 3:0 4:0 5:0 6:565 7:716 8:0 9:0 10:888 11:1062 12:0 13:0 14:64 15:195 16:0 
0.7763671875340896 1:0 2:0 3:0 4:0 5:0 6:543 7:693 8:0 9:0 10:895 11:987 12:0 13:0 14:141 15:273 16:0 
0.776367187500099 1:0 2:0 3:0 4:0 5:0 6:527 7:751 8:0 9:0 10:920 11:952 12:0 13:0 14:179 15:368 16:0 
0.776367187500099 1:0 2:0 3:0 4:0 5:0 6:546 7:705 8:0 9:0 10:886 11:909 12:0 13:0 14:222 15:457 16:0 
0.7753916821923449 1:0 2:0 3:0 4:0 5:0 6:559 7:712 8:0 9:0 10:849 11:919 12:0 13:0 14:281 15:631 16:0 
0.7753916668770087 1:0 2:0 3:0 4:0 5:0 6:493 7:717 8:0 9:0 10:897 11:948 12:0 13:0 14:270 15:653 16:0 
0.7753916362391246 1:0 2:0 3:3 4:0 5:0 6:557 7:663 8:0 9:0 10:905 11:947 12:0 13:0 14:272 15:658 16:0 
0.7753916362391246 1:0 2:0 3:8 4:0 5:0 6:533 7:687 8:0 9:0 10:905 11:942 12:0 13:0 14:272 15:722 16:0 
0.7753914829997022 1:0 2:0 3:15 4:0 5:0 6:521 7:707 8:0 9:0 10:806 11:959 12:0 13:0 14:197 15:884 16:0 
0.7753914217277804 1:0 2:0 3:13 4:0 5:0 6:522 7:638 8:0 9:0 10:842 11:948 12:0 13:0 14:229 15:874 16:0 
0.7753913604553778 1:0 2:0 3:9 4:0 5:0 6:502 7:677 8:0 9:0 10:826 11:912 12:0 13:0 14:240 15:809 16:0 
0.7753913604553778 1:0 2:0 3:7 4:0 5:0 6:464 7:688 8:0 9:0 10:842 11:947 12:0 13:0 14:221 15:799 16:0 
0.7753913604553778 1:0 2:0 3:1 4:0 5:0 6:488 7:684 8:0 9:0 10:862 11:919 12:0 13:0 14:211 15:720 16:0 
0.7753913604553778 1:0 2:0 3:4 4:0 5:0 6:503 7:685 8:0 9:0 10:874 11:910 12:0 13:0 14:229 15:771 16:0 
0.7753913604553777 1:0 2:0 3:0 4:0 5:0 6:492 7:662 8:0 9:0 10:845 11:906 12:0 13:0 14:233 15:708 16:0 
0.7753913604553777 1:0 2:0 3:6 4:0 5:0 6:473 7:703 8:0 9:0 10:817 11:943 12:0 13:0 14:215 15:787 16:0 
0.7753916362391246 1:0 2:0 3:0 4:0 5:0 6:502 7:686 8:0 9:0 10:863 11:900 12:0 13:0 14:224 15:687 16:0 
0.7753913604553778 1:0 2:0 3:6 4:0 5:0 6:496 7:669 8:0 9:0 10:868 11:912 12:0 13:0 14:250 15:769 16:0 
0.7753913604553777 1:0 2:0 3:3 4:0 5:0 6:490 7:674 8:0 9:0 10:847 11:902 12:0 13:0 14:243 15:734 16:0 
0.7753911153061495 1:0 2:0 3:2 4:0 5:0 6:541 7:655 8:0 9:0 10:879 11:856 12:0 13:0 14:283 15:694 16:0 
0.7763672198236857 1:0 2:0 3:4 4:0 5:0 6:475 7:652 8:0 9:0 10:862 11:901 12:0 13:0 14:244 15:733 16:0 
0.7763672110081582 1:0 2:0 3:6 4:0 5:0 6:489 7:608 8:0 9:0 10:864 11:880 12:0 13:0 14:266 15:735 16:0 
0.7763672110081582 1:0 2:0 3:9 4:0 5:0 6:510 7:698 8:0 9:0 10:861 11:893 12:0 13:0 14:257 15:758 16:0 
0.7763672031721107 1:0 2:0 3:8 4:0 5:0 6:517 7:618 8:0 9:0 10:846 11:877 12:0 13:0 14:293 15:759 16:0 
0.7763671934792873 1:0 2:0 3:2 4:0 5:0 6:520 7:614 8:0 9:0 10:830 11:894 12:0 13:0 14:279 15:711 16:0 
0.7763671921566742 1:0 2:0 3:1 4:0 5:0 6:512 7:644 8:0 9:0 10:844 11:904 12:0 13:0 14:281 15:732 16:0 
0.7763671918485733 1:0 2:0 3:11 4:0 5:0 6:514 7:688 8:0 9:0 10:851 11:913 12:0 13:0 14:300 15:788 16:0 
0.7763671918485733 1:0 2:0 3:14 4:0 5:0 6:514 7:647 8:0 9:0 10:909 11:908 12:0 13:0 14:349 15:775 16:0 
0.7763671908866725 1:0 2:0 3:14 4:0 5:0 6:472 7:664 8:0 9:0 10:853 11:915 12:0 13:0 14:289 15:813 16:0 
0.7763671908866725 1:0 2:0 3:13 4:0 5:0 6:472 7:647 8:0 9:0 10:881 11:880 12:0 13:0 14:301 15:817 16:0 
0.776367190399049 1:0 2:0 3:14 4:0 5:0 6:478 7:709 8:0 9:0 10:930 11:882 12:0 13:0 14:348 15:751 16:0 
0.7763671842337954 1:0 2:0 3:15 4:0 5:0 6:476 7:699 8:0 9:0 10:913 11:898 12:0 13:0 14:355 15:768 16:0 
0.7763671897577817 1:0 2:0 3:14 4:0 5:0 6:471 7:715 8:0 9:0 10:907 11:894 12:0 13:0 14:325 15:773 16:0 
0.7763671842337953 1:0 2:0 3:14 4:0 5:0 6:474 7:700 8:0 9:0 10:902 11:889 12:0 13:0 14:361 15:760 16:0 
0.7763671876065299 1:0 2:0 3:12 4:0 5:0 6:458 7:681 8:0 9:0 10:883 11:886 12:0 13:0 14:336 15:751 16:0 
0.7763671876022686 1:0 2:0 3:10 4:0 5:0 6:474 7:674 8:0 9:0 10:945 11:853 12:0 13:0 14:368 15:710 16:0 
0.7763671876022686 1:0 2:0 3:11 4:0 5:0 6:490 7:693 8:0 9:0 10:928 11:861 12:0 13:0 14:349 15:727 16:0 
0.7763671875340896 1:0 2:0 3:14 4:0 5:0 6:487 7:700 8:0 9:0 10:938 11:844 12:0 13:0 14:367 15:755 16:0 
0.7763671875340896 1:0 2:0 3:14 4:0 5:0 6:523 7:706 8:0 9:0 10:935 11:821 12:0 13:0 14:356 15:776 16:0 
0.7763671875340896 1:0 2:0 3:12 4:0 5:0 6:488 7:689 8:0 9:0 10:954 11:830 12:0 13:0 14:360 15:779 16:0 
0.776367187509573 1:0 2:0 3:14 4:0 5:0 6:496 7:653 8:0 9:0 10:963 11:845 12:0 13:0 14:358 15:748 16:0 
0.7763671875069632 1:0 2:0 3:15 4:0 5:0 6:490 7:671 8:0 9:0 10:957 11:828 12:0 13:0 14:361 15:756 16:0 
0.7763671875069655 1:0 2:0 3:16 4:0 5:0 6:489 7:665 8:0 9:0 10:935 11:882 12:0 13:0 14:337 15:810 16:0 
0.7763671875340883 1:0 2:0 3:14 4:0 5:0 6:446 7:626 8:0 9:0 10:899 11:919 12:0 13:0 14:295 15:848 16:0 
0.7763671875046482 1:0 2:0 3:13 4:0 5:0 6:473 7:659 8:0 9:0 10:905 11:895 12:0 13:0 14:285 15:826 16:0 
0.7763671875002449 1:0 2:0 3:13 4:0 5:0 6:473 7:654 8:0 9:0 10:885 11:907 12:0 13:0 14:299 15:850 16:0 
0.776367191848572 1:0 2:0 3:15 4:0 5:0 6:460 7:643 8:0 9:0 10:902 11:916 12:0 13:0 14:300 15:844 16:0 
0.7763671875046457 1:0 2:0 3:15 4:0 5:0 6:455 7:624 8:0 9:0 10:887 11:909 12:0 13:0 14:304 15:828 16:0 
0.7763671875098569 1:0 2:0 3:16 4:0 5:0 6:480 7:639 8:0 9:0 10:899 11:901 12:0 13:0 14:316 15:858 16:0 
0.7763671875340892 1:0 2:0 3:15 4:0 5:0 6:462 7:639 8:0 9:0 10:893 11:906 12:0 13:0 14:326 15:849 16:0 
0.7763671875095672 1:0 2:0 3:15 4:0 5:0 6:487 7:636 8:0 9:0 10:900 11:895 12:0 13:0 14:316 15:837 16:0 
0.7763672198236857 1:0 2:0 3:16 4:0 5:0 6:490 7:622 8:0 9:0 10:840 11:964 12:0 13:0 14:286 15:893 16:0 
0.7763671875069632 1:0 2:0 3:16 4:0 5:0 6:537 7:633 8:0 9:0 10:910 11:912 12:0 13:0 14:324 15:830 16:0 
0.7763671875002478 1:0 2:0 3:22 4:0 5:0 6:504 7:675 8:0 9:0 10:861 11:951 12:0 13:0 14:283 15:931 16:0 
0.7763671875002391 1:0 2:0 3:22 4:0 5:0 6:525 7:691 8:0 9:0 10:882 11:944 12:0 13:0 14:309 15:939 16:0 
0.7763671875002391 1:0 2:0 3:21 4:0 5:0 6:466 7:657 8:0 9:0 10:926 11:918 12:0 13:0 14:362 15:878 16:0 
0.776367187500099 1:0 2:1 3:21 4:0 5:0 6:487 7:664 8:0 9:0 10:962 11:898 12:0 13:0 14:417 15:835 16:0 
0.776367187500099 1:0 2:0 3:22 4:0 5:0 6:505 7:735 8:0 9:0 10:962 11:926 12:0 13:0 14:436 15:848 16:0 
0.776367187500099 1:0 2:0 3:21 4:0 5:0 6:506 7:715 8:0 9:0 10:973 11:939 12:0 13:0 14:407 15:856 16:0 
0.7763671875002449 1:0 2:0 3:19 4:0 5:0 6:516 7:722 8:0 9:0 10:1002 11:939 12:0 13:0 14:418 15:774 16:0 
0.7763671875069632 1:0 2:1 3:19 4:0 5:0 6:495 7:717 8:0 9:0 10:993 11:988 12:0 13:0 14:437 15:816 16:0 
0.7763671875340896 1:0 2:1 3:16 4:0 5:0 6:512 7:685 8:0 9:0 10:999 11:1004 12:0 13:0 14:452 15:734 16:0 
0.7763671875340896 1:0 2:2 3:16 4:0 5:0 6:530 7:703 8:0 9:0 10:1016 11:1059 12:0 13:0 14:475 15:739 16:0 
0.7763671875340896 1:0 2:2 3:16 4:0 5:0 6:543 7:735 8:0 9:0 10:995 11:1053 12:0 13:0 14:457 15:733 16:0 
0.7763671875340896 1:0 2:2 3:16 4:0 5:0 6:579 7:705 8:0 9:0 10:1034 11:1065 12:0 13:0 14:528 15:708 16:0 
0.7763671875100042 1:0 2:2 3:17 4:0 5:0 6:551 7:721 8:0 9:0 10:1041 11:1090 12:0 13:0 14:515 15:696 16:0 
0.7753911153061495 1:0 2:4 3:17 4:0 5:0 6:592 7:698 8:0 9:0 10:1079 11:1107 12:0 13:0 14:567 15:674 16:0 
0.7753911153061495 1:0 2:5 3:17 4:0 5:0 6:570 7:681 8:0 9:0 10:1068 11:1149 12:0 13:0 14:579 15:720 16:0 
0.7753911153061495 1:0 2:4 3:15 4:0 5:0 6:602 7:713 8:0 9:0 10:1039 11:1168 12:0 13:0 14:538 15:661 16:0 
0.7753911153061495 1:0 2:3 3:15 4:0 5:0 6:601 7:674 8:0 9:0 10:1046 11:1195 12:0 13:0 14:513 15:677 16:0 
0.7753906925858537 1:0 2:1 3:12 4:0 5:0 6:622 7:640 8:0 9:0 10:1004 11:1256 12:2 13:0 14:499 15:656 16:0 
0.7753906916063742 1:0 2:1 3:6 4:0 5:0 6:629 7:613 8:0 9:0 10:1026 11:1177 12:0 13:0 14:477 15:616 16:0 
0.7763672198236857 1:0 2:0 3:0 4:0 5:0 6:613 7:571 8:0 9:0 10:997 11:1181 12:0 13:0 14:395 15:535 16:0 
0.7763672198236931 1:0 2:0 3:0 4:0 5:0 6:554 7:537 8:0 9:0 10:930 11:1166 12:0 13:0 14:304 15:490 16:0 
0.77636721492612 1:0 2:0 3:0 4:0 5:0 6:580 7:540 8:0 9:0 10:938 11:1077 12:0 13:0 14:231 15:363 16:0 
0.7763672129671396 1:0 2:0 3:0 4:0 5:0 6:564 7:493 8:0 9:0 10:908 11:1016 12:0 13:0 14:207 15:333 16:0 
0.7763672110081582 1:0 2:0 3:0 4:0 5:0 6:523 7:538 8:0 9:0 10:829 11:1000 12:0 13:0 14:168 15:387 16:0 
0.7763672110081582 1:0 2:0 3:0 4:0 5:0 6:525 7:542 8:0 9:0 10:818 11:1040 12:0 13:0 14:142 15:346 16:0 
0.7763672110081582 1:0 2:0 3:0 4:0 5:0 6:551 7:511 8:0 9:0 10:831 11:1022 12:0 13:0 14:139 15:316 16:0 
0.7763672110081582 1:0 2:0 3:0 4:0 5:0 6:513 7:555 8:0 9:0 10:783 11:1041 12:0 13:0 14:149 15:356 16:0 
0.7763672110081582 1:0 2:0 3:0 4:0 5:0 6:523 7:537 8:0 9:0 10:818 11:1010 12:0 13:0 14:141 15:318 16:0 
0.7763672110081582 1:0 2:0 3:0 4:0 5:0 6:509 7:538 8:0 9:0 10:763 11:1032 12:0 13:0 14:101 15:323 16:0 
0.7763672031721107 1:0 2:0 3:0 4:0 5:0 6:526 7:578 8:0 9:0 10:816 11:959 12:0 13:0 14:90 15:288 16:0 
0.7763672031721107 1:0 2:0 3:0 4:0 5:0 6:500 7:571 8:0 9:0 10:762 11:961 12:0 13:0 14:43 15:239 16:0 
0.7763672031721107 1:0 2:0 3:0 4:0 5:0 6:490 7:550 8:0 9:0 10:765 11:939 12:0 13:0 14:39 15:207 16:0 
0.7763672031721107 1:0 2:0 3:0 4:0 5:0 6:488 7:517 8:0 9:0 10:697 11:940 12:0 13:0 14:28 15:228 16:0 
0.7763671937510723 1:0 2:0 3:0 4:0 5:0 6:528 7:545 8:0 9:0 10:719 11:913 12:0 13:0 14:30 15:229 16:0 
0.7763671936604775 1:0 2:0 3:0 4:0 5:0 6:525 7:531 8:0 9:0 10:783 11:871 12:0 13:0 14:44 15:210 16:0 
0.7763671934792873 1:0 2:0 3:0 4:0 5:0 6:493 7:495 8:0 9:0 10:785 11:846 12:0 13:0 14:60 15:247 16:0 
0.7763671934792873 1:0 2:0 3:0 4:0 5:0 6:431 7:528 8:0 9:0 10:761 11:793 12:0 13:0 14:45 15:172 16:0 
0.7763671925733333 1:0 2:0 3:0 4:0 5:0 6:440 7:472 8:0 9:0 10:788 11:777 12:0 13:0 14:77 15:230 16:0 
0.7763671923683406 1:0 2:0 3:0 4:0 5:0 6:417 7:502 8:0 9:0 10:759 11:838 12:0 13:0 14:139 15:360 16:0 
0.7763671922977852 1:0 2:0 3:0 4:0 5:0 6:432 7:532 8:0 9:0 10:782 11:798 12:0 13:0 14:198 15:365 16:0 
0.7763671922109532 1:0 2:0 3:0 4:0 5:0 6:381 7:527 8:0 9:0 10:769 11:842 12:0 13:0 14:180 15:420 16:0 
0.7763671921566742 1:0 2:0 3:0 4:0 5:0 6:397 7:493 8:0 9:0 10:757 11:851 12:0 13:0 14:257 15:546 16:0 
0.7763671921566742 1:0 2:0 3:0 4:0 5:0 6:431 7:496 8:0 9:0 10:790 11:799 12:0 13:0 14:208 15:379 16:0 
0.7763671918485733 1:0 2:0 3:0 4:0 5:0 6:406 7:516 8:0 9:0 10:750 11:803 12:0 13:0 14:218 15:375 16:0 
0.7763671918485733 1:0 2:0 3:0 4:0 5:0 6:368 7:531 8:0 9:0 10:750 11:814 12:0 13:0 14:235 15:416 16:0 
-1 1:0 2:148 3:79 4:0 5:51 6:733 7:816 8:0 9:97 10:1130 11:1347 12:460 13:0 14:640 15:1436 16:178 
-1 1:0 2:164 3:82 4:0 5:47 6:782 7:775 8:0 9:103 10:1174 11:1310 12:480 13:0 14:691 15:1392 16:153 
-1 1:0 2:154 3:69 4:0 5:43 6:796 7:741 8:0 9:130 10:1150 11:1287 12:420 13:0 14:726 15:1405 16:161 
-1 1:0 2:150 3:76 4:0 5:41 6:836 7:762 8:0 9:123 10:1155 11:1317 12:479 13:0 14:667 15:1433 16:188 
-1 1:0 2:149 3:78 4:0 5:36 6:788 7:809 8:0 9:119 10:1120 11:1347 12:484 13:0 14:624 15:1447 16:211 
-1 1:0 2:142 3:75 4:0 5:43 6:787 7:763 8:0 9:130 10:1142 11:1304 12:461 13:0 14:685 15:1435 16:195 
-1 1:0 2:162 3:75 4:0 5:39 6:816 7:711 8:0 9:156 10:1172 11:1272 12:391 13:0 14:715 15:1409 16:182 
-1 1:0 2:160 3:87 4:0 5:58 6:834 7:731 8:0 9:136 10:1187 11:1288 12:413 13:0 14:706 15:1401 16:172 
-1 1:0 2:170 3:84 4:0 5:52 6:804 7:761 8:0 9:127 10:1154 11:1312 12:460 13:0 14:656 15:1406 16:194 
-1 1:0 2:150 3:73 4:0 5:40 6:833 7:704 8:0 9:163 10:1175 11:1256 12:456 13:0 14:729 15:1412 16:190 
-1 1:0 2:161 3:79 4:0 5:28 6:778 7:721 8:0 9:166 10:1170 11:1250 12:445 13:0 14:778 15:1395 16:192 
-1 1:0 2:142 3:87 4:0 5:29 6:764 7:750 8:0 9:161 10:1141 11:1292 12:434 13:0 14:715 15:1449 16:215 
-1 1:0 2:137 3:75 4:0 5:20 6:779 7:729 8:0 9:165 10:1121 11:1307 12:422 13:0 14:694 15:1461 16:253 
-1 1:0 2:160 3:77 4:0 5:26 6:751 7:713 8:0 9:154 10:1119 11:1305 12:442 13:0 14:671 15:1468 16:263 
-1 1:0 2:130 3:51 4:0 5:18 6:732 7:714 8:0 9:159 10:1095 11:1289 12:398 13:0 14:638 15:1496 16:295 
-1 1:0 2:117 3:44 4:0 5:4 6:759 7:681 8:0 9:172 10:1111 11:1261 12:388 13:0 14:683 15:1494 16:321 
-1 1:0 2:108 3:44 4:0 5:2 6:745 7:716 8:0 9:178 10:1061 11:1280 12:361 13:0 14:711 15:1516 16:343 
-1 1:0 2:108 3:34 4:0 5:3 6:769 7:691 8:0 9:168 10:1055 11:1247 12:339 13:0 14:736 15:1519 16:356 
-1 1:0 2:103 3:37 4:0 5:0 6:760 7:716 8:0 9:169 10:1061 11:1246 12:330 13:0 14:718 15:1534 16:382 
-1 1:0 2:97 3:31 4:0 5:0 6:722 7:730 8:0 9:158 10:1056 11:1270 12:306 13:0 14:688 15:1526 16:407 
-1 1:0 2:100 3:37 4:0 5:0 6:720 7:745 8:0 9:164 10:1064 11:1251 12:279 13:0 14:718 15:1542 16:400 
-1 1:0 2:114 3:47 4:0 5:10 6:705 7:771 8:0 9:157 10:1084 11:1259 12:300 13:0 14:738 15:1516 16:385 
-1 1:0 2:127 3:67 4:0 5:25 6:751 7:772 8:0 9:146 10:1097 11:1248 12:327 13:0 14:766 15:1483 16:314 
-1 1:0 2:151 3:70 4:0 5:37 6:741 7:803 8:0 9:148 10:1123 11:1221 12:325 13:0 14:816 15:1450 16:284 
-1 1:0 2:152 3:101 4:0 5:65 6:743 7:853 8:0 9:128 10:1173 11:1215 12:349 13:0 14:831 15:1416 16:239 
-1 1:0 2:119 3:117 4:0 5:70 6:723 7:874 8:0 9:118 10:1209 11:1240 12:339 13:0 14:849 15:1424 16:269 
-1 1:0 2:106 3:118 4:0 5:101 6:634 7:888 8:0 9:113 10:1210 11:1223 12:365 13:0 14:877 15:1387 16:255 
-1 1:0 2:109 3:181 4:0 5:129 6:594 7:966 8:0 9:94 10:1254 11:1276 12:391 13:0 14:858 15:1389 16:216 
-1 1:0 2:109 3:189 4:0 5:148 6:641 7:969 8:0 9:100 10:1275 11:1234 12:417 13:0 14:895 15:1360 16:170 
-1 1:0 2:130 3:237 4:0 5:194 6:702 7:965 8:0 9:81 10:1323 11:1213 12:462 13:0 14:937 15:1274 16:91 
-1 1:0 2:110 3:305 4:2 5:188 6:681 7:1034 8:6 9:64 10:1279 11:1256 12:473 13:0 14:898 15:1275 16:95 
-1 1:0 2:137 3:333 4:0 5:187 6:732 7:1006 8:0 9:56 10:1331 11:1238 12:484 13:0 14:946 15:1224 16:71 
-1 1:0 2:147 3:330 4:0 5:185 6:697 7:987 8:0 9:77 10:1335 11:1221 12:472 13:0 14:988 15:1221 16:66 
-1 1:0 2:152 3:364 4:3 5:202 6:691 7:1000 8:0 9:61 10:1352 11:1267 12:460 13:0 14:971 15:1211 16:55 
-1 1:0 2:167 3:329 4:7 5:211 6:755 7:983 8:1 9:58 10:1360 11:1234 12:467 13:0 14:1034 15:1203 16:58 
-1 1:0 2:142 3:312 4:18 5:197 6:693 7:977 8:9 9:91 10:1352 11:1208 12:462 13:0 14:1037 15:1261 16:83 
-1 1:0 2:150 3:336 4:27 5:192 6:646 7:1031 8:20 9:55 10:1321 11:1254 12:499 13:0 14:972 15:1296 16:114 
-1 1:0 2:147 3:344 4:34 5:191 6:620 7:1005 8:51 9:52 10:1319 11:1295 12:491 13:0 14:955 15:1313 16:129 
-1 1:0 2:182 3:354 4:16 5:206 6:701 7:997 8:23 9:48 10:1353 11:1275 12:495 13:0 14:1033 15:1246 16:84 
-1 1:0 2:236 3:326 4:8 5:261 6:760 7:942 8:0 9:44 10:1396 11:1230 12:469 13:0 14:1103 15:1185 16:66 
-1 1:0 2:222 3:380 4:16 5:230 6:734 7:972 8:0 9:25 10:1379 11:1259 12:518 13:0 14:1035 15:1179 16:70 
-1 1:0 2:284 3:379 4:0 5:243 6:834 7:936 8:0 9:14 10:1369 11:1217 12:502 13:0 14:1039 15:1172 16:62 
-1 1:0 2:284 3:297 4:0 5:215 6:877 7:916 8:0 9:14 10:1394 11:1176 12:455 13:0 14:1131 15:1219 16:76 
-1 1:0 2:285 3:346 4:0 5:168 6:905 7:972 8:0 9:3 10:1402 11:1226 12:478 13:0 14:1143 15:1221 16:77 
-1 1:0 2:276 3:317 4:0 5:147 6:970 7:917 8:0 9:2 10:1398 11:1218 12:434 13:0 14:1190 15:1196 16:68 
-1 1:0 2:242 3:324 4:0 5:46 6:1085 7:949 8:0 9:0 10:1365 11:1228 12:448 13:0 14:1166 15:1233 16:97 
-1 1:0 2:271 3:346 4:0 5:32 6:1093 7:945 8:0 9:0 10:1348 11:1215 12:449 13:0 14:1152 15:1214 16:81 
-1 1:0 2:237 3:338 4:0 5:2 6:1115 7:958 8:0 9:0 10:1302 11:1222 12:454 13:0 14:1132 15:1289 16:95 
-1 1:0 2:210 3:273 4:0 5:0 6:1166 7:912 8:0 9:0 10:1331 11:1146 12:412 13:0 14:1184 15:1308 16:114 
-1 1:0 2:187 3:272 4:0 5:0 6:1128 7:1054 8:0 9:0 10:1328 11:1189 12:406 13:0 14:1165 15:1351 16:135 
-1 1:0 2:205 3:229 4:0 5:0 6:1035 7:1042 8:0 9:0 10:1320 11:1144 12:385 13:0 14:1225 15:1379 16:142 
-1 1:0 2:155 3:176 4:0 5:0 6:1064 7:1049 8:0 9:0 10:1353 11:1080 12:342 13:0 14:1303 15:1390 16:152 
-1 1:0 2:88 3:157 4:0 5:0 6:989 7:1081 8:0 9:0 10:1314 11:1149 12:319 13:0 14:1247 15:1419 16:211 
-1 1:0 2:146 3:170 4:0 5:0 6:1007 7:1012 8:0 9:0 10:1345 11:1069 12:351 13:0 14:1308 15:1380 16:178 
-1 1:0 2:168 3:213 4:0 5:0 6:1026 7:985 8:0 9:0 10:1347 11:1065 12:359 13:0 14:1305 15:1355 16:146 
-1 1:0 2:158 3:214 4:0 5:0 6:1002 7:994 8:0 9:0 10:1327 11:1068 12:372 13:0 14:1295 15:1367 16:143 
-1 1:0 2:142 3:238 4:0 5:0 6:965 7:999 8:0 9:0 10:1288 11:1095 12:350 13:0 14:1283 15:1357 16:140 
-1 1:0 2:148 3:221 4:0 5:0 6:1000 7:976 8:0 9:0 10:1307 11:1073 12:359 13:0 14:1303 15:1346 16:105 
-1 1:0 2:138 3:222 4:0 5:0 6:975 7:962 8:0 9:0 10:1226 11:1130 12:380 13:0 14:1283 15:1337 16:78 
-1 1:0 2:151 3:210 4:0 5:0 6:952 7:930 8:0 9:0 10:1241 11:1133 12:363 13:0 14:1295 15:1297 16:38 
-1 1:0 2:118 3:194 4:0 5:0 6:923 7:937 8:0 9:0 10:1213 11:1168 12:270 13:0 14:1272 15:1283 16:26 
-1 1:0 2:126 3:196 4:0 5:0 6:944 7:956 8:0 9:0 10:1243 11:1264 12:175 13:0 14:1320 15:1163 16:3 
-1 1:0 2:136 3:198 4:0 5:0 6:923 7:910 8:0 9:0 10:1249 11:1439 12:17 13:0 14:1413 15:1065 16:0 
-1 1:0 2:125 3:190 4:0 5:0 6:938 7:893 8:0 9:0 10:1276 11:1403 12:1 13:0 14:1458 15:1052 16:0 
-1 1:0 2:125 3:201 4:0 5:0 6:922 7:922 8:0 9:0 10:1265 11:1388 12:1 13:0 14:1411 15:1051 16:0 
-1 1:0 2:128 3:218 4:0 5:0 6:919 7:928 8:0 9:0 10:1271 11:1410 12:0 13:0 14:1397 15:1007 16:0 
-1 1:0 2:122 3:217 4:0 5:0 6:901 7:951 8:0 9:0 10:1263 11:1388 12:0 13:0 14:1425 15:1004 16:0 
-1 1:0 2:127 3:203 4:0 5:0 6:924 7:915 8:0 9:0 10:1305 11:1355 12:0 13:0 14:1455 15:957 16:0 
-1 1:0 2:125 3:215 4:0 5:0 6:897 7:924 8:0 9:0 10:1303 11:1365 12:0 13:0 14:1436 15:970 16:0 
-1 1:0 2:111 3:201 4:0 5:0 6:891 7:924 8:0 9:0 10:1292 11:1367 12:0 13:0 14:1429 15:1015 16:0 
-1 1:0 2:113 3:206 4:0 5:0 6:887 7:938 8:0 9:0 10:1293 11:1361 12:0 13:0 14:1423 15:997 16:0 
-1 1:0 2:129 3:200 4:0 5:0 6:905 7:909 8:0 9:0 10:1328 11:1323 12:0 13:0 14:1449 15:968 16:0 
-1 1:0 2:114 3:178 4:0 5:0 6:908 7:904 8:0 9:0 10:1286 11:1322 12:0 13:0 14:1432 15:973 16:0 
-1 1:0 2:119 3:184 4:0 5:0 6:914 7:902 8:0 9:0 10:1315 11:1339 12:0 13:0 14:1432 15:1010 16:0 
-1 1:0 2:72 3:154 4:0 5:0 6:895 7:928 8:0 9:0 10:1279 11:1353 12:3 13:0 14:1393 15:1162 16:0 
-1 1:0 2:64 3:124 4:0 5:0 6:1005 7:1045 8:0 9:0 10:1324 11:1365 12:21 13:0 14:1375 15:1263 16:0 
-1 1:0 2:52 3:167 4:0 5:0 6:976 7:971 8:0 9:0 10:1300 11:1312 12:135 13:0 14:1278 15:1363 16:26 
-1 1:0 2:91 3:224 4:0 5:6 6:1073 7:984 8:0 9:0 10:1356 11:1250 12:217 13:0 14:1267 15:1304 16:18 
-1 1:0 2:120 3:262 4:0 5:97 6:855 7:988 8:0 9:1 10:1349 11:1300 12:274 13:0 14:1259 15:1280 16:24 
-1 1:0 2:101 3:249 4:0 5:156 6:765 7:999 8:0 9:10 10:1332 11:1298 12:304 13:0 14:1244 15:1313 16:38 
-1 1:0 2:91 3:252 4:0 5:154 6:721 7:1020 8:0 9:26 10:1344 11:1230 12:366 13:0 14:1202 15:1399 16:82 
-1 1:0 2:78 3:259 4:0 5:175 6:673 7:1074 8:0 9:33 10:1279 11:1238 12:406 13:0 14:1172 15:1427 16:111 
-1 1:0 2:58 3:245 4:0 5:163 6:635 7:1046 8:0 9:61 10:1271 11:1224 12:415 13:0 14:1140 15:1458 16:150 
-1 1:0 2:49 3:191 4:0 5:123 6:605 7:984 8:0 9:100 10:1249 11:1179 12:374 13:0 14:1171 15:1499 16:192 
-1 1:0 2:60 3:179 4:0 5:119 6:586 7:984 8:0 9:108 10:1265 11:1164 12:331 13:0 14:1157 15:1490 16:209 
-1 1:0 2:62 3:167 4:0 5:112 6:593 7:958 8:0 9:125 10:1260 11:1157 12:339 13:0 14:1175 15:1500 16:227 
-1 1:0 2:77 3:141 4:0 5:120 6:635 7:910 8:0 9:165 10:1235 11:1107 12:318 13:0 14:1223 15:1476 16:210 
-1 1:0 2:61 3:154 4:0 5:127 6:606 7:949 8:0 9:152 10:1234 11:1150 12:311 13:0 14:1204 15:1485 16:244 
-1 1:0 2:42 3:166 4:0 5:110 6:559 7:965 8:0 9:147 10:1193 11:1183 12:294 13:0 14:1154 15:1500 16:301 
-1 1:0 2:73 3:157 4:0 5:104 6:586 7:918 8:0 9:207 10:1240 11:1115 12:338 13:0 14:1260 15:1464 16:236 
-1 1:0 2:62 3:167 4:0 5:92 6:611 7:938 8:0 9:239 10:1267 11:1098 12:301 13:0 14:1263 15:1458 16:253 
-1 1:0 2:47 3:162 4:0 5:50 6:598 7:963 8:0 9:256 10:1216 11:1124 12:281 13:0 14:1232 15:1476 16:319 
-1 1:0 2:47 3:174 4:0 5:28 6:562 7:973 8:0 9:273 10:1195 11:1154 12:285 13:0 14:1206 15:1501 16:381 
-1 1:0 2:72 3:159 4:0 5:53 6:653 7:935 8:0 9:288 10:1225 11:1134 12:293 13:0 14:1185 15:1496 16:415 
-1 1:0 2:89 3:207 4:0 5:65 6:720 7:899 8:0 9:245 10:1259 11:1170 12:326 13:0 14:1167 15:1511 16:399 
-1 1:0 2:123 3:251 4:1 5:98 6:699 7:931 8:4 9:191 10:1278 11:1252 12:353 13:0 14:1101 15:1498 16:387 
-1 1:0 2:145 3:281 4:0 5:89 6:692 7:938 8:5 9:204 10:1292 11:1246 12:394 13:0 14:1061 15:1465 16:339 
-1 1:0 2:201 3:293 4:0 5:117 6:740 7:915 8:2 9:214 10:1333 11:1221 12:433 13:0 14:1089 15:1397 16:296 
-1 1:0 2:201 3:265 4:0 5:93 6:751 7:923 8:7 9:219 10:1337 11:1199 12:422 13:0 14:1079 15:1401 16:289 
-1 1:0 2:174 3:300 4:6 5:87 6:731 7:935 8:14 9:234 10:1289 11:1227 12:416 13:0 14:1052 15:1427 16:322 
-1 1:0 2:143 3:313 4:9 5:63 6:719 7:957 8:14 9:249 10:1284 11:1255 12:412 13:0 14:1007 15:1447 16:341 
-1 1:0 2:123 3:260 4:9 5:42 6:758 7:918 8:5 9:279 10:1283 11:1237 12:389 13:0 14:1024 15:1476 16:389 
-1 1:0 2:139 3:268 4:6 5:36 6:775 7:903 8:0 9:288 10:1286 11:1223 12:417 13:0 14:1017 15:1459 16:360 
-1 1:0 2:111 3:250 4:3 5:11 6:747 7:899 8:3 9:298 10:1276 11:1242 12:381 13:0 14:997 15:1490 16:404 
-1 1:0 2:159 3:273 4:6 5:26 6:754 7:895 8:0 9:308 10:1307 11:1255 12:440 13:0 14:961 15:1456 16:333 
-1 1:0 2:154 3:283 4:11 5:15 6:757 7:916 8:0 9:313 10:1282 11:1277 12:432 13:0 14:940 15:1469 16:366 
-1 1:0 2:121 3:284 4:0 5:24 6:734 7:910 8:1 9:329 10:1247 11:1322 12:428 13:0 14:933 15:1483 16:395 
-1 1:0 2:92 3:293 4:0 5:35 6:700 7:911 8:4 9:307 10:1228 11:1303 12:400 13:0 14:928 15:1515 16:454 
-1 1:0 2:98 3:281 4:0 5:52 6:685 7:865 8:0 9:326 10:1236 11:1276 12:390 13:0 14:952 15:1512 16:437 
-1 1:0 2:103 3:284 4:0 5:76 6:714 7:861 8:0 9:345 10:1273 11:1267 12:425 13:0 14:929 15:1497 16:412 
-1 1:0 2:119 3:294 4:0 5:59 6:673 7:869 8:0 9:340 10:1268 11:1284 12:412 13:0 14:912 15:1502 16:417 
-1 1:0 2:156 3:259 4:0 5:75 6:700 7:844 8:0 9:334 10:1253 11:1292 12:446 13:0 14:911 15:1492 16:402 
-1 1:0 2:271 3:242 4:0 5:116 6:774 7:761 8:0 9:332 10:1303 11:1266 12:509 13:0 14:936 15:1449 16:319 
-1 1:0 2:270 3:258 4:0 5:97 6:803 7:802 8:0 9:311 10:1269 11:1303 12:519 13:0 14:859 15:1469 16:334 
-1 1:4 2:274 3:270 4:0 5:111 6:803 7:832 8:0 9:317 10:1258 11:1332 12:570 13:0 14:780 15:1454 16:314 
-1 1:4 2:287 3:251 4:0 5:98 6:829 7:838 8:0 9:282 10:1251 11:1348 12:587 13:0 14:769 15:1436 16:291 
-1 1:0 2:259 3:228 4:0 5:115 6:837 7:806 8:0 9:290 10:1255 11:1346 12:569 13:0 14:788 15:1452 16:329 
-1 1:0 2:269 3:223 4:0 5:118 6:857 7:740 8:0 9:298 10:1267 11:1293 12:532 13:0 14:844 15:1452 16:318 
-1 1:0 2:236 3:209 4:0 5:103 6:865 7:722 8:0 9:308 10:1254 11:1287 12:493 13:0 14:856 15:1469 16:340 
-1 1:0 2:219 3:192 4:0 5:33 6:856 7:785 8:0 9:284 10:1204 11:1335 12:450 13:0 14:800 15:1502 16:413 
-1 1:0 2:202 3:184 4:0 5:23 6:870 7:750 8:0 9:234 10:1199 11:1310 12:433 13:0 14:825 15:1509 16:401 
-1 1:0 2:192 3:159 4:0 5:12 6:879 7:717 8:0 9:245 10:1153 11:1297 12:402 13:0 14:851 15:1535 16:450 
-1 1:0 2:212 3:175 4:0 5:0 6:858 7:746 8:0 9:227 10:1148 11:1328 12:450 13:0 14:835 15:1536 16:435 
-1 1:0 2:221 3:143 4:0 5:2 6:850 7:711 8:0 9:228 10:1153 11:1281 12:404 13:0 14:913 15:1528 16:402 
-1 1:0 2:220 3:127 4:0 5:2 6:902 7:667 8:0 9:216 10:1216 11:1226 12:429 13:0 14:966 15:1522 16:373 
-1 1:0 2:205 3:106 4:0 5:0 6:906 7:672 8:0 9:227 10:1203 11:1190 12:390 13:0 14:995 15:1536 16:361 
-1 1:0 2:187 3:88 4:0 5:0 6:835 7:670 8:0 9:227 10:1183 11:1168 12:359 13:0 14:1012 15:1547 16:416 
-1 1:0 2:181 3:79 4:0 5:4 6:829 7:715 8:0 9:200 10:1150 11:1189 12:363 13:0 14:1012 15:1553 16:452 
-1 1:0 2:146 3:79 4:0 5:10 6:788 7:754 8:0 9:207 10:1124 11:1180 12:339 13:0 14:1019 15:1558 16:487 
-1 1:0 2:166 3:95 4:0 5:15 6:802 7:747 8:0 9:228 10:1152 11:1159 12:371 13:0 14:1034 15:1544 16:434 
-1 1:0 2:168 3:111 4:0 5:8 6:773 7:778 8:0 9:212 10:1151 11:1201 12:409 13:0 14:1006 15:1540 16:421 
-1 1:0 2:189 3:145 4:0 5:12 6:771 7:796 8:0 9:208 10:1197 11:1204 12:468 13:0 14:1014 15:1504 16:353 
-1 1:0 2:166 3:189 4:0 5:8 6:776 7:852 8:0 9:206 10:1210 11:1246 12:500 13:0 14:968 15:1484 16:318 
-1 1:0 2:173 3:150 4:0 5:16 6:812 7:807 8:0 9:233 10:1229 11:1185 12:442 13:0 14:1021 15:1488 16:296 
-1 1:0 2:158 3:158 4:0 5:23 6:794 7:809 8:0 9:218 10:1233 11:1179 12:434 13:0 14:1047 15:1488 16:310 
-1 1:0 2:146 3:161 4:0 5:6 6:769 7:827 8:0 9:237 10:1207 11:1141 12:420 13:0 14:1094 15:1489 16:329 
-1 1:0 2:138 3:117 4:0 5:17 6:746 7:795 8:0 9:248 10:1235 11:1071 12:326 13:0 14:1181 15:1507 16:335 
-1 1:0 2:103 3:137 4:0 5:17 6:702 7:826 8:0 9:221 10:1231 11:1084 12:279 13:0 14:1202 15:1518 16:397 
-1 1:0 2:105 3:165 4:0 5:32 6:693 7:848 8:0 9:239 10:1249 11:1065 12:285 13:0 14:1153 15:1499 16:381 
-1 1:0 2:104 3:205 4:0 5:16 6:681 7:818 8:0 9:232 10:1239 11:1091 12:322 13:0 14:1123 15:1493 16:377 
-1 1:0 2:109 3:242 4:0 5:19 6:729 7:827 8:0 9:232 10:1256 11:1146 12:333 13:0 14:1100 15:1462 16:338 
-1 1:0 2:108 3:296 4:7 5:3 6:740 7:873 8:4 9:247 10:1247 11:1243 12:409 13:0 14:1018 15:1441 16:299 
-1 1:0 2:140 3:348 4:16 5:5 6:742 7:915 8:7 9:213 10:1264 11:1251 12:492 13:0 14:980 15:1359 16:218 
-1 1:11 2:260 3:321 4:0 5:42 6:853 7:833 8:0 9:228 10:1357 11:1195 12:477 13:0 14:1035 15:1236 16:104 
-1 1:0 2:234 3:361 4:1 5:64 6:803 7:923 8:0 9:171 10:1290 11:1286 12:567 13:0 14:926 15:1247 16:95 
-1 1:0 2:191 3:354 4:11 5:60 6:749 7:932 8:0 9:127 10:1238 11:1308 12:596 13:0 14:890 15:1273 16:97 
-1 1:0 2:236 3:278 4:0 5:73 6:843 7:843 8:0 9:103 10:1276 11:1240 12:507 13:0 14:977 15:1234 16:65 
-1 1:0 2:226 3:235 4:0 5:100 6:865 7:787 8:0 9:84 10:1324 11:1217 12:471 13:0 14:1012 15:1223 16:58 
-1 1:0 2:283 3:229 4:0 5:112 6:881 7:772 8:0 9:35 10:1345 11:1243 12:492 13:0 14:1033 15:1171 16:35 
-1 1:0 2:259 3:253 4:0 5:31 6:915 7:848 8:0 9:1 10:1231 11:1314 12:493 13:0 14:943 15:1240 16:48 
-1 1:0 2:250 3:209 4:0 5:24 6:1034 7:800 8:0 9:0 10:1280 11:1261 12:468 13:0 14:962 15:1241 16:43 
-1 1:0 2:220 3:167 4:0 5:16 6:1066 7:801 8:0 9:0 10:1298 11:1242 12:445 13:0 14:1003 15:1262 16:55 
-1 1:0 2:178 3:175 4:0 5:0 6:1065 7:866 8:0 9:0 10:1227 11:1253 12:463 13:0 14:965 15:1316 16:79 
-1 1:0 2:226 3:179 4:0 5:1 6:1055 7:832 8:0 9:0 10:1231 11:1248 12:450 13:0 14:1013 15:1278 16:54 
-1 1:0 2:209 3:187 4:0 5:0 6:963 7:857 8:0 9:0 10:1226 11:1266 12:455 13:0 14:1017 15:1295 16:66 
-1 1:0 2:193 3:205 4:0 5:0 6:966 7:852 8:0 9:0 10:1225 11:1259 12:422 13:0 14:1046 15:1280 16:56 
-1 1:0 2:184 3:173 4:0 5:6 6:1057 7:796 8:0 9:0 10:1330 11:1243 12:406 13:0 14:1132 15:1226 16:36 
-1 1:0 2:105 3:204 4:0 5:0 6:897 7:928 8:0 9:0 10:1199 11:1279 12:441 13:0 14:1002 15:1344 16:81 
-1 1:0 2:118 3:207 4:0 5:0 6:926 7:910 8:0 9:0 10:1197 11:1242 12:467 13:0 14:1036 15:1310 16:67 
-1 1:0 2:106 3:219 4:0 5:0 6:860 7:970 8:0 9:0 10:1180 11:1287 12:459 13:0 14:1008 15:1367 16:99 
-1 1:0 2:119 3:181 4:0 5:0 6:814 7:938 8:0 9:0 10:1250 11:1243 12:393 13:0 14:1083 15:1346 16:83 
-1 1:0 2:85 3:126 4:0 5:0 6:843 7:908 8:0 9:0 10:1271 11:1166 12:363 13:0 14:1099 15:1401 16:121 
-1 1:0 2:84 3:118 4:0 5:0 6:777 7:906 8:0 9:0 10:1252 11:1165 12:385 13:0 14:1095 15:1418 16:113 
-1 1:0 2:72 3:110 4:0 5:0 6:767 7:884 8:0 9:0 10:1245 11:1169 12:362 13:0 14:1098 15:1440 16:134 
-1 1:0 2:71 3:109 4:0 5:0 6:726 7:901 8:0 9:0 10:1232 11:1164 12:363 13:0 14:1100 15:1441 16:174 
-1 1:0 2:70 3:109 4:0 5:0 6:696 7:905 8:0 9:0 10:1222 11:1182 12:366 13:0 14:1093 15:1444 16:171 
-1 1:0 2:79 3:111 4:0 5:0 6:767 7:899 8:0 9:0 10:1223 11:1144 12:354 13:0 14:1132 15:1398 16:153 
-1 1:0 2:68 3:133 4:0 5:15 6:755 7:908 8:0 9:6 10:1250 11:1190 12:382 13:0 14:1113 15:1412 16:163 
-1 1:0 2:61 3:130 4:0 5:56 6:677 7:928 8:0 9:41 10:1228 11:1169 12:371 13:0 14:1096 15:1435 16:167 
-1 1:0 2:72 3:132 4:0 5:47 6:657 7:940 8:0 9:110 10:1245 11:1153 12:364 13:0 14:1149 15:1400 16:139 
-1 1:0 2:69 3:120 4:0 5:38 6:639 7:905 8:0 9:135 10:1260 11:1173 12:338 13:0 14:1133 15:1420 16:153 
-1 1:0 2:67 3:131 4:0 5:30 6:596 7:905 8:0 9:139 10:1273 11:1197 12:352 13:0 14:1138 15:1415 16:163 
-1 1:0 2:91 3:201 4:0 5:78 6:631 7:941 8:0 9:103 10:1306 11:1257 12:396 13:0 14:1092 15:1323 16:110 
-1 1:0 2:114 3:251 4:0 5:98 6:671 7:971 8:0 9:60 10:1307 11:1283 12:441 13:0 14:1065 15:1250 16:74 
-1 1:0 2:150 3:313 4:0 5:118 6:736 7:993 8:0 9:16 10:1322 11:1313 12:447 13:0 14:1034 15:1180 16:47 
-1 1:0 2:188 3:321 4:0 5:89 6:816 7:973 8:0 9:4 10:1313 11:1344 12:457 13:0 14:1044 15:1092 16:22 
-1 1:0 2:195 3:300 4:0 5:30 6:900 7:1024 8:0 9:0 10:1304 11:1352 12:441 13:0 14:1020 15:1051 16:12 
-1 1:0 2:189 3:230 4:0 5:1 6:946 7:984 8:0 9:0 10:1300 11:1348 12:432 13:0 14:1070 15:1038 16:7 
-1 1:0 2:146 3:208 4:0 5:0 6:992 7:987 8:0 9:0 10:1275 11:1332 12:403 13:0 14:1069 15:1069 16:6 
-1 1:0 2:134 3:134 4:0 5:0 6:1062 7:1027 8:0 9:0 10:1297 11:1290 12:365 13:0 14:1133 15:1131 16:11 
-1 1:0 2:65 3:68 4:0 5:0 6:891 7:940 8:0 9:0 10:1262 11:1247 12:337 13:0 14:1163 15:1236 16:23 
-1 1:0 2:50 3:67 4:0 5:0 6:943 7:929 8:0 9:0 10:1234 11:1274 12:341 13:0 14:1135 15:1199 16:17 
-1 1:0 2:58 3:61 4:0 5:0 6:970 7:830 8:0 9:0 10:1243 11:1247 12:331 13:0 14:1200 15:1086 16:1 
-1 1:0 2:68 3:53 4:0 5:0 6:982 7:810 8:0 9:0 10:1291 11:1255 12:305 13:0 14:1224 15:1040 16:0 
-1 1:0 2:68 3:61 4:0 5:0 6:952 7:855 8:0 9:0 10:1261 11:1249 12:324 13:0 14:1211 15:1020 16:1 
-1 1:0 2:102 3:70 4:0 5:0 6:981 7:875 8:0 9:0 10:1284 11:1243 12:293 13:0 14:1235 15:959 16:0 
-1 1:0 2:68 3:75 4:0 5:0 6:959 7:856 8:0 9:0 10:1277 11:1263 12:247 13:0 14:1264 15:943 16:0 
-1 1:0 2:80 3:76 4:0 5:0 6:922 7:872 8:0 9:0 10:1264 11:1273 12:234 13:0 14:1273 15:959 16:0 
-1 1:0 2:85 3:65 4:0 5:0 6:956 7:832 8:0 9:0 10:1307 11:1431 12:99 13:0 14:1348 15:857 16:0 
-1 1:0 2:86 3:77 4:0 5:0 6:969 7:854 8:0 9:0 10:1299 11:1450 12:51 13:0 14:1369 15:823 16:0 
-1 1:0 2:96 3:72 4:0 5:0 6:953 7:876 8:0 9:0 10:1293 11:1443 12:38 13:0 14:1335 15:812 16:0 
-1 1:0 2:70 3:69 4:0 5:0 6:902 7:890 8:0 9:0 10:1238 11:1453 12:37 13:0 14:1316 15:862 16:0 
-1 1:0 2:71 3:74 4:0 5:0 6:888 7:914 8:0 9:0 10:1239 11:1460 12:8 13:0 14:1315 15:844 16:0 
-1 1:0 2:54 3:68 4:0 5:0 6:879 7:874 8:0 9:0 10:1288 11:1407 12:0 13:0 14:1359 15:833 16:0 
-1 1:0 2:54 3:57 4:0 5:0 6:860 7:905 8:0 9:0 10:1268 11:1350 12:0 13:0 14:1353 15:794 16:0 
-1 1:0 2:59 3:46 4:0 5:0 6:848 7:880 8:0 9:0 10:1283 11:1287 12:0 13:0 14:1400 15:721 16:0 
-1 1:0 2:61 3:54 4:0 5:0 6:831 7:901 8:0 9:0 10:1251 11:1286 12:0 13:0 14:1407 15:695 16:0 
-1 1:0 2:70 3:65 4:0 5:0 6:821 7:925 8:0 9:0 10:1242 11:1279 12:0 13:0 14:1398 15:660 16:0 
-1 1:0 2:57 3:56 4:0 5:0 6:804 7:908 8:0 9:0 10:1210 11:1268 12:0 13:0 14:1390 15:688 16:0 
-1 1:0 2:52 3:57 4:0 5:0 6:793 7:894 8:0 9:0 10:1200 11:1254 12:0 13:0 14:1387 15:709 16:0 
-1 1:0 2:53 3:60 4:0 5:0 6:784 7:881 8:0 9:0 10:1201 11:1256 12:0 13:0 14:1383 15:738 16:0 
-1 1:0 2:59 3:67 4:0 5:0 6:801 7:871 8:0 9:0 10:1199 11:1247 12:0 13:0 14:1380 15:720 16:0 
-1 1:0 2:56 3:65 4:0 5:0 6:806 7:860 8:0 9:0 10:1199 11:1249 12:0 13:0 14:1399 15:710 16:0 
-1 1:0 2:55 3:63 4:0 5:0 6:808 7:849 8:0 9:0 10:1214 11:1237 12:0 13:0 14:1386 15:700 16:0 
-1 1:0 2:60 3:62 4:0 5:0 6:806 7:843 8:0 9:0 10:1200 11:1222 12:0 13:0 14:1396 15:703 16:0 
-1 1:0 2:54 3:68 4:0 5:0 6:781 7:878 8:0 9:0 10:1197 11:1262 12:0 13:0 14:1380 15:717 16:0 
-1 1:0 2:53 3:70 4:0 5:0 6:788 7:901 8:0 9:0 10:1194 11:1270 12:0 13:0 14:1359 15:704 16:0 
-1 1:0 2:57 3:63 4:0 5:0 6:839 7:877 8:0 9:0 10:1231 11:1240 12:0 13:0 14:1407 15:664 16:0 
-1 1:0 2:50 3:47 4:0 5:0 6:836 7:890 8:0 9:0 10:1237 11:1261 12:0 13:0 14:1422 15:632 16:0 
-1 1:0 2:49 3:40 4:0 5:0 6:860 7:923 8:0 9:0 10:1245 11:1280 12:0 13:0 14:1404 15:595 16:0 
-1 1:0 2:38 3:26 4:0 5:0 6:845 7:986 8:0 9:0 10:1228 11:1326 12:0 13:0 14:1318 15:592 16:0 
-1 1:0 2:30 3:14 4:0 5:0 6:823 7:977 8:0 9:0 10:1276 11:1273 12:0 13:0 14:1353 15:543 16:0 
-1 1:0 2:31 3:1 4:0 5:0 6:735 7:962 8:0 9:0 10:1317 11:1249 12:0 13:0 14:1382 15:495 16:0 
-1 1:0 2:31 3:1 4:0 5:0 6:703 7:951 8:0 9:0 10:1325 11:1252 12:0 13:0 14:1409 15:486 16:0 
-1 1:0 2:32 3:5 4:0 5:0 6:681 7:925 8:0 9:0 10:1388 11:1203 12:0 13:0 14:1399 15:391 16:0 
-1 1:0 2:34 3:23 4:0 5:0 6:601 7:999 8:0 9:0 10:1380 11:1190 12:0 13:0 14:1343 15:314 16:0 
-1 1:0 2:35 3:25 4:0 5:0 6:673 7:1103 8:0 9:0 10:1349 11:1104 12:0 13:0 14:1288 15:258 16:0 
-1 1:0 2:32 3:4 4:0 5:0 6:778 7:948 8:0 9:0 10:1287 11:1059 12:0 13:0 14:1222 15:266 16:0 
-1 1:0 2:33 3:2 4:0 5:0 6:749 7:1000 8:0 9:0 10:1295 11:1003 12:0 13:0 14:1218 15:237 16:0 
-1 1:0 2:33 3:3 4:0 5:0 6:731 7:978 8:0 9:0 10:1290 11:1018 12:0 13:0 14:1222 15:239 16:0 
-1 1:0 2:33 3:4 4:0 5:0 6:676 7:919 8:0 9:0 10:1318 11:1050 12:0 13:0 14:1230 15:255 16:0 
-1 1:0 2:33 3:3 4:0 5:0 6:775 7:912 8:0 9:0 10:1310 11:1100 12:0 13:0 14:1220 15:278 16:0 
-1 1:0 2:33 3:4 4:0 5:0 6:773 7:901 8:0 9:0 10:1331 11:1142 12:0 13:0 14:1234 15:300 16:0 
-1 1:0 2:33 3:2 4:0 5:0 6:691 7:972 8:0 9:0 10:1425 11:1135 12:0 13:0 14:1320 15:309 16:0 
-1 1:0 2:34 3:21 4:0 5:0 6:765 7:1118 8:0 9:0 10:1444 11:1260 12:0 13:0 14:1292 15:408 16:0 
-1 1:0 2:38 3:3 4:0 5:0 6:828 7:898 8:9 9:0 10:1467 11:1372 12:3 13:0 14:1313 15:475 16:0 
-1 1:0 2:54 3:50 4:0 5:0 6:811 7:928 8:14 9:0 10:1440 11:1352 12:56 13:0 14:1283 15:564 16:0 
-1 1:0 2:61 3:47 4:0 5:5 6:841 7:916 8:3 9:0 10:1460 11:1357 12:82 13:0 14:1298 15:623 16:0 
-1 1:0 2:62 3:55 4:0 5:12 6:844 7:871 8:0 9:3 10:1490 11:1326 12:140 13:0 14:1277 15:698 16:0 
-1 1:0 2:82 3:83 4:0 5:9 6:801 7:898 8:0 9:0 10:1429 11:1337 12:200 13:0 14:1201 15:774 16:0 
-1 1:0 2:131 3:109 4:0 5:58 6:878 7:934 8:0 9:0 10:1454 11:1335 12:246 13:0 14:1187 15:736 16:0 
-1 1:0 2:168 3:158 4:0 5:58 6:791 7:927 8:0 9:0 10:1418 11:1341 12:285 13:0 14:1099 15:815 16:0 
-1 1:0 2:160 3:197 4:0 5:41 6:752 7:950 8:0 9:0 10:1356 11:1333 12:342 13:0 14:1015 15:877 16:0 
-1 1:0 2:186 3:169 4:0 5:72 6:786 7:919 8:0 9:0 10:1368 11:1372 12:331 13:0 14:1007 15:853 16:0 
-1 1:0 2:157 3:137 4:0 5:85 6:784 7:936 8:0 9:12 10:1388 11:1318 12:342 13:0 14:1048 15:909 16:0 
-1 1:0 2:150 3:111 4:0 5:104 6:766 7:905 8:0 9:17 10:1405 11:1322 12:354 13:0 14:1073 15:921 16:0 
-1 1:0 2:149 3:117 4:0 5:104 6:759 7:892 8:0 9:14 10:1397 11:1300 12:356 13:0 14:1094 15:920 16:0 
-1 1:0 2:157 3:114 4:0 5:94 6:751 7:893 8:0 9:19 10:1404 11:1293 12:356 13:0 14:1085 15:918 16:0 
-1 1:0 2:165 3:114 4:0 5:70 6:740 7:894 8:0 9:18 10:1418 11:1294 12:356 13:0 14:1073 15:921 16:0 
-1 1:0 2:148 3:103 4:0 5:80 6:773 7:914 8:0 9:19 10:1386 11:1321 12:370 13:0 14:1047 15:967 16:1 
-1 1:0 2:136 3:116 4:0 5:63 6:689 7:913 8:0 9:24 10:1424 11:1302 12:374 13:0 14:1044 15:965 16:1 
-1 1:0 2:156 3:164 4:0 5:112 6:739 7:952 8:0 9:9 10:1402 11:1376 12:397 13:0 14:996 15:905 16:0 
-1 1:0 2:264 3:175 4:0 5:104 6:848 7:946 8:0 9:3 10:1381 11:1357 12:398 13:0 14:1005 15:846 16:0 
-1 1:0 2:278 3:228 4:0 5:99 6:863 7:998 8:8 9:0 10:1317 11:1370 12:438 13:0 14:887 15:910 16:0 
-1 1:0 2:292 3:198 4:0 5:167 6:922 7:891 8:0 9:7 10:1389 11:1339 12:425 13:0 14:962 15:903 16:0 
-1 1:0 2:247 3:210 4:0 5:174 6:880 7:896 8:0 9:8 10:1333 11:1333 12:475 13:0 14:896 15:1024 16:10 
-1 1:0 2:181 3:143 4:0 5:155 6:873 7:839 8:0 9:34 10:1351 11:1319 12:464 13:0 14:918 15:1159 16:35 
-1 1:0 2:169 3:115 4:0 5:137 6:878 7:853 8:0 9:54 10:1330 11:1263 12:456 13:0 14:912 15:1218 16:46 
-1 1:0 2:134 3:95 4:0 5:118 6:800 7:817 8:0 9:71 10:1266 11:1267 12:467 13:0 14:841 15:1328 16:100 
-1 1:0 2:167 3:144 4:0 5:150 6:866 7:795 8:0 9:68 10:1333 11:1305 12:506 13:0 14:821 15:1255 16:68 
-1 1:0 2:214 3:172 4:0 5:156 6:828 7:817 8:0 9:59 10:1281 11:1304 12:534 13:0 14:780 15:1241 16:52 
-1 1:0 2:200 3:204 4:0 5:163 6:896 7:769 8:0 9:49 10:1331 11:1298 12:518 13:0 14:790 15:1164 16:30 
-1 1:0 2:179 3:199 4:0 5:177 6:939 7:743 8:0 9:48 10:1367 11:1283 12:466 13:0 14:837 15:1097 16:16 
-1 1:0 2:177 3:196 4:0 5:147 6:953 7:774 8:0 9:14 10:1337 11:1318 12:434 13:0 14:776 15:1089 16:13 
-1 1:0 2:141 3:153 4:0 5:94 6:840 7:864 8:0 9:8 10:1287 11:1362 12:404 13:0 14:705 15:1174 16:34 
-1 1:0 2:142 3:144 4:0 5:54 6:856 7:894 8:0 9:3 10:1248 11:1381 12:467 13:0 14:667 15:1199 16:35 
-1 1:0 2:153 3:112 4:0 5:60 6:829 7:882 8:0 9:4 10:1233 11:1382 12:426 13:0 14:679 15:1200 16:32 
-1 1:0 2:150 3:102 4:0 5:65 6:828 7:840 8:0 9:3 10:1265 11:1352 12:413 13:0 14:707 15:1155 16:25 
-1 1:0 2:167 3:96 4:0 5:48 6:870 7:893 8:0 9:1 10:1225 11:1382 12:472 13:0 14:654 15:1162 16:20 
-1 1:0 2:153 3:86 4:0 5:54 6:852 7:887 8:0 9:1 10:1209 11:1389 12:422 13:0 14:657 15:1175 16:18 
-1 1:0 2:168 3:63 4:0 5:9 6:874 7:872 8:0 9:1 10:1234 11:1380 12:436 13:0 14:697 15:1152 16:12 
-1 1:0 2:184 3:29 4:0 5:9 6:881 7:847 8:0 9:1 10:1193 11:1400 12:487 13:0 14:651 15:1153 16:20 
-1 1:0 2:176 3:27 4:0 5:44 6:906 7:872 8:0 9:1 10:1180 11:1416 12:463 13:0 14:662 15:1134 16:14 
-1 1:0 2:185 3:32 4:0 5:44 6:929 7:905 8:0 9:0 10:1161 11:1418 12:463 13:0 14:626 15:1116 16:13 
-1 1:0 2:167 3:28 4:0 5:38 6:918 7:878 8:0 9:0 10:1180 11:1424 12:441 13:0 14:642 15:1124 16:18 
-1 1:0 2:53 3:30 4:0 5:39 6:950 7:887 8:0 9:0 10:1173 11:1423 12:470 13:0 14:636 15:1107 16:12 
-1 1:0 2:157 3:24 4:0 5:1 6:908 7:832 8:0 9:0 10:1219 11:1395 12:441 13:0 14:683 15:1071 16:6 
-1 1:0 2:50 3:24 4:0 5:6 6:897 7:837 8:0 9:0 10:1208 11:1417 12:432 13:0 14:676 15:1057 16:2 
-1 1:0 2:72 3:21 4:0 5:2 6:916 7:914 8:11 9:0 10:1188 11:1434 12:390 13:0 14:656 15:1016 16:0 
-1 1:0 2:52 3:19 4:0 5:47 6:914 7:871 8:6 9:0 10:1173 11:1441 12:395 13:0 14:645 15:1019 16:0 
-1 1:0 2:155 3:21 4:0 5:42 6:902 7:860 8:16 9:0 10:1204 11:1432 12:413 13:0 14:651 15:1046 16:1 
-1 1:0 2:159 3:20 4:0 5:42 6:909 7:863 8:4 9:0 10:1177 11:1424 12:406 13:0 14:644 15:1030 16:1 
-1 1:0 2:155 3:18 4:0 5:48 6:900 7:868 8:3 9:0 10:1175 11:1427 12:391 13:0 14:650 15:1026 16:0 
-1 1:0 2:171 3:30 4:0 5:32 6:896 7:893 8:13 9:0 10:1114 11:1452 12:439 13:0 14:604 15:1032 16:2 
-1 1:0 2:142 3:25 4:0 5:55 6:894 7:860 8:6 9:0 10:1164 11:1432 12:409 13:0 14:639 15:1028 16:0 
-1 1:0 2:153 3:55 4:0 5:65 6:892 7:899 8:4 9:0 10:1175 11:1430 12:403 13:0 14:656 15:1041 16:1 
-1 1:0 2:141 3:72 4:0 5:67 6:834 7:929 8:0 9:0 10:1162 11:1420 12:440 13:0 14:636 15:1132 16:12 
-1 1:0 2:163 3:77 4:0 5:110 6:836 7:897 8:0 9:3 10:1233 11:1401 12:412 13:0 14:668 15:1104 16:9 
-1 1:0 2:171 3:94 4:0 5:125 6:824 7:873 8:0 9:5 10:1256 11:1399 12:469 13:0 14:667 15:1128 16:12 
-1 1:0 2:205 3:116 4:0 5:132 6:862 7:876 8:0 9:3 10:1233 11:1399 12:510 13:0 14:677 15:1138 16:15 
-1 1:0 2:238 3:139 4:0 5:153 6:889 7:880 8:0 9:9 10:1276 11:1372 12:514 13:0 14:725 15:1112 16:10 
-1 1:0 2:243 3:135 4:0 5:141 6:856 7:894 8:0 9:7 10:1248 11:1401 12:518 13:0 14:699 15:1175 16:28 
-1 1:0 2:212 3:136 4:0 5:132 6:819 7:895 8:0 9:15 10:1214 11:1359 12:519 13:0 14:672 15:1259 16:58 
-1 1:0 2:225 3:123 4:0 5:155 6:849 7:843 8:0 9:31 10:1252 11:1323 12:505 13:0 14:731 15:1240 16:61 
-1 1:0 2:189 3:107 4:0 5:139 6:799 7:830 8:0 9:52 10:1242 11:1312 12:496 13:0 14:727 15:1302 16:87 
-1 1:0 2:197 3:127 4:0 5:137 6:833 7:815 8:0 9:67 10:1245 11:1264 12:481 13:0 14:787 15:1282 16:74 
-1 1:0 2:183 3:103 4:0 5:115 6:816 7:776 8:0 9:84 10:1245 11:1257 12:434 13:0 14:788 15:1321 16:100 
-1 1:0 2:151 3:98 4:0 5:93 6:759 7:849 8:0 9:62 10:1191 11:1316 12:395 13:0 14:737 15:1404 16:161 
-1 1:0 2:151 3:85 4:0 5:89 6:769 7:841 8:0 9:63 10:1215 11:1306 12:395 13:0 14:756 15:1398 16:148 
-1 1:0 2:131 3:65 4:0 5:55 6:721 7:825 8:2 9:89 10:1246 11:1295 12:372 13:0 14:794 15:1439 16:186 
-1 1:0 2:153 3:76 4:0 5:67 6:811 7:850 8:0 9:97 10:1235 11:1247 12:389 13:0 14:814 15:1418 16:192 
-1 1:0 2:124 3:46 4:0 5:54 6:731 7:821 8:0 9:128 10:1200 11:1257 12:332 13:0 14:846 15:1453 16:249 
-1 1:0 2:123 3:50 4:0 5:44 6:678 7:863 8:0 9:105 10:1203 11:1278 12:323 13:0 14:805 15:1453 16:262 
-1 1:0 2:146 3:72 4:0 5:85 6:712 7:858 8:0 9:75 10:1210 11:1327 12:380 13:0 14:810 15:1416 16:232 
-1 1:0 2:199 3:88 4:0 5:104 6:807 7:784 8:0 9:94 10:1277 11:1227 12:377 13:0 14:902 15:1337 16:147 
-1 1:0 2:192 3:91 4:0 5:90 6:828 7:779 8:0 9:107 10:1267 11:1188 12:369 13:0 14:931 15:1315 16:139 
-1 1:0 2:153 3:76 4:0 5:70 6:770 7:786 8:0 9:111 10:1241 11:1225 12:335 13:0 14:933 15:1359 16:178 
-1 1:0 2:142 3:80 4:0 5:74 6:744 7:813 8:0 9:96 10:1251 11:1246 12:342 13:0 14:911 15:1378 16:188 
-1 1:0 2:169 3:93 4:0 5:87 6:777 7:763 8:0 9:109 10:1288 11:1208 12:351 13:0 14:971 15:1341 16:152 
-1 1:0 2:191 3:76 4:0 5:89 6:777 7:782 8:0 9:129 10:1263 11:1166 12:340 13:0 14:986 15:1321 16:140 
-1 1:0 2:204 3:79 4:0 5:87 6:818 7:834 8:11 9:123 10:1315 11:1177 12:390 13:0 14:981 15:1324 16:124 
-1 1:0 2:212 3:108 4:0 5:109 6:814 7:856 8:0 9:101 10:1269 11:1215 12:381 13:0 14:926 15:1283 16:96 
-1 1:0 2:197 3:103 4:0 5:107 6:802 7:891 8:0 9:77 10:1255 11:1271 12:370 13:0 14:905 15:1323 16:126 
-1 1:0 2:176 3:108 4:0 5:108 6:759 7:810 8:0 9:97 10:1254 11:1238 12:370 13:0 14:887 15:1335 16:132 
-1 1:0 2:147 3:76 4:0 5:69 6:778 7:807 8:0 9:108 10:1222 11:1250 12:362 13:0 14:852 15:1396 16:201 
-1 1:0 2:146 3:85 4:0 5:84 6:727 7:826 8:0 9:71 10:1172 11:1264 12:382 13:0 14:778 15:1418 16:186 
-1 1:0 2:168 3:75 4:0 5:66 6:740 7:824 8:0 9:81 10:1171 11:1279 12:372 13:0 14:769 15:1413 16:159 
-1 1:0 2:188 3:64 4:0 5:80 6:788 7:807 8:0 9:79 10:1236 11:1246 12:386 13:0 14:809 15:1365 16:139 
-1 1:0 2:173 3:68 4:0 5:81 6:793 7:802 8:0 9:96 10:1224 11:1268 12:381 13:0 14:790 15:1379 16:143 
-1 1:0 2:133 3:58 4:0 5:56 6:741 7:805 8:0 9:106 10:1192 11:1260 12:338 13:0 14:788 15:1424 16:187 
-1 1:0 2:129 3:62 4:0 5:49 6:688 7:823 8:0 9:84 10:1167 11:1295 12:346 13:0 14:755 15:1438 16:208 
-1 1:0 2:137 3:78 4:0 5:60 6:713 7:826 8:0 9:72 10:1186 11:1311 12:350 13:0 14:753 15:1429 16:182 
-1 1:0 2:174 3:98 4:0 5:102 6:756 7:858 8:0 9:63 10:1230 11:1285 12:385 13:0 14:738 15:1377 16:134 
-1 1:0 2:205 3:103 4:0 5:110 6:787 7:824 8:0 9:65 10:1265 11:1283 12:403 13:0 14:761 15:1332 16:102 
-1 1:0 2:194 3:103 4:0 5:104 6:792 7:816 8:0 9:81 10:1267 11:1275 12:391 13:0 14:792 15:1336 16:100 
-1 1:0 2:186 3:101 4:0 5:96 6:748 7:823 8:0 9:57 10:1246 11:1305 12:389 13:0 14:737 15:1343 16:118 
-1 1:0 2:175 3:83 4:0 5:80 6:777 7:793 8:0 9:67 10:1253 11:1292 12:398 13:0 14:774 15:1360 16:122 
-1 1:0 2:161 3:70 4:0 5:75 6:800 7:757 8:0 9:78 10:1258 11:1266 12:351 13:0 14:815 15:1356 16:122 
-1 1:0 2:137 3:50 4:0 5:51 6:823 7:718 8:0 9:106 10:1241 11:1204 12:319 13:0 14:851 15:1370 16:130 
-1 1:0 2:152 3:58 4:0 5:56 6:807 7:758 8:0 9:67 10:1206 11:1260 12:343 13:0 14:780 15:1386 16:146 
-1 1:0 2:146 3:69 4:0 5:70 6:749 7:746 8:0 9:69 10:1205 11:1264 12:348 13:0 14:794 15:1367 16:117 
-1 1:0 2:166 3:99 4:0 5:70 6:752 7:804 8:0 9:46 10:1199 11:1309 12:385 13:0 14:750 15:1356 16:104 
-1 1:0 2:162 3:120 4:0 5:68 6:733 7:832 8:0 9:34 10:1187 11:1347 12:394 13:0 14:731 15:1361 16:114 
-1 1:0 2:170 3:116 4:0 5:67 6:693 7:840 8:0 9:23 10:1157 11:1362 12:381 13:0 14:658 15:1375 16:131 
-1 1:0 2:178 3:106 4:0 5:71 6:723 7:837 8:0 9:26 10:1154 11:1338 12:361 13:0 14:677 15:1372 16:127 
-1 1:0 2:158 3:99 4:0 5:78 6:735 7:803 8:0 9:25 10:1149 11:1343 12:356 13:0 14:687 15:1373 16:132 
-1 1:0 2:170 3:94 4:0 5:77 6:751 7:761 8:0 9:50 10:1168 11:1283 12:361 13:0 14:712 15:1347 16:118 
-1 1:0 2:157 3:79 4:0 5:75 6:746 7:733 8:0 9:63 10:1176 11:1288 12:353 13:0 14:743 15:1359 16:120 
-1 1:0 2:139 3:68 4:0 5:66 6:742 7:702 8:0 9:72 10:1173 11:1252 12:350 13:0 14:741 15:1374 16:129 
-1 1:0 2:148 3:66 4:0 5:73 6:755 7:685 8:0 9:78 10:1168 11:1260 12:370 13:0 14:760 15:1374 16:125 
-1 1:0 2:143 3:64 4:0 5:65 6:738 7:723 8:0 9:69 10:1144 11:1279 12:359 13:0 14:723 15:1386 16:138 
-1 1:0 2:153 3:63 4:0 5:60 6:780 7:705 8:0 9:70 10:1153 11:1276 12:358 13:0 14:729 15:1382 16:135 
-1 1:0 2:167 3:66 4:0 5:67 6:768 7:741 8:0 9:61 10:1179 11:1253 12:353 13:0 14:715 15:1369 16:114 
-1 1:0 2:165 3:49 4:0 5:63 6:801 7:738 8:0 9:62 10:1174 11:1263 12:366 13:0 14:749 15:1372 16:111 
-1 1:0 2:151 3:44 4:0 5:54 6:784 7:745 8:0 9:55 10:1145 11:1296 12:371 13:0 14:716 15:1389 16:134 
-1 1:0 2:140 3:48 4:0 5:57 6:771 7:706 8:0 9:60 10:1146 11:1262 12:361 13:0 14:724 15:1389 16:134 
-1 1:0 2:151 3:52 4:0 5:61 6:780 7:702 8:0 9:51 10:1156 11:1296 12:347 13:0 14:716 15:1383 16:121 
-1 1:0 2:169 3:73 4:0 5:77 6:789 7:712 8:0 9:42 10:1158 11:1278 12:396 13:0 14:710 15:1350 16:104 
-1 1:0 2:164 3:83 4:0 5:93 6:825 7:726 8:0 9:47 10:1156 11:1306 12:411 13:0 14:659 15:1346 16:99 
-1 1:0 2:174 3:88 4:0 5:88 6:807 7:753 8:0 9:45 10:1161 11:1299 12:399 13:0 14:682 15:1341 16:103 
-1 1:0 2:168 3:93 4:0 5:76 6:793 7:785 8:0 9:33 10:1151 11:1355 12:402 13:0 14:639 15:1369 16:124 
-1 1:0 2:165 3:83 4:0 5:64 6:771 7:781 8:0 9:49 10:1161 11:1303 12:365 13:0 14:684 15:1374 16:128 
-1 1:0 2:157 3:65 4:0 5:63 6:818 7:713 8:0 9:76 10:1180 11:1256 12:374 13:0 14:742 15:1373 16:121 
-1 1:0 2:149 3:53 4:0 5:64 6:775 7:747 8:0 9:61 10:1153 11:1295 12:378 13:0 14:731 15:1400 16:163 
-1 1:0 2:145 3:51 4:0 5:64 6:738 7:753 8:0 9:53 10:1160 11:1293 12:378 13:0 14:718 15:1404 16:164 
-1 1:0 2:152 3:58 4:0 5:65 6:755 7:776 8:0 9:48 10:1132 11:1312 12:365 13:0 14:698 15:1405 16:169 
-1 1:0 2:145 3:61 4:0 5:69 6:747 7:795 8:0 9:43 10:1123 11:1313 12:372 13:0 14:685 15:1421 16:162 
