svm_type c_svc
kernel_type rbf
gamma 0.010101
nr_class 2
total_sv 659
rho 0.0901139
label 1 -1
nr_sv 284 375
SV
0.1400726799533169 56:1 57:19 58:11 59:1 
0.674955453806911 56:2 57:19 58:11 
0.4070621355993981 40:1 44:1 48:1 52:4 53:2 54:3 56:1 57:1 58:3 59:2 64:1 65:5 66:7 
0.5131444976965949 54:1 55:1 56:6 57:4 61:1 62:11 63:1 64:4 65:2 66:1 
1 45:4 46:1 47:1 48:6 51:2 52:2 53:7 54:3 55:2 62:1 67:1 68:2 
0.6682228928505913 51:2 52:1 54:2 57:1 58:2 60:1 63:2 64:1 67:1 70:2 78:1 79:13 80:3 
0.1899841286253264 53:1 54:2 55:2 56:1 57:8 63:3 64:8 65:7 
0.2477581963651894 42:1 44:2 51:4 55:4 56:7 57:2 63:1 65:4 66:6 67:1 
0.3486231323570188 63:1 64:3 65:7 67:2 68:2 69:10 70:7 
1 35:3 37:2 38:1 40:1 41:1 42:1 46:2 48:1 49:1 50:1 51:2 52:2 56:2 57:1 59:2 60:2 61:2 67:2 72:3 
0.2694032087557622 43:1 50:1 51:4 52:3 61:1 62:1 63:8 64:1 65:10 66:2 
0.09653545342819252 46:1 47:2 48:7 49:1 55:3 59:3 60:4 61:4 62:7 
1 41:2 42:10 44:3 46:2 47:1 55:1 56:3 57:4 58:2 59:4 
1 40:1 46:2 47:3 48:6 50:3 51:1 52:2 53:7 54:3 55:4 
1 37:2 38:2 45:2 47:1 48:4 49:10 52:1 53:3 54:6 55:1 
1 39:1 41:1 46:1 48:8 49:9 51:10 53:2 
1 31:1 32:3 35:2 36:2 38:3 39:3 41:3 42:3 43:3 44:2 47:2 48:1 51:2 52:1 54:1 
0.8463250481943604 39:2 40:1 41:2 43:3 44:4 49:1 50:2 51:3 53:8 60:1 62:1 63:2 64:2 
1 22:1 27:2 28:1 30:1 31:1 32:1 36:1 37:1 45:4 47:3 49:2 50:1 51:1 52:4 53:1 54:2 55:4 58:1 
0.9541873520375852 40:2 41:1 42:1 43:1 45:2 46:4 47:6 55:2 57:1 58:7 59:2 65:1 69:2 
0.06150145572354064 41:1 42:2 45:1 46:2 47:3 48:2 61:2 62:2 67:1 69:5 70:6 71:4 72:1 
0.5315508666851251 34:1 35:1 36:1 38:2 39:1 40:1 41:2 42:2 50:4 52:4 53:5 59:1 63:1 64:1 66:2 67:2 69:1 
1 35:2 36:3 37:2 41:1 42:2 43:5 44:3 45:2 48:1 49:3 50:3 59:1 61:2 62:1 77:1 
1 31:1 32:1 38:1 39:2 45:1 46:2 47:5 48:4 54:2 55:1 57:2 59:1 60:3 61:3 62:2 74:1 
1 34:3 35:3 39:3 40:1 41:1 42:2 43:1 44:2 45:1 46:4 47:2 58:4 59:1 60:2 61:1 79:1 
0.2121504516650898 34:1 39:1 47:1 49:1 50:4 53:1 54:8 55:3 60:2 61:8 62:1 77:1 
1 31:1 34:1 35:1 39:1 45:1 48:4 49:5 50:3 51:2 52:3 53:3 58:1 59:4 60:1 83:1 
1 22:1 32:1 33:4 37:1 38:1 39:2 40:3 41:3 42:1 43:1 44:1 48:2 51:1 52:2 53:3 54:3 56:1 86:1 
1 28:1 30:2 31:2 34:3 39:2 40:2 41:3 42:2 43:1 45:6 58:1 59:3 60:2 61:1 82:1 
1 28:1 30:2 31:11 33:1 38:1 39:7 40:7 42:1 83:1 
1 27:1 30:1 31:2 34:1 37:1 38:2 39:1 40:1 41:1 42:1 43:1 45:2 46:5 47:1 52:3 53:1 55:3 56:3 82:1 
1 26:6 27:4 30:2 31:4 32:3 33:1 34:1 36:2 38:1 41:1 52:2 53:1 54:2 55:1 83:1 
0.6738791097454626 29:1 31:1 32:3 36:2 38:2 51:1 52:1 55:1 56:2 57:5 59:4 60:1 61:1 62:1 63:1 64:4 78:1 
0.3630174544692251 30:4 31:4 32:1 33:1 34:2 49:1 51:1 53:1 55:3 56:1 58:1 60:4 62:2 63:2 64:2 72:1 78:1 
1 30:4 31:2 33:4 37:2 38:2 39:1 40:1 41:1 42:2 57:1 60:3 62:2 64:3 66:2 67:1 70:1 
0.3093075923063468 29:1 30:2 32:1 37:4 38:3 59:1 60:3 62:2 63:11 64:1 65:2 70:1 
1 30:2 31:1 33:3 34:3 35:1 37:2 38:3 39:5 40:6 61:1 62:3 63:1 73:1 
0.326943282725302 28:3 29:3 38:2 39:1 40:3 41:3 54:1 57:2 58:2 59:4 60:2 61:4 62:1 75:1 
1 29:3 31:2 32:1 37:1 38:1 39:3 40:3 41:4 61:1 63:1 66:2 67:2 68:3 69:5 
1 31:1 32:1 34:3 35:2 36:1 37:4 38:2 42:1 43:2 44:2 45:2 46:2 47:3 48:2 62:1 63:2 68:1 
1 23:1 24:1 25:4 26:1 27:1 28:4 29:1 30:4 31:5 32:6 33:1 35:2 65:1 
1 34:1 35:2 37:8 39:8 42:1 59:1 62:9 64:2 
1 39:1 41:1 51:1 52:2 53:2 54:5 55:5 56:1 57:8 58:6 
0.09768260843709126 51:1 52:3 53:6 54:1 60:1 61:9 62:5 63:6 
0.7091626379874535 61:10 67:9 69:10 70:1 71:1 72:1 
0.1149197920129917 62:6 63:7 68:3 69:7 70:6 71:2 74:1 
0.212370211963554 64:5 66:1 67:1 68:7 69:11 70:5 78:1 79:1 
0.06075693123416629 67:1 68:3 69:9 70:2 71:1 72:4 73:7 74:4 77:1 
0.10147198973588 62:3 66:4 67:5 68:1 70:9 71:5 72:3 76:1 78:1 
0.2863491982000228 65:1 66:6 67:3 68:7 69:1 70:3 72:9 73:2 
0.2407459682860199 65:4 66:8 67:1 68:1 69:2 70:7 71:7 72:2 
0.451180364750594 40:7 41:1 42:1 43:1 46:1 47:1 48:1 51:1 56:1 63:2 64:4 65:6 69:1 71:4 
0.2378465732266721 53:1 54:1 58:1 60:1 62:3 63:6 64:1 70:2 72:2 73:11 74:3 
0.175497052378742 57:1 61:1 63:8 67:2 70:5 71:9 72:2 73:4 
0.4078787692233418 29:1 40:1 45:1 46:2 47:1 48:2 49:2 50:2 51:2 52:1 57:1 63:1 64:5 67:2 68:2 69:1 73:4 74:1 
1 38:1 41:2 42:3 43:1 44:2 47:1 49:2 50:2 51:2 52:1 56:1 61:1 64:1 65:1 68:1 70:4 71:1 72:3 73:2 
0.03650580470081914 57:1 59:1 61:1 62:8 66:1 67:1 68:3 69:7 70:6 71:2 72:1 
0.6250088143109455 23:1 32:1 34:1 41:1 43:2 44:3 45:2 58:1 61:1 62:1 63:1 70:6 71:10 72:1 
0.384404231202559 60:4 61:5 62:1 64:1 65:11 66:9 67:1 
0.06811291864690447 59:1 60:6 61:10 62:1 63:4 64:8 65:1 66:1 
0.942582460953172 42:2 43:4 47:1 48:1 49:2 50:3 51:7 52:1 53:1 54:3 55:2 56:5 
1 22:1 23:1 24:3 25:1 29:1 30:3 31:1 32:1 33:1 34:1 35:2 36:1 39:1 40:1 46:1 47:1 48:2 50:1 51:1 52:2 54:2 55:1 86:1 90:1 
1 31:1 32:5 33:3 34:1 36:1 37:2 42:1 43:3 44:3 45:3 46:2 50:1 51:3 54:2 55:1 
1 37:1 38:5 39:3 44:1 45:6 46:6 47:4 48:4 57:2 
1 27:1 29:1 33:1 34:1 35:1 36:1 37:2 38:1 41:1 42:1 45:3 46:2 47:2 48:2 49:3 50:2 53:3 56:2 85:1 90:1 
0.4120221786237897 48:1 56:1 57:1 58:3 62:3 75:1 76:4 77:2 79:4 80:1 81:2 82:2 83:3 90:3 91:1 
0.2077976985091209 58:3 59:1 63:6 64:7 65:12 66:3 
0.3856436406036377 66:1 67:5 68:10 69:12 70:2 71:1 73:1 
0.0005906791790868322 60:3 62:1 64:1 66:4 67:10 68:5 69:8 
1 40:1 41:1 45:2 48:4 49:5 50:4 56:4 57:4 58:6 59:1 
1 31:1 33:1 34:3 37:1 39:1 41:1 42:3 43:6 44:2 45:1 60:2 61:3 62:2 63:2 64:3 
1 37:2 38:3 39:1 43:1 48:2 49:1 51:3 52:1 54:8 62:1 63:4 64:2 65:3 
0.8068775741448109 38:1 52:5 53:1 54:7 55:1 56:2 57:4 58:11 
1 11:1 14:1 23:1 24:1 25:1 26:1 28:1 30:2 31:1 32:1 33:1 37:1 38:3 41:2 42:2 43:3 44:4 45:3 46:2 
1 37:1 38:3 39:1 42:1 44:1 52:1 53:1 54:3 58:1 59:2 60:1 78:5 79:4 80:2 81:4 82:1 
0.7238348458232563 39:1 47:1 49:1 50:4 52:3 53:7 54:1 56:2 57:10 58:2 
0.08735148512851605 44:1 45:1 49:1 51:4 52:1 56:2 58:10 59:3 61:3 62:6 
0.3526325526089706 48:1 49:1 53:1 54:2 55:4 56:5 57:8 58:1 62:1 63:2 64:6 
0.5759216339128499 60:1 61:2 62:2 63:1 64:4 65:7 66:2 70:12 71:1 
0.3432759305452149 58:1 59:4 60:2 61:1 62:3 63:1 66:2 67:12 68:5 69:1 
0.03712879262801072 52:1 57:1 58:1 59:4 60:3 61:8 66:1 68:8 69:5 
1 38:7 39:12 40:1 41:2 42:2 43:1 45:3 46:2 50:1 59:1 
1 24:1 29:1 34:4 35:3 37:5 38:4 39:1 40:3 42:1 43:2 44:2 45:1 47:1 48:3 
1 37:5 38:3 39:3 40:4 41:1 43:2 45:6 46:1 48:4 49:3 
1 35:4 36:1 38:1 40:2 41:1 42:1 43:6 44:5 45:3 46:1 48:2 49:2 50:3 
1 28:1 29:1 30:1 31:1 33:2 34:1 36:2 38:1 39:2 40:3 41:2 42:3 43:3 49:2 50:5 51:1 52:1 
0.4658860632722509 37:1 38:2 39:1 40:1 41:1 49:2 50:1 75:2 76:4 77:5 78:6 79:2 80:2 83:2 
1 32:1 33:1 38:2 39:5 40:1 47:1 48:5 49:8 50:2 51:3 52:3 
0.7424846256636779 47:1 49:1 50:2 51:4 52:2 53:2 54:10 55:4 56:6 
0.4896278496316525 32:1 35:1 36:1 40:2 44:1 45:1 46:1 47:2 48:1 51:2 53:6 54:1 55:2 56:3 58:3 68:1 75:1 79:2 
0.8546709014628093 62:1 63:10 64:20 65:1 
0.205371658889431 50:1 57:1 58:1 61:1 62:2 63:1 64:5 67:1 68:1 77:2 78:11 79:2 81:3 
0.2419305846335903 59:1 60:1 61:1 62:9 63:9 64:11 
1 16:1 31:1 35:3 36:2 37:3 38:3 39:1 57:2 58:2 59:3 60:2 61:7 62:2 
0.3383483366183676 58:1 59:1 60:12 62:5 63:5 64:1 65:1 79:6 
0.1795215240987104 59:1 60:1 61:1 62:10 63:6 64:3 65:9 70:1 
1 54:1 55:16 56:7 57:5 58:2 64:1 
0.249837177370509 51:1 52:2 53:1 54:2 55:2 59:3 60:10 61:2 64:1 65:8 
0.3475966558673846 52:2 54:4 55:2 58:4 59:2 61:2 62:11 63:5 
0.1971115692215334 53:1 55:3 56:2 57:4 58:2 60:1 65:1 66:10 67:7 68:1 
1 44:1 45:2 46:1 47:3 49:2 50:5 51:6 52:4 58:1 61:5 62:2 
0.01695957068516178 49:2 50:2 51:8 52:3 59:1 61:2 62:4 63:1 64:4 65:4 66:1 
0.7730555526901157 46:1 48:2 49:2 50:5 56:1 57:11 58:4 59:2 60:3 61:1 
1 38:1 44:1 45:3 46:3 47:5 48:5 53:1 55:1 56:1 57:1 58:1 60:5 61:1 62:2 63:1 
0.06704539773138696 44:1 49:1 50:1 51:5 52:2 56:2 57:5 58:8 59:7 
1 38:1 40:1 42:2 43:1 45:2 47:6 49:8 54:1 57:2 59:4 60:4 
1 33:1 35:3 37:1 38:1 39:5 40:4 41:1 42:1 43:2 44:1 45:1 46:1 47:2 48:1 49:2 50:3 51:2 
1 41:3 42:4 43:2 44:5 45:1 46:4 47:3 48:5 49:3 50:2 
1 25:1 26:1 28:1 29:1 31:1 35:1 36:1 38:4 39:4 40:1 44:4 45:1 46:5 51:1 53:3 54:2 
1 37:1 38:2 39:2 45:1 46:1 54:1 55:4 56:13 57:7 
1 34:1 37:2 38:1 39:3 40:1 47:2 48:1 49:1 50:7 51:10 52:3 
0.7335870019183196 32:2 33:1 37:1 38:1 44:1 47:1 48:2 49:2 50:3 51:3 52:7 53:8 
1 26:1 28:1 29:2 30:2 32:2 33:1 34:1 35:3 36:1 37:4 38:4 39:1 48:2 49:2 50:2 51:3 
1 31:3 32:4 33:10 34:2 35:4 48:2 50:1 51:1 52:1 65:1 66:1 67:1 70:1 
1 27:1 29:2 33:1 35:1 40:2 41:1 43:4 44:2 45:5 46:11 47:2 
1 38:1 41:1 46:1 47:1 48:2 49:8 50:3 76:2 77:5 79:4 81:1 83:1 84:1 85:1 
0.4955518231461765 50:12 54:1 57:3 58:2 60:2 61:11 62:1 
0.09062902644136733 58:1 59:5 60:9 63:3 64:8 65:6 
0.491423157827915 64:3 65:12 66:4 67:3 68:9 72:1 
0.06059795661658738 63:1 64:3 65:1 66:1 68:8 69:10 70:7 73:1 
0.537035611984901 63:1 64:2 66:2 71:1 72:2 73:12 74:11 78:1 
0.7253290693983755 41:3 42:1 43:2 44:3 45:2 67:1 68:3 69:3 70:2 72:5 73:2 77:1 78:1 79:1 80:1 84:1 
0.3193507639584134 66:2 67:1 68:1 69:1 71:8 72:2 73:4 74:11 75:1 82:1 
0.4469071038703297 62:2 63:1 67:2 71:1 72:3 73:3 74:11 75:8 83:1 
0.3816369564648631 58:2 60:1 65:3 66:2 67:4 68:9 69:1 75:3 76:6 84:1 
0.4975084160075511 63:1 64:1 66:1 67:1 70:2 71:2 72:3 73:1 74:2 75:1 76:9 77:7 85:1 
0.1623161521891999 67:2 68:5 70:1 72:1 73:9 74:12 75:1 85:1 
0.5560319999495671 46:1 48:1 49:2 50:1 71:1 76:4 77:13 78:8 83:1 
0.8236767389139331 70:2 71:2 77:2 78:8 79:11 80:6 82:1 
0.3205627152823947 67:1 70:1 71:1 74:5 75:6 76:5 77:5 78:7 82:1 
0.5992333647799377 76:3 77:6 78:15 79:7 84:1 
0.604064137476432 69:1 70:1 73:2 74:5 75:9 76:4 77:9 84:1 
0.2145371177175855 68:1 69:2 70:4 71:1 72:2 73:6 74:6 75:7 76:2 86:1 
0.560200167423723 65:1 69:1 70:1 71:10 72:10 73:5 74:3 84:1 
0.02038564793367092 65:1 66:1 67:2 68:5 69:7 71:1 72:6 73:8 86:1 
0.8520336024143373 69:3 72:1 74:5 75:3 76:2 79:1 80:9 81:7 82:1 
0.7744450470354934 66:1 69:1 70:4 74:2 75:9 76:2 78:2 79:2 80:7 81:2 
0.5385542918628916 65:3 66:6 67:1 69:1 74:1 78:1 79:10 80:8 81:1 
0.3534933552297885 54:1 55:2 56:6 57:5 58:2 59:1 60:1 62:2 67:4 71:1 80:7 
0.01418798483790417 47:2 48:5 62:2 63:4 64:6 65:8 66:5 
1 13:1 24:1 28:1 29:3 30:1 31:1 33:1 43:1 45:1 46:1 47:1 48:2 49:2 50:5 51:3 52:1 53:1 55:3 56:1 63:1 
1 39:1 42:1 43:1 44:1 45:2 47:1 48:2 49:1 50:4 51:7 52:8 53:3 
1 31:1 32:2 33:2 35:2 36:2 37:3 42:2 43:1 44:5 45:4 46:3 49:3 63:1 65:1 
1 33:1 36:1 39:2 41:2 42:2 44:2 45:3 48:1 49:7 50:6 61:1 62:2 64:1 66:1 
1 23:1 28:1 29:1 30:4 31:1 32:1 33:1 34:2 37:1 38:2 39:2 40:5 41:6 42:2 57:1 62:1 
1 36:4 37:2 38:3 39:6 45:5 46:5 47:3 48:2 59:1 61:1 
1 11:1 20:1 24:1 25:1 26:1 27:2 30:1 31:1 36:2 37:1 38:2 39:2 40:3 41:8 42:4 44:1 
1 37:5 38:12 39:12 41:1 48:1 52:1 
1 33:2 35:1 36:3 37:6 38:9 39:2 40:1 41:4 45:3 46:1 
1 36:6 37:6 38:6 39:1 40:3 41:5 42:2 43:2 46:1 
0.3603457745916594 37:1 41:1 42:2 44:1 45:2 46:3 47:1 48:1 50:2 51:5 52:5 53:8 
0.7208421546265689 38:1 41:1 44:5 45:1 46:3 48:1 49:1 50:2 52:2 53:2 54:4 55:4 56:5 
1 39:2 40:8 41:3 43:1 52:1 53:1 54:2 56:2 57:4 58:5 64:1 65:2 
1 44:3 45:4 46:3 47:1 48:1 49:3 50:7 51:4 52:1 53:3 54:2 
1 32:3 34:2 35:2 36:4 43:1 45:1 46:2 47:1 48:7 49:5 50:4 
1 25:1 30:1 31:1 35:1 36:1 39:1 43:1 45:1 47:1 48:3 49:3 50:2 51:6 54:1 60:2 63:2 64:4 
1 36:1 38:1 39:1 40:3 41:1 42:1 49:1 50:2 51:3 52:7 53:4 54:1 55:4 56:2 
1 39:3 40:5 41:2 42:1 43:4 44:6 45:2 51:3 52:5 54:1 
0.2714992187992084 36:2 39:2 41:1 46:1 47:3 49:3 50:5 51:3 52:2 53:1 61:1 62:4 63:4 
0.04953472145469818 38:3 39:1 40:3 42:2 52:1 54:1 55:5 57:2 58:5 61:4 62:5 
0.2479416579444276 48:1 49:2 51:1 52:3 53:2 54:1 55:5 56:4 57:4 61:5 62:4 
0.6935922966423649 60:1 61:1 64:5 65:2 66:15 67:6 68:1 77:1 
0.3215534841030442 61:1 63:3 64:15 65:5 66:4 67:3 76:1 
0.2636101159866263 38:1 45:1 47:1 65:4 66:4 70:1 71:3 72:4 73:4 74:8 78:1 
0.439845477817542 27:1 36:1 37:1 40:1 53:1 56:2 57:5 58:3 59:1 64:1 65:2 69:4 70:6 71:3 
0.3443102228377475 19:1 23:1 24:1 33:1 37:1 38:1 39:1 49:4 50:5 51:2 55:1 58:1 59:2 60:2 61:1 68:1 69:4 70:2 
0.7042715436450989 61:1 66:2 67:2 68:14 73:8 74:5 
1 31:1 33:2 36:1 39:3 40:1 42:4 43:1 45:1 46:1 47:2 48:3 49:5 50:1 51:1 56:1 57:1 60:1 66:2 
1 23:1 26:1 27:1 28:3 29:1 30:1 31:1 33:1 35:2 36:2 37:2 38:3 39:3 48:2 49:3 50:1 51:2 56:1 59:1 
1 37:18 38:7 39:3 50:2 51:1 55:1 
1 20:1 27:1 30:1 31:1 32:2 35:1 37:1 40:1 41:1 42:4 43:3 44:3 45:2 46:2 49:6 50:1 53:1 
1 37:1 38:4 39:2 46:13 47:7 48:4 52:1 
1 32:2 33:2 34:3 35:1 37:2 38:3 39:4 40:4 41:2 45:2 46:3 47:3 51:1 
1 33:6 34:4 35:2 36:6 37:4 40:1 42:3 44:1 45:1 48:1 49:1 50:1 51:1 
1 34:1 35:4 36:7 37:4 38:1 39:3 40:3 42:1 43:4 49:1 50:1 53:1 54:1 
1 33:1 38:1 39:5 44:2 45:4 46:2 48:4 49:3 50:5 54:2 55:3 
1 30:2 32:1 36:2 39:1 40:2 42:1 43:1 44:1 46:2 47:14 48:2 49:2 53:1 
1 30:1 31:1 34:2 35:5 36:1 37:1 38:2 39:2 40:3 41:3 46:1 48:1 49:4 50:5 
1 30:1 31:2 32:7 35:8 36:1 43:1 44:6 47:1 51:4 52:1 
1 20:1 21:2 22:1 24:2 27:2 28:2 32:1 39:1 43:2 44:1 45:3 46:3 47:1 51:2 55:4 56:4 
0.5451335173983549 28:1 29:1 30:1 31:1 50:1 52:5 53:6 54:8 55:2 58:1 62:1 63:1 65:2 66:1 
0.2153751097555495 52:1 53:1 56:3 57:10 58:1 62:1 63:4 64:2 65:2 66:5 67:2 
0.6099167795409428 33:1 35:1 36:2 37:1 38:1 39:3 42:1 43:1 44:1 45:3 46:2 54:1 55:3 56:1 57:1 58:1 60:2 63:2 65:1 67:2 68:1 
0.7583301894356771 40:1 41:4 44:1 46:2 47:1 49:1 52:1 54:1 55:2 56:3 57:4 58:1 63:1 67:4 68:1 71:1 72:1 73:2 
0.07516261690152748 40:1 41:4 42:4 46:1 47:1 49:1 50:4 51:1 56:1 57:4 58:5 59:5 
1 28:1 39:2 40:2 41:5 42:3 45:3 51:2 52:1 53:2 54:2 55:2 56:4 57:3 
1 36:1 37:3 38:3 44:2 45:3 46:3 47:5 48:6 53:1 54:2 55:3 
1 31:2 32:6 34:1 35:7 36:5 37:4 39:1 42:1 43:1 44:1 45:1 48:1 50:1 
1 26:1 27:1 29:1 30:2 31:1 32:2 34:4 36:4 37:4 38:6 39:2 45:2 46:2 
1 26:1 27:1 28:2 29:1 32:2 33:1 34:4 35:3 36:3 38:1 40:1 41:1 45:1 46:5 47:5 
1 29:1 31:1 32:1 33:3 35:3 36:4 38:2 39:5 40:3 41:2 47:2 48:3 49:2 
1 25:1 26:5 33:2 38:2 39:1 43:3 44:3 50:1 51:6 52:6 53:2 
1 26:1 32:1 36:2 40:1 42:1 46:1 48:4 49:4 50:1 51:2 52:7 53:7 
1 18:1 30:1 31:1 32:2 33:3 34:1 36:8 38:1 39:2 40:2 41:1 42:1 43:5 44:3 
1 25:3 30:1 32:1 35:1 36:2 37:2 38:1 44:2 46:1 47:1 49:1 50:2 51:6 52:3 53:2 54:3 
1 30:1 31:1 34:1 35:1 37:1 43:2 47:4 48:1 50:4 51:2 52:8 53:6 
1 25:3 28:1 29:2 30:1 32:1 33:1 34:2 44:1 46:1 47:2 48:1 49:1 50:6 51:4 52:1 56:2 57:2 
1 16:1 30:2 31:10 32:6 33:1 35:1 36:1 38:1 42:1 43:1 44:2 45:3 46:2 
1 30:1 31:2 32:5 33:5 34:1 37:1 38:3 39:1 46:2 47:2 48:5 49:3 54:1 
1 30:3 31:3 32:1 34:1 37:1 43:1 47:2 49:1 50:10 51:6 52:3 
0.9246040833870839 33:1 34:2 37:3 38:4 39:1 50:1 53:2 54:4 55:10 56:4 
0.06928738251981009 14:1 31:1 34:1 39:1 40:1 42:1 50:1 51:4 52:1 54:2 55:5 56:11 57:2 
1 26:1 27:1 28:3 29:1 30:1 31:1 32:3 33:6 34:3 36:2 37:2 38:2 40:2 53:1 56:1 57:1 58:1 
1 32:2 34:2 35:2 37:5 38:2 39:8 40:3 53:1 54:1 55:1 56:4 57:1 
0.7250470059619546 26:1 31:1 32:4 33:2 34:1 53:1 54:4 56:1 57:5 58:3 59:3 60:5 61:1 
1 25:3 26:4 27:2 28:4 29:11 30:4 32:1 46:1 57:1 61:1 
1 26:2 28:1 31:2 36:2 38:2 39:1 40:1 43:4 44:7 45:8 54:1 62:1 
1 25:1 28:2 29:1 30:4 34:1 35:2 37:3 38:1 39:1 41:2 42:8 43:2 44:2 60:1 65:1 
1 13:1 25:1 28:2 29:3 30:3 31:3 32:2 33:2 35:2 36:2 39:2 40:3 41:1 42:2 43:1 62:1 65:1 
1 23:2 24:4 25:7 26:2 27:1 28:2 33:1 34:1 35:1 38:1 39:2 40:4 41:2 61:1 65:1 
1 16:1 17:1 20:1 22:3 23:2 24:1 25:2 26:2 28:3 29:1 31:2 32:2 33:2 34:4 35:2 37:1 63:1 68:1 
1 23:7 24:8 25:8 26:2 27:2 34:2 36:1 55:1 64:1 
1 27:1 28:1 30:1 32:2 38:1 39:2 40:8 41:6 42:7 43:1 62:1 65:1 
1 22:1 23:9 24:5 25:5 26:1 31:2 33:1 37:3 38:2 39:1 44:1 60:1 
1 9:1 20:1 23:1 24:2 25:2 26:2 27:3 29:1 31:1 32:1 33:1 35:1 36:1 37:4 38:3 39:4 40:1 59:1 61:1 
1 25:2 26:1 27:2 28:1 35:1 37:4 38:1 39:2 40:2 41:7 42:7 50:1 58:1 
1 25:1 26:1 27:1 28:1 29:1 32:1 37:1 41:1 42:2 43:3 44:11 45:3 46:3 48:1 55:1 
1 28:1 29:3 33:1 39:3 40:1 41:14 42:8 52:1 
1 30:1 31:1 32:1 36:1 39:2 40:2 41:2 43:2 44:10 45:8 46:2 
1 28:1 29:1 30:2 31:1 32:1 33:1 34:1 35:1 36:3 37:1 40:1 41:2 42:3 43:4 44:8 45:1 
1 33:2 35:1 36:1 38:1 41:2 42:3 43:1 44:1 45:6 46:4 47:4 48:4 49:1 57:1 
1 35:1 36:1 40:5 43:4 44:1 45:2 46:1 47:3 48:3 49:4 50:5 53:1 57:1 
1 36:1 38:1 40:1 41:2 42:1 43:2 44:1 46:1 47:4 48:2 49:5 50:4 53:1 54:1 55:5 
0.5494581773688811 38:1 43:3 44:4 46:1 47:1 49:1 50:2 51:7 52:3 57:1 58:1 59:6 60:1 
0.02367163543671096 16:1 29:1 30:1 35:2 40:1 42:1 45:1 48:1 51:1 52:1 54:1 55:2 56:6 57:1 60:1 61:8 62:2 
0.7795725365294248 31:1 32:1 40:1 43:1 45:1 49:1 50:3 51:8 52:5 56:1 58:3 59:4 60:2 
0.199216308437096 32:1 38:1 40:1 43:1 44:1 45:3 46:1 49:1 50:1 51:2 52:5 53:2 59:4 60:8 
1 31:2 40:1 41:1 51:14 53:1 55:1 57:12 
0.9972702104410227 29:1 30:1 37:1 38:1 39:1 40:1 48:3 49:6 50:1 51:1 53:1 54:2 55:4 56:7 57:1 
1 26:1 27:3 28:3 32:1 33:3 34:3 35:3 36:2 37:5 38:2 48:1 49:1 50:1 51:3 
1 6:1 25:1 31:1 37:1 38:2 44:1 45:1 46:9 47:4 50:1 51:4 52:4 53:1 56:1 
1 29:5 30:5 31:2 32:5 33:2 34:3 35:3 36:6 54:1 
1 26:1 27:3 28:2 29:2 31:1 32:6 33:5 34:3 38:2 39:2 40:2 41:1 44:1 49:1 
1 25:2 29:1 30:2 31:1 32:2 33:2 34:1 35:1 36:3 37:3 38:6 39:4 43:2 48:1 53:1 
1 26:8 27:3 29:2 30:7 31:1 34:3 35:4 36:3 55:1 
1 17:1 27:3 28:1 29:1 30:1 31:1 32:2 33:1 34:2 35:2 40:1 41:2 42:6 43:4 44:3 45:1 
1 15:1 29:2 30:1 31:1 32:1 34:2 35:6 36:9 37:2 38:3 39:2 42:1 47:1 
1 30:2 31:6 32:3 33:2 34:1 35:1 36:3 37:9 38:4 42:1 
1 28:2 29:2 30:8 31:4 32:3 33:4 34:7 39:1 48:1 
1 28:5 29:9 30:9 32:3 33:3 34:2 49:1 
1 27:2 28:1 30:1 31:6 33:8 34:4 35:1 36:4 37:4 43:1 
1 28:10 29:12 30:4 32:2 33:3 42:1 
1 27:3 28:10 29:14 30:2 32:1 34:1 43:1 
1 24:4 25:3 26:3 27:5 28:1 29:4 30:6 31:5 47:1 
1 27:2 28:5 29:7 30:6 31:6 32:4 33:1 34:1 
1 18:1 24:1 27:1 29:4 30:20 31:4 34:1 
1 27:2 28:3 29:3 30:3 31:9 32:10 33:1 37:1 
1 29:5 30:18 31:7 32:1 33:1 
0.4419832120787092 29:3 30:19 31:9 40:1 
1 28:6 29:10 30:3 31:9 32:3 36:1 
1 24:1 25:5 26:3 27:2 28:2 29:2 30:1 32:6 33:5 35:5 
1 28:5 29:7 30:3 31:1 32:2 33:7 34:5 35:2 
1 26:7 27:10 28:4 30:3 31:4 32:1 37:1 38:1 39:1 
0.7487449562596249 26:1 27:1 29:1 30:1 34:1 37:1 42:1 43:1 46:3 47:1 52:2 53:2 54:2 55:5 56:6 57:2 87:1 
1 19:1 22:2 25:2 26:2 27:1 31:1 32:1 33:2 34:2 36:1 37:1 39:3 40:1 41:2 42:2 43:4 44:2 62:1 93:1 
1 27:1 31:1 32:1 39:1 40:1 41:1 45:2 46:2 47:2 48:3 49:2 54:5 55:1 56:6 60:1 79:1 96:1 
0.5892700674740583 30:1 32:2 33:4 37:1 38:1 44:2 46:2 50:2 51:5 52:1 53:4 54:4 55:1 86:1 96:1 
1 23:1 29:1 32:1 35:3 38:3 39:4 40:2 42:1 43:1 44:1 45:2 46:1 47:1 51:1 52:2 54:1 55:1 57:1 58:2 87:1 92:1 
1 36:2 37:6 38:2 40:3 41:1 42:2 44:1 45:4 47:1 48:2 49:5 59:1 90:1 95:1 
1 32:2 33:3 36:4 37:4 38:4 40:1 41:1 43:2 44:3 48:2 51:1 53:1 63:1 82:1 92:1 96:1 
1 35:1 37:2 38:2 40:2 41:1 42:4 43:6 44:1 46:4 47:4 48:3 49:1 91:1 
1 34:1 35:1 36:4 37:4 38:1 39:1 42:3 43:3 44:4 45:3 46:5 88:1 98:1 
1 38:6 39:5 41:4 42:1 43:1 44:1 45:1 48:1 49:2 50:8 51:1 90:1 
1 35:1 37:4 38:8 39:1 40:2 41:1 42:3 43:3 44:1 45:2 46:1 47:2 68:1 85:1 89:1 
1 23:1 25:2 28:1 29:1 31:1 32:1 34:2 36:1 37:1 39:1 40:3 41:1 43:3 44:1 45:2 46:3 47:3 48:2 91:1 94:1 
1 33:1 34:2 35:2 36:2 38:4 39:6 40:4 41:7 42:2 92:1 95:1 
1 27:2 28:8 29:3 30:3 31:1 32:1 33:1 34:3 35:1 38:1 39:2 41:2 45:1 46:1 47:1 97:1 
1 35:2 36:1 39:1 40:4 41:4 42:5 43:3 44:1 45:2 46:5 48:2 93:1 97:1 
1 34:2 35:3 36:2 37:2 38:3 41:2 42:2 43:2 44:1 46:2 47:3 49:1 50:1 51:1 52:3 53:1 97:1 
1 39:1 40:1 41:1 42:1 43:2 44:2 45:3 46:3 48:7 49:2 50:3 51:5 95:1 
1 28:1 30:1 36:1 38:1 43:2 44:4 45:1 47:1 49:4 50:1 62:1 82:1 83:2 87:2 88:2 89:1 91:1 92:3 93:1 96:1 
1 33:4 34:2 35:3 40:1 41:1 42:4 44:1 45:2 46:4 47:9 88:1 
1 28:2 29:1 30:6 31:5 32:2 38:1 39:2 40:4 42:1 43:3 44:1 45:1 51:1 63:1 95:1 
1 34:1 35:1 36:3 37:2 38:7 39:6 40:1 41:2 42:3 43:3 44:1 45:1 93:1 
1 26:1 27:1 28:4 29:2 30:1 31:1 36:2 37:4 38:3 39:4 40:5 44:2 46:1 94:1 
1 10:1 18:1 30:4 31:3 32:2 41:1 42:6 43:3 44:4 45:5 46:1 96:1 
1 34:1 35:1 36:3 37:4 40:1 45:1 47:2 48:5 49:3 50:9 51:1 96:1 
1 34:1 35:2 36:1 37:4 38:4 39:3 40:1 42:2 43:2 44:1 45:1 46:2 47:4 48:1 49:1 50:1 94:1 
1 31:1 32:3 42:6 43:2 44:1 45:6 46:5 47:5 48:2 96:1 
1 31:1 36:1 41:2 42:3 43:2 44:13 45:6 46:2 47:1 97:1 
1 12:1 23:1 26:1 27:1 29:1 30:1 37:2 38:2 40:2 41:4 42:6 43:7 44:2 98:1 
1 17:1 23:1 27:1 28:1 30:1 31:1 35:1 38:2 39:1 40:8 41:3 42:4 43:6 99:1 
1 17:1 19:1 24:2 25:2 26:2 27:1 28:1 30:1 32:4 33:3 34:1 35:2 36:1 43:1 45:2 46:4 49:1 50:1 99:1 
1 14:1 28:1 31:1 33:2 34:2 35:1 37:1 41:2 42:1 44:1 45:3 46:3 47:5 48:1 49:6 99:1 
-1 35:1 36:1 38:3 41:1 43:1 44:4 45:3 46:3 47:2 48:6 50:2 51:5 
-0.2633530142297508 32:6 34:6 35:4 36:4 41:2 43:3 44:2 48:3 50:2 
-1 31:5 32:2 35:2 36:1 37:1 38:1 39:4 40:4 41:1 42:1 43:1 45:5 46:4 
-0.7326569207050815 40:8 42:10 43:1 45:1 46:9 47:1 48:2 
-0.5009858861644951 26:3 27:2 28:2 30:2 31:2 32:2 33:6 41:2 42:3 43:3 45:1 49:4 
-1 32:10 34:1 35:10 40:1 42:1 43:1 46:1 47:1 48:2 68:3 71:1 
-0.6324220131358856 27:1 28:8 29:3 30:2 31:6 32:3 43:1 44:2 45:3 48:1 49:1 50:1 
-0.7614758674967177 26:1 27:1 28:3 29:4 30:1 32:5 33:4 34:2 35:2 36:1 44:1 45:1 46:1 49:1 50:1 51:1 66:1 76:1 
-0.5439168384938588 33:3 34:14 44:1 46:5 47:5 50:1 51:1 52:1 53:1 
-0.2128984750498326 33:9 34:9 44:9 45:1 46:1 48:2 49:1 
-1 23:1 24:2 26:1 27:1 28:1 33:1 34:2 35:5 36:2 37:1 38:3 41:1 42:1 47:1 48:1 49:3 60:1 61:1 70:1 72:1 73:1 
-0.1632448262895024 34:3 35:8 36:12 47:3 48:1 52:2 53:3 
-1 35:3 36:2 38:1 48:2 49:1 50:1 52:1 53:1 76:2 78:3 80:1 81:7 82:7 
-0.0565096435838331 21:1 23:3 24:1 25:1 26:2 27:1 28:1 30:4 32:3 33:4 34:2 36:1 45:1 47:1 48:2 49:4 
-1 25:1 36:2 37:1 38:4 45:1 48:2 49:6 50:3 51:4 52:3 53:2 55:1 56:2 
-1 48:1 53:1 54:5 55:8 56:8 57:9 
-1 26:1 31:1 32:1 37:2 38:2 39:1 40:1 41:2 42:2 43:2 44:2 45:1 46:1 47:4 48:2 49:2 53:3 54:1 55:1 
-1 44:1 45:1 46:3 47:2 48:5 50:2 51:2 52:1 53:3 54:1 55:4 56:7 
-1 37:1 38:1 39:1 40:4 43:1 44:1 45:1 48:2 51:2 52:2 53:3 54:9 55:2 56:2 
-0.1130436923020036 35:10 36:7 38:1 39:1 40:2 51:1 52:2 53:1 54:7 
-1 17:1 22:1 29:1 34:1 37:2 38:2 39:2 41:1 47:2 48:4 49:4 50:4 51:4 53:2 55:1 
-1 18:1 31:1 33:1 35:1 36:2 38:3 40:2 43:3 45:4 46:3 47:4 48:3 49:2 51:1 52:1 
-1 50:20 51:1 52:11 
-0.7275866924551286 35:8 36:6 37:3 38:1 49:3 50:4 51:5 52:2 
-0.4408266049598932 34:2 35:3 37:2 38:2 40:1 45:2 46:2 47:3 48:10 49:3 50:2 
-1 37:6 38:8 39:4 42:2 43:2 44:2 45:3 46:2 50:1 51:2 
-0.3106513796621677 41:2 42:13 43:10 44:1 46:1 47:1 51:1 52:2 53:1 
-1 29:1 30:1 31:1 33:1 34:2 37:2 38:1 39:2 40:3 41:1 42:4 43:1 44:3 49:1 52:1 53:1 54:2 56:1 59:2 66:1 
-0.9160174103508816 36:4 37:2 38:3 39:2 40:2 41:1 42:5 43:7 48:2 49:1 50:1 51:1 52:1 
-0.2158525151859339 39:10 41:9 42:7 45:2 47:2 48:2 
-0.08159275234551357 40:2 41:2 42:5 43:6 44:8 46:2 47:5 48:2 
-0.8397911351256583 36:2 37:6 38:7 39:5 40:2 41:1 42:1 43:2 44:3 45:3 
-0.2320316340677046 37:2 38:1 39:4 40:6 41:2 42:2 43:6 44:4 45:5 
-0.07060472812522156 27:1 28:1 29:6 30:5 31:2 32:2 33:2 35:3 39:1 40:1 41:1 42:4 43:3 
-0.2574868725764859 31:2 32:4 33:2 36:4 37:5 38:4 40:2 41:2 42:4 44:1 45:2 
-0.2041111824101512 35:1 37:1 38:4 39:6 40:7 41:10 45:3 
-0.3686857346080488 30:3 31:9 32:6 34:5 41:1 42:2 43:3 45:3 
-0.2134306608413719 36:2 40:4 41:12 42:6 43:5 45:2 46:1 
-0.4796586658809616 37:9 39:9 40:10 41:1 43:3 
-0.3772164917640835 28:1 33:5 34:1 35:4 38:1 39:2 40:6 41:5 42:5 43:2 
-0.9820273047420641 27:1 28:1 29:2 30:6 31:3 36:1 37:3 38:2 39:3 40:3 41:1 42:2 43:1 44:1 45:2 
-0.1176817606993859 31:1 32:2 34:7 35:8 36:9 37:4 38:1 
-0.736257329150709 30:2 32:1 33:1 34:1 35:2 37:4 38:9 39:4 40:2 41:3 42:1 43:2 
-0.5118130904556443 28:2 29:5 30:11 31:3 32:1 33:2 34:2 36:2 41:2 42:1 43:1 
-0.1758910680590764 17:2 18:2 19:1 20:1 21:1 22:1 26:1 27:4 28:1 29:1 30:1 31:3 32:3 33:1 39:1 43:2 44:3 57:3 
-1 31:1 39:1 43:1 44:3 45:1 46:2 52:1 54:5 55:6 56:3 57:4 58:1 59:1 61:2 
-0.990502327218602 31:1 32:5 33:3 39:1 41:4 42:5 43:3 52:2 53:4 55:1 57:3 
-1 31:1 32:1 33:1 34:1 35:1 39:3 40:3 41:2 42:4 49:1 50:4 51:4 52:2 54:1 56:1 57:2 
-1 29:1 30:2 31:2 32:2 35:1 36:1 37:1 38:3 39:7 46:1 47:2 48:2 50:3 51:1 52:1 53:2 
-0.02824368916222757 27:2 28:1 33:1 34:3 35:5 36:2 43:2 44:4 45:2 46:4 47:3 50:1 51:2 
-0.8933113819309275 27:1 36:1 37:3 38:3 39:6 46:1 47:1 48:5 49:7 50:1 51:1 52:2 
-0.3624600886367049 26:2 27:7 28:1 32:1 33:5 34:3 43:2 44:2 46:2 47:2 48:1 51:1 52:3 
-1 28:1 33:2 34:2 37:1 39:2 41:3 43:3 45:5 47:3 48:1 49:1 51:1 52:3 53:4 
-1 31:1 33:2 34:3 36:1 38:2 40:1 41:1 42:2 43:2 44:5 45:1 48:3 49:3 50:4 51:1 
-0.3072712805238727 34:7 35:7 41:9 42:3 47:1 50:2 51:3 
-0.7990205732107701 29:5 30:2 31:3 32:1 34:1 36:1 37:1 38:2 39:2 40:6 47:1 48:1 49:2 50:3 51:1 
-0.5417208290448882 36:9 37:18 40:1 48:1 51:3 
-0.3974662894997925 35:5 36:11 44:6 48:8 49:1 50:1 
-1 34:2 36:1 37:3 38:2 39:3 44:1 45:3 46:4 47:2 49:3 50:8 
-0.9360231327051594 32:4 33:2 34:5 35:2 36:1 37:5 38:5 47:1 48:1 50:2 52:1 53:3 
-0.05716186815395459 34:1 35:3 36:4 37:6 38:6 39:7 50:2 52:1 53:2 
-0.7093819338736118 36:11 40:5 46:6 47:1 49:6 50:3 
-0.6008589330692322 33:4 34:2 36:2 37:5 38:4 39:4 40:3 41:2 49:1 50:1 52:1 53:2 54:1 
-1 37:2 39:1 41:2 42:1 45:1 46:1 48:1 51:3 58:2 59:1 60:1 61:1 63:1 64:5 65:2 68:1 69:2 70:2 72:1 77:1 
-1 37:4 39:1 43:2 44:2 48:1 49:1 50:1 53:1 54:2 55:1 56:1 57:2 63:2 64:2 65:1 66:3 69:2 71:1 73:1 74:1 
-1 32:3 33:6 35:3 36:4 37:5 38:1 42:1 44:1 46:5 50:2 51:1 
-0.9284017706040935 33:1 34:3 35:3 36:2 38:1 41:1 42:1 43:4 44:11 45:3 46:2 
-1 38:1 39:2 41:3 42:3 43:1 44:4 45:7 46:11 
-0.03823313072268405 34:3 35:1 36:4 37:8 38:4 39:1 40:4 41:3 42:3 43:1 
-1 28:2 29:12 30:11 31:1 32:3 34:2 35:1 
-0.0998232042316866 27:9 28:1 29:5 30:5 31:1 32:1 34:6 35:3 37:1 
-0.5904611072289285 21:1 27:3 28:7 29:8 31:1 32:5 33:5 34:2 
-0.09888946404734131 11:1 29:2 30:5 31:2 32:1 33:5 34:14 36:1 47:1 
-0.3710750775409266 17:1 27:1 28:1 30:1 31:1 32:2 34:1 35:2 37:1 38:1 39:1 40:2 41:2 43:2 44:4 45:8 46:1 
-0.03518036450540513 28:1 31:1 33:1 34:10 35:13 36:5 44:1 
-0.05162968917095519 33:1 34:4 35:8 36:3 37:5 38:3 39:3 40:3 59:1 63:1 
-0.3296710127371435 32:1 33:1 34:2 35:4 37:2 38:1 40:1 41:4 42:6 43:1 44:4 45:3 46:1 66:1 
-0.6045508602155068 11:2 12:1 16:1 17:1 19:1 27:1 29:2 30:1 31:3 32:2 33:1 34:2 36:1 39:2 40:1 41:1 42:2 43:1 44:2 63:1 66:1 72:1 75:1 
-0.07419196308229385 33:1 34:1 35:1 36:5 40:1 41:7 43:6 44:8 75:1 85:1 
-0.4625369035291422 31:1 34:1 35:3 36:9 38:1 39:2 40:2 43:3 44:6 64:1 68:1 71:1 77:1 
-0.1163731385644317 34:1 35:3 36:1 37:1 38:1 39:3 40:4 42:2 43:11 44:4 73:1 
-1 31:1 32:1 34:2 35:3 36:7 38:1 39:1 44:2 45:2 46:1 59:1 61:1 62:1 64:1 72:2 75:1 79:1 80:1 81:2 
-0.07914277475517363 34:3 35:2 36:3 37:5 38:2 39:12 40:3 42:1 62:1 
-0.4276488788206908 29:1 32:1 35:21 36:7 37:1 54:1 
-1 23:9 24:4 25:1 26:3 27:3 28:2 29:1 39:1 41:1 42:2 43:1 44:1 45:1 50:2 
-1 34:1 35:2 36:3 37:4 44:1 46:2 47:4 48:1 51:1 52:1 53:2 54:5 55:5 
-1 25:2 26:2 29:1 44:1 45:2 46:3 47:2 48:6 50:1 52:2 53:2 54:3 55:5 
-1 27:1 30:1 31:1 35:4 36:2 37:4 38:2 48:1 56:1 57:7 58:2 60:1 61:4 62:1 
-0.5265345608251238 14:1 15:1 19:1 26:1 30:1 31:1 33:3 34:1 37:1 38:1 41:1 42:3 43:4 44:1 46:3 47:3 48:5 
-0.365460973564527 26:1 39:1 41:2 42:10 43:9 44:9 
-0.3278621672701125 27:1 29:2 32:2 33:2 37:2 39:1 40:6 41:8 42:3 43:5 
-0.2786100059217994 27:1 32:1 36:1 39:1 41:3 42:3 45:1 47:1 48:4 49:7 50:2 51:7 
-1 28:1 30:1 31:3 34:2 35:3 36:2 37:1 41:2 42:4 43:2 44:6 45:3 46:2 
-0.4198333733777248 41:2 42:1 45:1 46:2 47:5 48:4 49:6 50:7 51:4 
-0.3371203138371354 29:1 30:1 31:1 34:2 35:1 36:1 37:1 38:2 41:1 42:1 43:2 44:3 45:2 46:5 47:5 48:3 
-1 31:1 32:4 34:1 42:1 43:1 45:2 46:1 47:1 49:1 50:1 51:1 53:2 54:1 55:1 61:2 62:2 63:3 64:2 65:4 
-1 29:5 30:14 31:4 32:1 42:2 43:2 44:1 45:2 47:1 
-1 40:2 41:3 42:2 43:3 44:3 45:1 46:7 47:10 48:1 
-1 30:1 31:1 34:1 40:2 41:5 42:2 43:3 44:5 45:3 46:4 50:1 51:1 52:1 53:2 
-1 34:2 35:2 36:1 37:1 39:1 43:1 47:1 48:1 51:1 52:2 65:4 66:4 67:1 69:2 70:2 72:2 73:1 74:3 
-1 37:3 38:3 43:1 45:1 52:1 53:1 54:2 55:1 60:1 61:1 62:2 63:1 67:2 68:2 69:2 70:4 71:1 75:1 76:1 78:1 
-0.6616531917825703 34:8 36:1 39:2 40:1 48:1 49:1 51:8 52:3 66:7 
-0.4150383011688537 35:5 36:6 37:1 39:5 40:3 41:6 42:1 52:1 55:1 58:3 
-0.003566025043719512 31:3 32:3 33:5 34:4 35:1 36:6 38:3 39:2 40:1 42:1 51:1 56:1 58:1 
-0.7655661864572327 37:2 38:3 39:2 40:10 41:5 42:4 52:1 60:2 72:1 74:1 75:1 
-1 40:2 41:1 42:2 45:1 52:1 58:1 60:2 73:1 76:1 82:1 83:2 84:3 85:3 86:3 87:1 88:2 89:2 90:3 
-1 37:1 39:1 40:1 41:2 42:3 50:1 52:1 55:1 59:1 75:1 79:1 80:1 84:1 85:2 86:2 87:2 88:2 89:2 90:3 91:2 92:1 
-1 25:4 26:3 27:2 29:1 30:1 31:2 32:2 33:3 34:2 36:1 42:5 46:1 55:1 59:2 78:1 80:1 
-0.7530452129089158 36:9 42:19 55:1 59:1 60:2 
-1 36:6 37:1 38:8 39:6 40:2 41:3 43:1 45:1 50:1 56:1 63:2 
-0.8492547737809589 40:3 41:24 52:1 53:1 57:3 
-1 34:1 35:2 36:4 37:1 38:3 39:5 40:6 41:2 42:1 43:1 45:1 57:1 58:1 60:1 61:1 62:1 
-1 5:1 23:1 25:1 35:2 36:2 37:5 40:1 41:2 43:2 44:2 45:4 47:1 48:1 52:1 53:1 55:1 56:2 60:1 61:1 
-0.4273985060358984 33:1 34:1 35:1 38:1 39:1 40:2 41:8 42:2 43:5 44:3 45:2 46:1 54:1 55:3 
-1 33:1 34:1 35:1 36:1 37:1 43:1 50:1 54:1 55:1 57:1 58:2 59:4 62:3 64:3 65:2 66:1 68:2 70:3 71:1 74:1 
-1 31:1 32:2 33:2 34:2 37:3 38:2 39:5 40:5 43:1 44:2 45:2 46:1 56:1 58:1 60:1 61:1 
-1 33:1 34:1 35:1 39:1 51:3 52:6 53:5 54:1 55:1 56:1 57:2 58:2 61:2 62:2 63:2 67:1 
-1 8:1 9:1 16:1 20:1 25:3 26:3 27:1 28:2 29:1 30:1 31:1 47:1 49:1 50:2 51:4 52:4 53:1 55:2 56:1 
-1 8:2 11:3 15:1 18:1 26:2 27:1 29:1 30:1 31:4 32:3 33:1 41:1 50:1 52:1 53:2 54:2 55:3 57:2 
-0.7890084803213674 31:7 32:14 33:1 35:2 43:1 46:1 49:1 51:1 52:2 54:2 
-1 33:1 35:2 41:1 42:1 43:4 44:2 45:1 47:2 48:4 49:3 50:1 52:2 53:2 54:1 56:2 57:1 58:2 
-0.5932675252745835 23:1 36:1 37:1 38:1 39:3 40:1 41:1 42:2 43:1 46:2 47:5 48:4 49:6 50:3 
-1 14:3 15:3 16:3 17:1 18:2 19:2 20:3 22:2 46:1 47:1 53:1 55:1 57:1 58:2 59:1 60:2 76:1 77:1 78:1 
-0.8883245409802928 28:2 29:1 32:3 33:3 35:1 36:1 39:2 40:2 41:3 42:3 43:3 44:8 
-0.1672639960999182 29:1 30:1 31:4 32:3 33:2 34:1 35:3 36:6 37:10 38:1 
-0.2442067855377238 28:1 35:1 36:1 37:2 38:1 39:7 41:8 42:3 43:8 
-0.2139779494361147 31:1 32:1 33:1 34:7 35:1 37:3 38:6 39:2 42:4 43:4 51:1 53:1 
-0.01877157161461197 30:1 34:1 35:2 36:1 37:9 38:12 39:2 40:1 41:1 42:1 51:1 
-0.03693901897070641 28:1 30:1 31:2 34:2 35:2 36:13 37:2 39:2 41:4 43:1 49:1 61:1 
-0.2343712714214676 33:2 35:4 39:7 40:1 41:5 42:12 63:1 
-0.003967937196118486 27:3 28:2 31:2 32:6 33:3 34:10 35:5 60:1 
-0.6530573677474301 33:1 34:2 39:2 40:20 41:4 42:2 64:1 
-0.06397418494064935 27:1 32:2 33:3 34:15 35:5 36:2 37:3 55:1 
-0.2026930391006684 32:1 33:3 34:1 35:1 38:2 39:5 40:10 41:8 57:1 
-0.4268331914391125 32:1 34:1 35:2 41:6 42:17 43:4 57:1 
-0.8779118139448816 33:2 34:1 35:1 37:1 38:2 39:3 40:3 41:11 42:7 55:1 
-0.02889731881201293 25:5 26:4 27:1 29:1 32:1 33:1 34:3 35:1 36:4 37:1 38:3 39:3 41:2 42:1 60:1 
-0.7912930933617042 35:3 37:1 39:1 40:7 42:7 43:12 63:1 
-0.1424538769296853 30:3 32:4 33:6 34:8 35:1 36:2 38:4 39:1 40:2 64:1 
-0.3780104766836649 30:5 31:12 34:1 35:2 36:2 38:7 39:2 63:1 
-0.09076431512028474 34:3 35:1 38:3 39:3 40:14 41:7 62:1 
-0.5449520973969381 27:1 33:1 34:1 35:3 37:4 38:1 39:6 41:4 42:9 43:1 62:1 
-0.04740302070221709 32:1 33:1 34:2 35:1 36:3 37:1 38:1 39:2 42:4 43:8 44:7 61:1 
-1 25:1 31:2 35:3 36:1 37:3 38:1 40:1 41:1 42:4 44:3 45:2 46:8 47:2 
-1 26:1 34:1 36:1 37:1 43:4 44:11 45:11 46:2 
-0.06800056901368545 26:1 29:8 30:3 31:1 33:3 34:1 36:1 39:2 41:1 42:3 44:2 45:5 57:1 
-0.8818952344007495 28:6 29:7 30:4 32:1 33:4 34:1 35:1 36:1 38:1 43:1 44:2 45:2 46:1 
-0.2462722195557921 29:1 31:1 32:3 33:5 34:4 37:1 41:2 43:3 44:4 45:2 46:6 
-1 20:2 21:3 23:3 29:4 30:4 32:1 33:1 34:2 42:1 45:1 46:4 47:1 48:1 54:1 56:1 58:1 59:1 
-0.9117449145995101 19:1 25:1 28:1 29:1 31:1 33:2 34:3 35:1 36:1 37:1 40:1 41:1 42:1 43:2 44:1 45:5 46:1 47:6 48:1 
-0.110159608777578 27:4 28:10 29:1 30:2 31:2 34:2 35:2 38:1 40:1 44:2 45:2 46:2 47:1 
-0.432522774066716 27:1 30:3 32:2 33:4 34:2 36:2 37:1 38:5 39:3 40:4 42:4 43:1 
-0.3621694906860956 20:1 27:2 28:1 29:1 30:1 31:2 32:1 33:1 34:1 36:5 40:2 41:1 42:4 43:8 44:1 
-1 18:1 27:1 28:1 30:1 32:1 33:4 34:1 35:2 39:1 40:1 42:3 43:3 44:5 45:7 
-1 25:1 38:1 40:1 46:1 47:5 49:9 50:8 51:4 52:2 
-1 33:1 40:1 44:8 45:8 49:1 50:2 51:11 
-1 20:1 30:1 33:1 34:1 35:3 46:2 47:1 48:3 49:2 50:3 51:8 52:5 53:1 
-1 29:1 38:1 42:1 45:1 47:1 48:3 78:6 79:14 80:4 
-1 31:2 32:2 34:1 38:1 39:2 40:1 44:1 45:2 46:2 48:3 49:4 50:3 52:1 53:2 65:1 70:1 72:1 73:1 75:1 
-1 11:1 24:1 28:1 30:1 33:1 34:1 35:2 37:1 45:1 46:3 47:2 48:3 49:7 50:5 51:2 
-1 35:1 44:2 45:3 46:1 47:2 48:4 49:3 50:5 51:2 52:1 53:5 54:3 
-1 34:2 35:2 36:3 37:1 39:2 40:2 42:1 43:1 44:1 45:1 46:1 48:1 49:4 50:3 51:3 53:4 
-1 39:1 47:2 48:3 49:4 50:3 51:7 52:5 54:3 55:4 
-0.3088597524723425 12:1 33:1 37:1 38:2 40:6 41:7 43:1 44:2 45:1 46:10 
-0.3043579547238063 25:2 26:1 27:1 28:1 29:2 31:5 33:1 34:1 35:2 36:4 38:1 39:3 40:2 42:1 43:4 44:1 
-0.4384274636641072 34:3 35:1 36:3 37:1 39:2 40:1 43:1 44:3 45:7 46:5 47:5 
-0.08961170389003534 19:1 24:1 26:1 27:3 28:1 29:1 30:2 34:1 36:3 37:3 38:5 39:3 41:1 43:2 44:2 46:2 
-0.5629309889118579 24:1 25:1 27:1 28:1 37:1 38:1 39:3 40:8 41:3 45:3 46:4 47:4 48:1 
-0.04597056565239359 27:1 28:2 29:2 37:1 38:1 39:1 40:7 41:4 42:5 43:1 48:5 49:2 
-0.388038438394876 40:9 43:1 44:10 45:2 46:10 
-0.3652428813142798 33:2 36:8 37:4 39:2 41:4 42:6 43:6 
-0.4742058944416163 31:8 32:1 33:7 35:8 36:1 37:2 39:1 41:1 42:2 44:1 
-0.04973465759141417 28:1 29:1 30:6 31:3 32:1 33:1 34:6 35:6 36:7 
-0.6118640581275493 28:2 29:4 30:9 31:4 33:2 34:9 35:2 
-0.8246321228968606 25:3 26:17 27:4 29:1 30:2 31:2 33:1 34:2 
-0.3149942162202633 30:3 32:16 33:11 34:1 35:1 
-0.4506858730024628 19:1 26:2 27:3 28:7 29:3 30:7 31:6 33:3 
-0.4403560309901557 24:3 27:1 28:6 29:2 31:2 32:1 33:5 35:1 36:5 38:1 39:3 40:1 41:1 
-0.4813077885972863 25:1 26:4 27:7 28:2 29:1 36:2 37:5 38:5 39:1 40:1 41:1 42:2 
-0.7372384103774431 6:1 7:1 9:1 11:1 12:1 13:2 14:1 19:1 22:1 24:2 25:1 26:3 27:1 28:2 35:1 37:2 38:4 39:3 41:3 
-0.8583728056682852 29:19 34:1 37:10 38:1 41:1 
-0.2014743835725037 28:1 29:7 30:4 33:1 34:3 35:7 36:5 38:1 39:3 
-0.1330947303942127 25:1 26:4 27:1 28:4 31:1 34:1 36:6 37:5 38:6 39:1 40:2 
-0.287903488123973 26:5 27:2 28:3 30:1 35:1 37:2 38:10 39:5 40:1 41:2 
-0.2193209345058333 25:1 26:6 27:3 28:4 29:3 30:6 31:4 37:1 39:4 
-0.07260701581134287 24:2 25:1 27:3 28:2 29:1 30:1 33:1 34:1 35:1 36:2 37:4 38:4 39:2 40:5 41:2 
-0.3245792593347185 26:1 28:1 35:4 36:2 37:1 38:13 39:8 40:2 
-0.2294539745398289 26:2 28:2 30:1 33:1 34:1 35:1 36:3 37:9 38:9 40:1 41:2 
-0.6219937376483237 24:2 25:5 26:4 27:4 28:4 29:2 30:4 31:3 32:4 
-1 25:1 26:1 28:1 29:7 30:4 31:12 32:6 
-0.5904854213418923 24:2 25:6 26:7 28:1 29:1 31:1 33:2 34:1 35:2 37:1 39:1 40:4 41:3 
-0.2531886219572878 26:2 27:1 28:1 30:1 32:1 34:3 35:1 36:5 37:1 38:13 39:3 
-0.02316413525142772 28:1 35:4 36:4 37:2 38:12 39:8 40:1 
-1 35:1 38:2 39:1 40:4 41:2 42:5 43:6 44:3 45:2 46:2 48:2 49:2 
-0.2309809392240919 28:1 33:1 34:4 35:3 38:1 39:6 40:10 41:1 42:1 43:2 44:2 
-0.1228540101790474 30:2 31:8 32:11 33:10 44:1 
-0.2245718195539884 32:2 33:2 34:6 35:6 37:1 38:3 39:6 40:5 50:1 
-0.3650788773058731 25:1 29:1 31:3 34:4 35:1 37:9 38:10 39:2 48:1 
-1 31:1 32:3 33:1 38:10 39:14 40:2 48:1 
-0.1141275940669277 26:5 27:2 30:3 31:1 32:6 33:3 34:2 39:1 40:1 41:4 43:3 46:1 
-0.3255561053863323 24:1 26:2 27:8 28:6 30:1 31:4 32:1 33:1 34:2 35:2 36:1 39:2 40:1 
-0.4010577074298308 26:1 28:2 29:1 30:2 31:1 32:2 33:2 34:5 35:1 36:1 37:1 38:3 39:5 40:3 41:2 
-0.1346738360463789 22:1 23:1 30:1 32:1 33:3 35:4 36:1 38:7 39:5 40:5 41:2 50:1 
-1 21:3 22:2 23:3 24:5 25:3 26:1 27:1 38:1 44:1 46:3 47:1 48:2 49:1 50:1 51:1 53:1 56:1 57:1 
-0.213844946093914 24:1 31:1 35:1 36:2 37:1 39:1 41:5 42:6 43:6 44:5 45:3 
-0.1103411424113235 30:1 32:2 33:5 37:4 38:2 39:4 40:8 41:5 45:1 
-0.5387085112676147 19:2 20:2 21:2 22:1 26:1 27:1 28:4 29:3 30:2 37:1 39:1 42:2 44:2 45:2 46:1 47:1 49:2 50:2 
-0.5009078782564491 30:1 31:2 32:1 34:1 35:4 36:1 37:1 38:1 39:17 40:2 41:1 
-1 27:1 32:1 34:1 35:3 36:2 37:4 38:2 39:3 41:1 42:1 43:3 44:2 45:6 46:2 
-0.09587374922194449 30:1 32:1 34:1 35:2 36:2 37:3 38:8 39:4 40:3 41:7 
-0.2376722183963914 18:1 24:1 25:4 26:4 27:1 29:4 30:2 33:1 36:1 37:2 38:1 39:1 40:3 41:5 45:1 
-0.06615561550126757 27:1 28:5 34:1 37:2 39:4 40:3 41:8 44:1 45:1 47:2 48:4 
-0.3360983929367886 31:1 33:1 34:5 36:5 37:6 38:1 39:1 40:2 41:1 42:4 43:5 
-0.01996038199315559 29:1 30:1 32:6 34:5 38:4 39:3 40:5 41:5 42:2 
-0.2666266511693278 31:1 34:3 35:7 36:1 37:5 38:8 39:7 
-0.05461658286871345 34:3 35:2 36:8 37:2 38:1 39:5 40:11 
-0.2221747755747664 25:7 26:3 27:2 30:2 32:3 35:1 36:2 37:3 41:1 46:1 47:2 48:1 49:1 50:2 51:1 
-0.7222836301501194 34:1 37:1 38:1 40:2 41:3 42:8 45:1 46:3 47:6 48:6 
-1 13:1 29:1 41:1 43:1 48:4 49:2 50:7 51:2 54:1 55:2 56:1 57:8 58:1 
-1 33:1 34:1 35:1 37:1 43:1 44:2 45:2 46:6 47:6 50:6 51:5 
-0.8070178942004728 28:7 29:7 36:1 41:8 42:3 44:1 46:3 48:1 49:1 
-1 30:1 45:1 55:2 56:2 57:6 58:1 59:3 60:1 62:13 63:2 
-1 27:1 35:1 44:1 45:2 46:1 47:5 48:5 50:1 52:1 53:2 54:10 55:2 
-1 44:1 46:2 47:2 48:1 49:3 50:1 51:1 52:3 55:1 56:2 57:4 58:2 59:4 60:5 
-1 37:1 40:1 41:1 42:3 43:2 44:1 45:1 49:2 50:1 51:5 52:9 53:5 
-1 34:1 39:1 46:2 47:1 48:2 49:2 50:1 51:2 52:1 56:5 57:1 58:2 59:2 60:6 61:3 
-0.9083220550280117 30:1 31:2 34:1 35:2 36:1 37:1 38:3 39:2 40:3 41:2 44:2 45:1 46:2 47:9 
-1 34:1 40:1 41:2 42:1 43:2 44:2 45:2 48:2 49:5 50:6 51:8 
-0.3741060210609519 29:1 34:1 35:1 36:1 37:3 38:3 39:1 40:2 44:1 45:1 46:2 47:2 48:5 49:7 50:1 
-1 27:1 28:1 32:3 34:1 35:2 36:2 37:3 38:3 41:1 43:1 44:2 45:5 46:4 47:1 48:2 
-1 25:3 26:2 27:1 30:1 32:1 34:2 35:2 36:3 37:3 38:2 42:1 43:6 44:2 45:1 46:2 
-0.8207830902332474 40:3 41:6 42:3 43:1 44:1 45:6 46:5 47:4 48:1 49:2 
-0.904647796958645 18:1 24:1 27:1 29:1 30:1 31:2 32:3 33:2 35:3 36:2 38:3 39:1 40:2 41:1 42:1 43:1 44:1 45:1 46:1 47:2 50:1 
-1 32:1 34:3 40:1 41:1 42:1 48:1 49:2 50:1 51:1 52:4 54:2 55:2 56:4 57:4 58:4 
-1 33:1 46:2 47:2 48:1 49:3 52:1 55:6 56:7 57:6 58:3 
-0.9300740633899799 27:1 28:1 30:3 31:2 32:1 36:1 42:3 43:1 44:1 45:2 46:3 47:3 48:5 49:5 
-0.9803149360988239 31:1 36:1 38:2 39:2 40:4 41:2 42:1 48:3 49:1 50:3 51:6 52:6 
-0.5038145992147677 30:1 31:2 33:2 36:1 37:1 38:2 39:2 40:2 41:5 42:2 48:3 49:3 50:3 51:3 
-1 31:1 32:1 38:3 39:1 40:1 41:1 42:3 44:1 45:3 46:1 48:4 49:6 50:6 
-0.6831174867161869 32:1 35:1 36:3 37:4 38:2 39:1 44:2 45:3 46:3 47:4 48:7 49:1 
-0.3857836369840376 29:1 33:1 40:3 41:3 42:7 43:1 46:1 48:4 49:2 50:4 51:5 
-1 30:3 31:3 36:2 37:3 38:4 39:2 50:1 51:2 54:3 55:3 56:2 57:2 58:2 
-1 12:1 17:1 21:1 32:1 33:1 34:2 35:4 36:3 46:1 51:2 52:1 54:1 55:2 56:6 57:5 
-1 11:1 23:1 24:1 26:1 28:1 34:2 35:2 36:3 37:4 38:1 44:1 51:1 52:2 53:1 54:5 55:3 56:2 
-0.4382101562711235 24:1 27:1 28:1 29:1 31:1 32:2 36:3 38:2 39:2 40:1 41:3 42:2 43:3 44:2 45:1 46:1 49:2 81:1 84:2 
-1 27:1 31:1 32:1 33:1 34:1 35:1 39:3 40:1 41:1 42:2 43:7 44:2 45:2 47:1 48:3 49:3 50:1 
-0.3242113318201579 30:3 31:2 33:1 36:1 37:1 38:2 39:8 40:11 41:3 
-0.4040725748877573 28:1 30:7 31:4 32:3 33:3 36:5 37:6 38:1 39:2 
-0.925753310492331 29:3 30:12 31:3 32:5 33:2 34:3 35:2 36:2 
-0.2502579919865081 32:1 33:1 34:1 35:5 36:1 37:1 38:2 39:1 40:4 41:14 42:1 
-0.1629317931005018 30:2 31:1 32:6 34:2 36:3 37:1 38:1 39:3 40:4 41:7 42:2 
-1 37:17 38:9 40:2 41:1 44:1 47:2 
-0.5028058652279688 34:4 36:2 37:6 38:4 41:3 42:8 43:1 49:3 51:1 
-1 38:1 39:5 40:2 41:2 42:2 44:2 45:3 46:6 47:3 48:4 49:2 
-1 38:1 39:1 40:2 41:1 44:3 47:3 48:6 49:2 50:1 52:3 53:3 54:3 55:1 56:1 57:1 
-1 36:2 37:3 38:1 44:1 45:1 46:2 47:6 48:2 51:1 55:2 56:1 57:2 58:2 59:1 60:4 61:1 
-1 51:7 56:10 58:1 59:1 67:9 68:1 69:3 
-1 37:1 38:1 39:1 40:1 43:3 44:2 45:2 47:1 48:1 49:2 50:2 51:2 52:2 53:5 61:1 73:1 74:3 75:1 
-0.9804192987079413 38:1 39:7 41:8 42:4 47:5 50:1 56:1 57:2 58:1 60:2 
-0.3678703553370858 40:1 42:4 43:14 44:6 48:2 51:1 60:2 61:2 
-0.4706993090075299 36:1 37:6 38:4 39:4 40:6 48:3 49:1 51:1 55:3 57:1 58:2 
-1 33:1 37:3 38:3 40:2 42:3 44:2 46:2 48:1 49:5 50:8 51:2 
-1 37:3 38:1 40:1 41:1 42:4 52:1 56:1 58:1 60:1 61:2 66:2 67:2 68:2 75:2 76:2 78:1 79:2 80:1 81:2 
-1 35:2 36:1 37:1 41:2 42:1 43:1 45:3 47:3 51:1 53:2 54:4 55:1 56:5 57:3 58:2 
-0.8849708235417968 37:1 38:7 39:3 40:4 41:7 42:2 51:1 52:1 54:2 57:4 
-1 22:1 25:2 26:1 27:1 28:1 29:1 32:2 35:2 36:1 37:2 38:2 39:4 40:2 41:1 49:2 51:3 54:3 55:1 
-1 38:1 39:3 43:1 44:1 52:1 59:2 61:1 68:1 69:1 70:1 71:1 72:2 73:2 74:2 75:2 76:2 77:1 78:3 79:1 80:3 
-0.2817346577695497 27:1 28:2 29:2 30:1 31:1 37:5 38:6 39:6 44:2 45:2 48:1 55:1 57:2 
-0.3601386884839614 35:2 36:5 37:4 38:4 39:8 42:1 43:2 51:2 52:2 53:2 
-0.03182623603069838 24:1 28:2 30:2 31:1 32:1 33:1 36:1 37:1 39:6 40:4 41:4 42:2 44:2 45:2 52:1 53:1 
-0.2997489908182272 33:4 35:2 36:9 37:2 41:2 42:2 43:5 44:3 45:1 46:2 
-0.6299241278694996 35:16 38:1 40:11 41:1 44:1 45:2 
-0.03162689735654048 31:1 32:1 34:5 35:3 36:4 37:4 38:2 39:1 40:4 43:1 46:1 49:3 50:2 
-0.449110777331812 30:7 31:13 32:2 36:1 37:1 38:4 41:2 42:2 
-0.3081289591445242 31:9 34:9 35:10 36:2 40:1 41:1 
-0.1307193862787701 36:3 37:2 38:1 39:5 40:5 44:1 45:4 46:3 47:4 48:2 52:1 53:1 
-0.09727352580235638 27:1 28:1 29:1 30:2 32:3 33:3 34:3 35:4 39:1 40:5 41:1 42:4 43:1 44:2 
-0.2562895459339742 32:3 33:16 34:5 35:3 36:2 39:1 40:2 
-0.4262644653908038 29:9 32:9 34:10 37:2 38:2 
-0.06383675831337525 31:7 32:9 33:3 35:1 36:3 37:5 38:1 39:3 
-0.30305626065799 25:2 26:4 27:3 28:2 30:2 31:7 32:5 33:3 35:2 36:2 
-1 27:2 28:12 29:10 30:2 31:1 32:2 34:1 35:2 
-0.09542640122123575 27:5 28:8 29:2 30:9 31:1 32:4 33:1 36:1 37:1 
-0.5843257836956698 26:10 27:3 28:6 29:2 30:6 31:1 34:2 35:2 
-0.3534659503427043 26:6 27:8 28:4 29:7 30:2 31:1 32:2 33:1 34:1 
-0.01199080888792575 26:7 27:6 28:4 29:5 30:6 32:1 33:3 
-0.7245245863886719 27:4 28:6 29:7 30:7 31:4 33:1 34:3 
-0.1561356624770044 24:1 25:12 26:4 27:2 28:1 29:3 30:3 31:1 32:1 33:2 34:2 
-0.3449472096516683 23:2 24:8 25:1 26:2 27:5 28:6 29:2 30:2 32:1 33:1 34:2 
-0.295994911523684 29:4 30:4 31:14 32:5 33:5 
-0.4857011077830982 17:1 18:2 20:2 23:1 25:2 26:3 28:2 30:1 32:4 33:8 34:1 35:4 36:1 
-0.6779797866739667 27:1 28:7 29:1 30:7 31:4 32:7 35:1 36:2 37:1 38:1 
-1 28:7 29:9 30:2 31:2 32:4 33:3 34:1 35:2 37:1 38:1 
-0.07454570402575132 33:2 34:2 35:1 36:3 37:5 38:1 40:7 41:2 42:6 43:2 45:1 
-0.7361066392982993 39:3 40:4 41:3 43:2 44:10 46:3 47:2 51:1 54:1 56:2 57:1 
-1 38:1 39:2 40:2 41:2 42:1 43:1 44:3 45:1 46:1 48:1 49:3 50:1 51:3 52:5 53:4 54:1 
-1 21:1 27:2 29:1 30:1 31:1 33:1 34:1 36:1 38:1 40:1 42:2 43:3 44:3 45:1 52:2 53:2 54:4 57:1 58:3 
-0.6679010589403264 28:1 29:3 30:2 34:1 35:2 36:1 37:1 38:3 39:6 40:3 46:1 47:1 48:3 49:2 50:2 
-1 29:2 31:4 32:1 34:1 42:1 43:1 45:1 47:2 49:7 50:2 51:3 53:1 55:3 56:1 58:1 59:1 
-1 23:4 24:5 25:2 26:1 30:1 31:2 32:4 38:1 39:2 40:2 41:1 43:4 44:2 45:1 
-0.4178269563552353 14:1 15:2 16:1 22:1 24:4 25:2 26:1 29:2 30:2 31:3 37:1 40:1 41:3 42:4 43:3 45:1 
-0.06093725714406466 27:1 28:1 30:3 32:1 34:1 35:2 38:5 39:10 40:6 45:2 
-0.4720887763876244 26:1 27:4 28:3 29:2 31:1 35:1 37:2 38:3 39:4 40:1 41:2 42:4 43:3 44:1 
-0.3104631357353306 31:1 32:9 33:7 34:1 35:1 36:2 37:2 38:2 39:2 43:1 44:2 45:2 
-1 22:3 23:1 24:3 25:1 26:1 28:2 29:1 30:2 31:2 32:2 33:2 35:1 37:2 40:1 41:1 42:1 43:1 49:3 62:1 64:1 
-0.3688216886453045 34:1 35:5 37:3 38:4 39:10 40:3 42:3 43:1 46:1 47:1 
-0.05040579417527983 32:2 33:2 34:2 36:5 38:2 39:4 40:3 41:7 42:2 43:1 45:1 50:1 
-0.0365149188941029 24:1 26:2 28:1 29:2 31:1 32:2 33:1 37:3 38:2 39:1 40:1 41:2 42:4 43:2 44:2 45:1 46:3 47:1 
-1 24:1 26:1 29:1 32:1 39:1 41:2 42:4 43:7 44:13 45:1 
-1 31:2 37:1 38:5 39:2 46:1 47:1 50:2 51:1 52:1 53:1 54:3 55:2 57:6 58:4 
-1 32:1 33:3 34:1 37:3 38:1 40:3 41:1 42:1 43:3 44:2 45:1 46:2 47:2 48:3 49:5 
-0.3039482043004098 32:1 33:4 34:2 36:3 37:2 38:4 39:13 40:2 41:1 
-0.2011205680491347 32:2 33:10 34:14 35:3 37:2 38:1 
-0.2820436516553278 16:1 17:1 18:1 19:1 24:1 25:1 26:1 27:2 30:1 31:1 32:1 34:1 35:3 36:2 37:2 38:3 44:3 45:2 46:4 
-0.4175445013808024 30:3 31:6 32:6 33:5 35:1 37:2 38:8 48:1 
-0.5411530788448168 30:1 31:9 32:5 33:3 34:3 35:1 36:4 37:5 49:1 
-0.6876047034229207 28:9 29:9 34:10 35:1 37:2 50:1 
-0.9178744072710859 32:1 33:1 34:1 36:4 38:5 39:1 40:2 41:1 42:3 43:2 44:2 45:2 46:1 47:1 48:2 49:2 54:1 
-0.1048498956066352 29:3 31:4 32:3 33:5 34:1 35:1 36:8 37:5 38:1 57:1 
-0.3437043034331868 27:2 28:4 29:2 30:2 31:6 32:9 33:1 36:1 37:2 39:1 57:1 59:1 
-1 17:1 22:2 23:1 26:1 27:1 28:1 29:1 30:1 32:2 33:1 34:2 35:3 36:1 37:1 38:1 39:1 40:3 47:1 51:1 52:2 55:1 56:2 58:1 
-0.398755973685503 33:10 34:1 36:8 37:2 38:8 39:1 55:1 60:1 
-1 27:2 28:1 30:1 31:1 32:1 35:1 36:2 37:3 41:1 46:1 47:1 48:2 49:2 50:2 51:5 52:4 61:1 63:1 
-0.0768738435526479 30:5 31:4 32:1 33:1 34:2 35:3 36:4 37:5 38:5 63:1 65:1 
-0.8198429584234613 33:1 34:1 35:1 36:1 37:1 38:1 40:1 41:1 42:1 43:1 44:2 45:3 46:1 47:1 48:4 49:2 50:2 51:3 52:2 54:1 64:1 
-0.7897373897607884 31:2 32:1 33:9 34:2 35:1 36:3 37:6 38:5 55:1 60:1 64:1 
-0.5754742129581667 29:13 30:6 31:1 32:3 33:2 35:3 38:2 63:1 65:1 
-0.4625233458022161 28:1 29:1 30:1 32:1 36:1 37:2 38:1 42:1 43:1 44:1 45:1 46:4 47:2 48:12 52:1 61:1 
-0.4720071431009283 24:1 25:1 26:1 27:4 28:2 29:2 33:5 34:1 35:3 36:2 37:3 38:4 54:1 60:1 63:1 
-0.5181490885913529 25:13 26:3 27:1 29:3 30:4 32:1 35:2 38:1 39:1 54:1 57:1 61:1 
-0.4272420140637013 24:1 25:2 27:1 32:1 36:1 37:1 38:1 39:2 40:2 42:1 44:6 46:6 47:6 63:1 
-0.4862118535031299 30:1 31:5 32:2 33:14 34:7 35:2 57:1 
-0.9234203102138171 24:2 25:11 26:1 27:2 28:2 29:1 30:1 32:2 34:2 35:5 45:1 50:1 56:1 
-0.2642933862943352 30:2 31:1 32:3 33:3 34:3 35:18 48:1 50:1 
-0.3651535925738955 26:7 30:5 32:3 33:7 34:7 35:1 39:1 47:1 
-0.2728049081126775 22:1 23:3 24:1 25:3 28:1 29:1 31:3 32:9 33:5 34:1 35:3 45:1 
-0.6683029773194141 22:6 23:5 24:4 25:4 29:1 31:2 32:2 33:3 34:1 35:2 36:1 41:1 
-0.07314340520037214 22:1 24:1 27:1 28:3 30:2 31:5 32:6 33:11 35:1 37:1 
-0.1351246991506849 22:7 23:7 24:4 25:1 27:1 29:3 30:3 31:2 32:3 38:1 
-0.2207937585244484 25:1 29:1 30:3 31:1 34:1 35:5 36:4 37:7 38:9 
-0.2329322643349759 22:2 23:2 25:2 26:2 28:3 29:1 30:1 32:5 33:11 34:2 35:1 
-1 26:2 40:1 41:1 43:2 44:1 45:4 47:2 49:3 50:2 51:7 52:6 53:1 
-1 25:1 31:2 32:2 33:1 34:1 35:1 37:4 39:6 40:1 42:1 45:2 46:5 47:5 
-0.1744791664030738 24:1 28:2 31:1 32:6 33:5 35:6 36:9 37:2 
-0.6877486529827696 26:3 27:6 28:2 29:1 30:3 31:2 32:3 33:5 34:1 39:1 45:1 50:1 51:1 52:2 
-0.3939153748103298 26:2 27:3 28:1 29:3 30:4 31:10 32:9 
-0.263633970602791 32:3 33:2 35:16 36:11 
-0.4753734192279788 30:2 32:12 33:18 
-0.1308821006414572 31:1 32:3 33:8 34:7 35:5 36:8 
-0.3038965745909719 28:3 29:2 30:6 31:10 32:7 33:3 34:1 
-0.3279291219281653 14:1 15:2 20:1 28:1 30:3 31:4 32:2 34:2 35:1 36:1 38:4 39:2 40:3 41:4 42:1 
-0.278858131442932 29:3 30:8 32:4 33:6 34:3 35:4 36:1 38:1 39:1 64:1 
-0.4237360561294941 28:1 29:1 30:3 31:4 32:4 33:11 34:7 66:1 
-0.03122713836129255 29:3 30:3 31:3 32:4 33:6 34:6 35:1 36:3 37:1 40:1 67:1 
-0.2126655343607803 19:4 20:4 22:1 23:3 26:1 29:2 30:1 35:4 36:6 38:2 39:3 65:1 
-0.6122015425815869 27:1 33:10 34:2 36:18 57:1 
-0.07323161592828349 28:4 30:1 31:5 32:4 33:6 34:4 35:6 36:1 41:1 
-0.2135269098454107 23:1 27:1 28:1 32:3 33:6 34:1 35:1 36:1 37:10 38:7 
-0.1401956592002875 27:1 29:1 31:2 32:1 33:10 35:8 36:9 
-0.9704881400705334 30:1 38:1 44:1 46:1 47:2 48:5 49:4 50:3 51:4 52:8 53:2 
-0.401289704020368 27:13 28:8 29:4 30:1 31:1 33:1 34:1 35:2 36:1 
-0.03329708751200999 24:7 25:3 26:1 27:1 32:1 33:1 34:5 35:6 36:6 39:1 
-0.7046095936379243 40:4 41:2 42:3 43:8 44:5 45:4 46:6 
-0.3390593854558913 34:1 35:6 36:11 37:11 38:3 
-0.3173873353537781 21:1 23:2 24:4 25:1 32:3 33:6 34:1 35:1 36:4 37:1 38:1 39:3 40:3 41:1 
-0.3796243255511917 31:1 32:1 33:2 36:17 37:5 38:3 39:1 40:2 
-0.4411946967243385 30:1 31:1 32:1 33:1 34:1 35:1 36:5 37:16 38:3 39:2 
-0.8188357301517726 30:2 32:2 33:2 40:4 41:9 42:10 43:3 
-0.5536705004609833 25:1 29:1 30:3 31:1 32:3 34:2 35:1 36:4 38:1 40:1 41:1 42:1 43:5 44:4 46:1 48:1 57:1 
-1 21:1 22:1 25:1 26:2 29:1 30:4 32:1 33:1 36:1 39:2 43:1 44:1 45:2 46:2 47:3 48:2 49:2 50:4 
-0.7248190457006225 29:1 30:2 38:2 46:3 47:10 48:6 49:8 
-0.9355872646595561 26:1 28:1 29:1 30:1 31:1 32:1 34:3 38:1 43:1 44:3 45:11 46:5 47:1 75:1 
-1 26:1 28:1 29:1 30:1 32:1 33:1 36:1 38:1 39:1 43:1 44:2 46:13 47:6 75:1 
-1 29:1 30:2 32:1 34:1 36:1 47:4 48:1 49:3 56:2 70:2 73:1 75:2 76:1 77:4 78:2 79:2 80:2 
-0.2190650364172443 26:4 27:1 28:4 29:2 30:4 31:3 36:1 37:1 39:1 40:1 41:3 43:4 44:1 46:1 76:1 
